{"learner":{"attributes":{"scikit_learn":"{\"_estimator_type\": \"regressor\"}"},"feature_names":[],"feature_types":[],"gradient_booster":{"model":{"cats":{"enc":[],"feature_segments":[],"sorted_idx":[]},"gbtree_model_param":{"num_parallel_tree":"1","num_trees":"100"},"iteration_indptr":[0,1,2,3,4,5,6,7,8,9,10,11,12,13,14,15,16,17,18,19,20,21,22,23,24,25,26,27,28,29,30,31,32,33,34,35,36,37,38,39,40,41,42,43,44,45,46,47,48,49,50,51,52,53,54,55,56,57,58,59,60,61,62,63,64,65,66,67,68,69,70,71,72,73,74,75,76,77,78,79,80,81,82,83,84,85,86,87,88,89,90,91,92,93,94,95,96,97,98,99,100],"tree_info":[0,0,0,0,0,0,0,0,0,0,0,0,0,0,0,0,0,0,0,0,0,0,0,0,0,0,0,0,0,0,0,0,0,0,0,0,0,0,0,0,0,0,0,0,0,0,0,0,0,0,0,0,0,0,0,0,0,0,0,0,0,0,0,0,0,0,0,0,0,0,0,0,0,0,0,0,0,0,0,0,0,0,0,0,0,0,0,0,0,0,0,0,0,0,0,0,0,0,0,0],"trees":[{"base_weights":[-1.9376241E-6,-9.087966E0,2.9384415E1,-3.0221453E1,-4.8535295E0,3.327377E1,3.2828934E0,-2.615056E0,-1.1719329E0,-8.117861E-1,-1.9904311E-1,9.6699303E-1,2.7628524E0,-2.2755523E-1,4.4206694E-1],"categories":[],"categories_nodes":[],"categories_segments":[],"categories_sizes":[],"default_left":[0,0,0,0,0,0,0,0,0,0,0,0,0,0,0],"id":0,"left_children":[1,3,5,7,9,11,13,-1,-1,-1,-1,-1,-1,-1,-1],"loss_changes":[3.3914652E4,8.533694E3,2.9363047E3,1.3575098E2,1.0015919E3,2.7766016E2,8.4434235E1,0E0,0E0,0E0,0E0,0E0,0E0,0E0,0E0],"parents":[2147483647,0,0,1,1,2,2,3,3,4,4,5,5,6,6],"right_children":[2,4,6,8,10,12,14,-1,-1,-1,-1,-1,-1,-1,-1],"split_conditions":[1.3542E2,9.34E1,9.960318E-1,9.335E1,1.1515E2,1.3872E2,1.0316157E0,-2.615056E0,-1.1719329E0,-8.117861E-1,-1.9904311E-1,9.6699303E-1,2.7628524E0,-2.2755523E-1,4.4206694E-1],"split_indices":[0,2,3,1,0,0,3,0,0,0,0,0,0,0,0],"split_type":[0,0,0,0,0,0,0,0,0,0,0,0,0,0,0],"sum_hessian":[1.25E2,9.6E1,2.9E1,1.5E1,8.1E1,2.5E1,4E0,1.2E1,3E0,2.4E1,5.7E1,2E0,2.3E1,1E0,3E0],"tree_param":{"num_deleted":"0","num_feature":"5","num_nodes":"15","size_leaf_vector":"1"}},{"base_weights":[-6.776174E-3,-8.410391E0,2.7165136E1,-2.804042E1,-4.4775753E0,3.075532E1,3.0631623E0,-2.421944E0,-1.1016167E0,-7.494412E-1,-1.833942E-1,9.154199E-1,2.5510335E0,-2.1845306E-1,4.1554275E-1],"categories":[],"categories_nodes":[],"categories_segments":[],"categories_sizes":[],"default_left":[0,0,0,0,0,0,0,0,0,0,0,0,0,0,0],"id":1,"left_children":[1,3,5,7,9,11,13,-1,-1,-1,-1,-1,-1,-1,-1],"loss_changes":[2.8999596E4,7.3629717E3,2.5017031E3,9.3163086E1,8.5480383E2,2.0382227E2,7.592059E1,0E0,0E0,0E0,0E0,0E0,0E0,0E0,0E0],"parents":[2147483647,0,0,1,1,2,2,3,3,4,4,5,5,6,6],"right_children":[2,4,6,8,10,12,14,-1,-1,-1,-1,-1,-1,-1,-1],"split_conditions":[1.3542E2,9.34E1,9.960318E-1,9.335E1,1.1515E2,1.3872E2,1.0316157E0,-2.421944E0,-1.1016167E0,-7.494412E-1,-1.833942E-1,9.154199E-1,2.5510335E0,-2.1845306E-1,4.1554275E-1],"split_indices":[0,2,3,1,0,0,3,0,0,0,0,0,0,0,0],"split_type":[0,0,0,0,0,0,0,0,0,0,0,0,0,0,0],"sum_hessian":[1.25E2,9.6E1,2.9E1,1.5E1,8.1E1,2.5E1,4E0,1.2E1,3E0,2.4E1,5.7E1,2E0,2.3E1,1E0,3E0],"tree_param":{"num_deleted":"0","num_feature":"5","num_nodes":"15","size_leaf_vector":"1"}},{"base_weights":[-1.2527042E-2,-8.483159E0,2.315751E1,-2.601741E1,-4.777631E0,2.7771452E1,1.393535E0,-2.2430928E0,-1.0355198E0,-6.918839E-1,-2.3176515E-1,9.148193E-1,2.341951E0,-3.318576E-1,2.4068247E-1],"categories":[],"categories_nodes":[],"categories_segments":[],"categories_sizes":[],"default_left":[0,0,0,0,0,0,0,0,0,0,0,0,0,0,0],"id":2,"left_children":[1,3,5,7,9,11,13,-1,-1,-1,-1,-1,-1,-1,-1],"loss_changes":[2.4925822E4,5.918249E3,3.3755E3,5.986133E1,5.427472E2,3.5270312E2,7.5129425E1,0E0,0E0,0E0,0E0,0E0,0E0,0E0,0E0],"parents":[2147483647,0,0,1,1,2,2,3,3,4,4,5,5,6,6],"right_children":[2,4,6,8,10,12,14,-1,-1,-1,-1,-1,-1,-1,-1],"split_conditions":[1.2987E2,9.34E1,9.960318E-1,9.335E1,1.1515E2,1.3392E2,1.2804E2,-2.2430928E0,-1.0355198E0,-6.918839E-1,-2.3176515E-1,9.148193E-1,2.341951E0,-3.318576E-1,2.4068247E-1],"split_indices":[0,2,3,1,0,1,1,0,0,0,0,0,0,0,0],"split_type":[0,0,0,0,0,0,0,0,0,0,0,0,0,0,0],"sum_hessian":[1.25E2,9.2E1,3.3E1,1.5E1,7.7E1,2.7E1,6E0,1.2E1,3E0,2.4E1,5.3E1,3E0,2.4E1,1E0,5E0],"tree_param":{"num_deleted":"0","num_feature":"5","num_nodes":"15","size_leaf_vector":"1"}},{"base_weights":[-1.975105E-2,-7.8496904E0,2.1398016E1,-2.4140928E1,-4.407261E0,2.566605E1,1.2690256E0,-2.0792396E0,-9.6756804E-1,-6.3874704E-1,-2.1356726E-1,6.5580344E-1,2.135559E0,-3.1858337E-1,2.2463684E-1],"categories":[],"categories_nodes":[],"categories_segments":[],"categories_sizes":[],"default_left":[0,0,0,0,0,0,0,0,0,0,0,0,0,0,0],"id":3,"left_children":[1,3,5,7,9,11,13,-1,-1,-1,-1,-1,-1,-1,-1],"loss_changes":[2.1298146E4,5.1091787E3,2.8884102E3,4.214258E1,4.63516E2,2.8420117E2,6.7752174E1,0E0,0E0,0E0,0E0,0E0,0E0,0E0,0E0],"parents":[2147483647,0,0,1,1,2,2,3,3,4,4,5,5,6,6],"right_children":[2,4,6,8,10,12,14,-1,-1,-1,-1,-1,-1,-1,-1],"split_conditions":[1.2987E2,9.34E1,9.960318E-1,9.335E1,1.1515E2,1.2796E2,1.2804E2,-2.0792396E0,-9.6756804E-1,-6.3874704E-1,-2.1356726E-1,6.5580344E-1,2.135559E0,-3.1858337E-1,2.2463684E-1],"split_indices":[0,2,3,0,0,2,1,0,0,0,0,0,0,0,0],"split_type":[0,0,0,0,0,0,0,0,0,0,0,0,0,0,0],"sum_hessian":[1.25E2,9.2E1,3.3E1,1.5E1,7.7E1,2.7E1,6E0,1.2E1,3E0,2.4E1,5.3E1,2E0,2.5E1,1E0,5E0],"tree_param":{"num_deleted":"0","num_feature":"5","num_nodes":"15","size_leaf_vector":"1"}},{"base_weights":[-2.7707297E-2,-7.2636395E0,1.976551E1,-2.240008E1,-4.065605E0,2.3712458E1,1.15408E0,-1.930746E0,-8.9310104E-1,-5.8969116E-1,-1.9679807E-1,9.172648E-1,2.0220659E0,-3.0584013E-1,2.0966084E-1],"categories":[],"categories_nodes":[],"categories_segments":[],"categories_sizes":[],"default_left":[0,0,0,0,0,0,0,0,0,0,0,0,0,0,0],"id":4,"left_children":[1,3,5,7,9,11,13,-1,-1,-1,-1,-1,-1,-1,-1],"loss_changes":[1.818959E4,4.4107676E3,2.4702178E3,4.235498E1,3.9584924E2,2.462793E2,6.11177E1,0E0,0E0,0E0,0E0,0E0,0E0,0E0,0E0],"parents":[2147483647,0,0,1,1,2,2,3,3,4,4,5,5,6,6],"right_children":[2,4,6,8,10,12,14,-1,-1,-1,-1,-1,-1,-1,-1],"split_conditions":[1.2987E2,9.34E1,9.960318E-1,9.335E1,1.1515E2,1.3766E2,1.2804E2,-1.930746E0,-8.9310104E-1,-5.8969116E-1,-1.9679807E-1,9.172648E-1,2.0220659E0,-3.0584013E-1,2.0966084E-1],"split_indices":[0,2,3,1,0,1,1,0,0,0,0,0,0,0,0],"split_type":[0,0,0,0,0,0,0,0,0,0,0,0,0,0,0],"sum_hessian":[1.25E2,9.2E1,3.3E1,1.5E1,7.7E1,2.7E1,6E0,1.2E1,3E0,2.4E1,5.3E1,4E0,2.3E1,1E0,5E0],"tree_param":{"num_deleted":"0","num_feature":"5","num_nodes":"15","size_leaf_vector":"1"}},{"base_weights":[-3.1578187E-2,-6.721368E0,1.8267893E1,-2.0784561E1,-3.7504385E0,2.268373E1,3.4812648E0,-1.789503E0,-8.3517486E-1,-5.444029E-1,-1.8134561E-1,8.585598E-1,1.9495163E0,-3.3657837E-3,6.316763E-1],"categories":[],"categories_nodes":[],"categories_segments":[],"categories_sizes":[],"default_left":[0,0,0,0,0,0,0,0,0,0,0,0,0,0,0],"id":5,"left_children":[1,3,5,7,9,11,13,-1,-1,-1,-1,-1,-1,-1,-1],"loss_changes":[1.5547655E4,3.8076587E3,2.1410752E3,2.8695312E1,3.380592E2,2.6214648E2,1.4032214E2,0E0,0E0,0E0,0E0,0E0,0E0,0E0,0E0],"parents":[2147483647,0,0,1,1,2,2,3,3,4,4,5,5,6,6],"right_children":[2,4,6,8,10,12,14,-1,-1,-1,-1,-1,-1,-1,-1],"split_conditions":[1.2987E2,9.34E1,9.43017E-1,9.335E1,1.1515E2,1.3766E2,1.5519E2,-1.789503E0,-8.3517486E-1,-5.444029E-1,-1.8134561E-1,8.585598E-1,1.9495163E0,-3.3657837E-3,6.316763E-1],"split_indices":[0,2,3,0,0,1,0,0,0,0,0,0,0,0,0],"split_type":[0,0,0,0,0,0,0,0,0,0,0,0,0,0,0],"sum_hessian":[1.25E2,9.2E1,3.3E1,1.5E1,7.7E1,2.5E1,8E0,1.2E1,3E0,2.4E1,5.3E1,4E0,2.1E1,5E0,3E0],"tree_param":{"num_deleted":"0","num_feature":"5","num_nodes":"15","size_leaf_vector":"1"}},{"base_weights":[-2.8369721E-2,-5.7320004E0,1.8414316E1,-1.8818607E1,-2.914663E0,2.161381E1,4.8140054E0,-1.6618924E0,-7.9774094E-1,2.148063E-1,-3.2998675E-1,3.9328977E-1,1.770084E0,8.018524E-2,5.9377545E-1],"categories":[],"categories_nodes":[],"categories_segments":[],"categories_sizes":[],"default_left":[0,0,0,0,0,0,0,0,0,0,0,0,0,0,0],"id":6,"left_children":[1,3,5,7,9,11,13,-1,-1,-1,-1,-1,-1,-1,-1],"loss_changes":[1.3359524E4,3.5214807E3,1.201374E3,8.688281E1,5.5998395E2,9.650488E1,6.215184E1,0E0,0E0,0E0,0E0,0E0,0E0,0E0,0E0],"parents":[2147483647,0,0,1,1,2,2,3,3,4,4,5,5,6,6],"right_children":[2,4,6,8,10,12,14,-1,-1,-1,-1,-1,-1,-1,-1],"split_conditions":[1.3542E2,9.62E1,9.43017E-1,9.335E1,4.1601217E-1,1.3766E2,1.5519E2,-1.6618924E0,-7.9774094E-1,2.148063E-1,-3.2998675E-1,3.9328977E-1,1.770084E0,8.018524E-2,5.9377545E-1],"split_indices":[0,2,3,1,3,0,0,0,0,0,0,0,0,0,0],"split_type":[0,0,0,0,0,0,0,0,0,0,0,0,0,0,0],"sum_hessian":[1.25E2,9.6E1,2.9E1,1.6E1,8E1,2.3E1,6E0,1.2E1,4E0,1.4E1,6.6E1,1E0,2.2E1,3E0,3E0],"tree_param":{"num_deleted":"0","num_feature":"5","num_nodes":"15","size_leaf_vector":"1"}},{"base_weights":[-2.4015881E-2,-5.7715654E0,1.5697928E1,-1.6683586E1,-2.9302325E0,1.8827953E1,9.3526787E-1,-1.5399482E0,-7.6281744E-1,2.2714506E-1,-3.0892295E-1,7.3723954E-1,1.6036841E0,-2.802725E-1,1.8071584E-1],"categories":[],"categories_nodes":[],"categories_segments":[],"categories_sizes":[],"default_left":[0,0,0,0,0,0,0,0,0,0,0,0,0,0,0],"id":7,"left_children":[1,3,5,7,9,11,13,-1,-1,-1,-1,-1,-1,-1,-1],"loss_changes":[1.1476296E4,2.8345486E3,1.5534463E3,1.649336E2,4.1395428E2,1.4311523E2,4.9041706E1,0E0,0E0,0E0,0E0,0E0,0E0,0E0,0E0],"parents":[2147483647,0,0,1,1,2,2,3,3,4,4,5,5,6,6],"right_children":[2,4,6,8,10,12,14,-1,-1,-1,-1,-1,-1,-1,-1],"split_conditions":[1.2987E2,1.0146E2,9.960318E-1,9.335E1,2.0814936E-1,1.3766E2,1.2804E2,-1.5399482E0,-7.6281744E-1,2.2714506E-1,-3.0892295E-1,7.3723954E-1,1.6036841E0,-2.802725E-1,1.8071584E-1],"split_indices":[0,2,3,0,3,1,1,0,0,0,0,0,0,0,0],"split_type":[0,0,0,0,0,0,0,0,0,0,0,0,0,0,0],"sum_hessian":[1.25E2,9.2E1,3.3E1,1.8E1,7.4E1,2.7E1,6E0,1.2E1,6E0,1E1,6.4E1,4E0,2.3E1,1E0,5E0],"tree_param":{"num_deleted":"0","num_feature":"5","num_nodes":"15","size_leaf_vector":"1"}},{"base_weights":[-2.3231445E-2,-5.3354807E0,1.4508017E1,-1.5470098E1,-2.696905E0,1.8038923E1,2.6956186E0,-1.4262291E0,-7.1051E-1,2.106256E-1,-2.845894E-1,6.900559E-1,1.5486673E0,-3.4505208E-3,4.903871E-1],"categories":[],"categories_nodes":[],"categories_segments":[],"categories_sizes":[],"default_left":[0,0,0,0,0,0,0,0,0,0,0,0,0,0,0],"id":8,"left_children":[1,3,5,7,9,11,13,-1,-1,-1,-1,-1,-1,-1,-1],"loss_changes":[9.803802E3,2.4451877E3,1.3694619E3,1.3682227E2,3.533181E2,1.5594043E2,8.4913635E1,0E0,0E0,0E0,0E0,0E0,0E0,0E0,0E0],"parents":[2147483647,0,0,1,1,2,2,3,3,4,4,5,5,6,6],"right_children":[2,4,6,8,10,12,14,-1,-1,-1,-1,-1,-1,-1,-1],"split_conditions":[1.2987E2,1.0146E2,9.43017E-1,9.335E1,2.0814936E-1,1.3766E2,1.5519E2,-1.4262291E0,-7.1051E-1,2.106256E-1,-2.845894E-1,6.900559E-1,1.5486673E0,-3.4505208E-3,4.903871E-1],"split_indices":[0,2,3,0,3,1,0,0,0,0,0,0,0,0,0],"split_type":[0,0,0,0,0,0,0,0,0,0,0,0,0,0,0],"sum_hessian":[1.25E2,9.2E1,3.3E1,1.8E1,7.4E1,2.5E1,8E0,1.2E1,6E0,1E1,6.4E1,4E0,2.1E1,5E0,3E0],"tree_param":{"num_deleted":"0","num_feature":"5","num_nodes":"15","size_leaf_vector":"1"}},{"base_weights":[-1.7283726E-2,-4.9427247E0,1.3455755E1,-1.4344948E1,-2.4949253E0,1.733163E1,3.7760468E0,-1.3209074E0,-6.617893E-1,2.3406519E-1,-2.7778646E-1,5.148466E-1,1.4423724E0,1.5557942E-1,6.409021E-1],"categories":[],"categories_nodes":[],"categories_segments":[],"categories_sizes":[],"default_left":[0,0,0,0,0,0,0,0,0,0,0,0,0,0,0],"id":9,"left_children":[1,3,5,7,9,11,13,-1,-1,-1,-1,-1,-1,-1,-1],"loss_changes":[8.42795E3,2.1045833E3,1.210145E3,1.13368164E2,4.0752908E2,6.650537E1,6.973605E1,0E0,0E0,0E0,0E0,0E0,0E0,0E0,0E0],"parents":[2147483647,0,0,1,1,2,2,3,3,4,4,5,5,6,6],"right_children":[2,4,6,8,10,12,14,-1,-1,-1,-1,-1,-1,-1,-1],"split_conditions":[1.2987E2,1.0146E2,8.9484227E-1,9.335E1,3.31356E-1,1.3392E2,1.6212E2,-1.3209074E0,-6.617893E-1,2.3406519E-1,-2.7778646E-1,5.148466E-1,1.4423724E0,1.5557942E-1,6.409021E-1],"split_indices":[1,2,3,0,3,1,0,0,0,0,0,0,0,0,0],"split_type":[0,0,0,0,0,0,0,0,0,0,0,0,0,0,0],"sum_hessian":[1.25E2,9.2E1,3.3E1,1.8E1,7.4E1,2.3E1,1E1,1.2E1,6E0,1.1E1,6.3E1,2E0,2.1E1,8E0,2E0],"tree_param":{"num_deleted":"0","num_feature":"5","num_nodes":"15","size_leaf_vector":"1"}},{"base_weights":[-1.0127961E-2,-4.569096E0,1.2460289E1,-1.3929242E1,-2.4432316E0,1.6026655E1,3.5463715E0,-1.2358259E0,-5.756066E-1,-4.1906795E-1,-9.245696E-2,6.6569775E-1,1.3721346E0,1.4451605E-1,6.0672075E-1],"categories":[],"categories_nodes":[],"categories_segments":[],"categories_sizes":[],"default_left":[0,0,0,0,0,0,0,0,0,0,0,0,0,0,0],"id":10,"left_children":[1,3,5,7,9,11,13,-1,-1,-1,-1,-1,-1,-1,-1],"loss_changes":[7.2203145E3,1.816519E3,1.0240337E3,6.269995E1,2.7105118E2,6.532861E1,6.3576736E1,0E0,0E0,0E0,0E0,0E0,0E0,0E0,0E0],"parents":[2147483647,0,0,1,1,2,2,3,3,4,4,5,5,6,6],"right_children":[2,4,6,8,10,12,14,-1,-1,-1,-1,-1,-1,-1,-1],"split_conditions":[1.2987E2,9.62E1,8.9484227E-1,9.335E1,1.1515E2,1.3986E2,1.6212E2,-1.2358259E0,-5.756066E-1,-4.1906795E-1,-9.245696E-2,6.6569775E-1,1.3721346E0,1.4451605E-1,6.0672075E-1],"split_indices":[1,2,3,1,0,0,0,0,0,0,0,0,0,0,0],"split_type":[0,0,0,0,0,0,0,0,0,0,0,0,0,0,0],"sum_hessian":[1.25E2,9.2E1,3.3E1,1.6E1,7.6E1,2.3E1,1E1,1.2E1,4E0,2.3E1,5.3E1,4E0,1.9E1,8E0,2E0],"tree_param":{"num_deleted":"0","num_feature":"5","num_nodes":"15","size_leaf_vector":"1"}},{"base_weights":[-5.6165666E-3,-4.2285447E0,1.15455E1,-1.2373081E1,-2.1088817E0,1.4829436E1,3.3309562E0,-1.1361655E0,-5.767046E-1,2.323905E-1,-2.4128087E-1,1.2181399E0,2.2764891E-1,8.19662E-2,4.7149557E-1],"categories":[],"categories_nodes":[],"categories_segments":[],"categories_sizes":[],"default_left":[0,0,0,0,0,0,0,0,0,0,0,0,0,0,0],"id":11,"left_children":[1,3,5,7,9,11,13,-1,-1,-1,-1,-1,-1,-1,-1],"loss_changes":[6.1950425E3,1.5794282E3,8.677886E2,7.7082275E1,3.4987094E2,7.094238E1,5.8978554E1,0E0,0E0,0E0,0E0,0E0,0E0,0E0,0E0],"parents":[2147483647,0,0,1,1,2,2,3,3,4,4,5,5,6,6],"right_children":[2,4,6,8,10,12,14,-1,-1,-1,-1,-1,-1,-1,-1],"split_conditions":[1.2987E2,1.0146E2,8.9484227E-1,9.335E1,3.31356E-1,1.7772E2,1.5519E2,-1.1361655E0,-5.767046E-1,2.323905E-1,-2.4128087E-1,1.2181399E0,2.2764891E-1,8.19662E-2,4.7149557E-1],"split_indices":[1,2,3,0,3,0,0,0,0,0,0,0,0,0,0],"split_type":[0,0,0,0,0,0,0,0,0,0,0,0,0,0,0],"sum_hessian":[1.25E2,9.2E1,3.3E1,1.8E1,7.4E1,2.3E1,1E1,1.2E1,6E0,1.1E1,6.3E1,2.2E1,1E0,6E0,4E0],"tree_param":{"num_deleted":"0","num_feature":"5","num_nodes":"15","size_leaf_vector":"1"}},{"base_weights":[-2.9657152E-3,-3.9254718E0,1.0726329E1,-1.1473388E1,-1.9609934E0,1.4055078E1,3.452367E0,-1.2650884E0,-7.0350134E-1,2.3332448E-1,-2.349076E-1,1.155648E0,2.1854308E-1,1.6666248E-1,5.4921585E-1],"categories":[],"categories_nodes":[],"categories_segments":[],"categories_sizes":[],"default_left":[0,0,0,0,0,0,0,0,0,0,0,0,0,0,0],"id":12,"left_children":[1,3,5,7,9,11,13,-1,-1,-1,-1,-1,-1,-1,-1],"loss_changes":[5.344907E3,1.3564784E3,7.7472485E2,8.191138E1,3.653635E2,6.2243652E1,4.1767395E1,0E0,0E0,0E0,0E0,0E0,0E0,0E0,0E0],"parents":[2147483647,0,0,1,1,2,2,3,3,4,4,5,5,6,6],"right_children":[2,4,6,8,10,12,14,-1,-1,-1,-1,-1,-1,-1,-1],"split_conditions":[1.2987E2,1.0146E2,8.9484227E-1,-9.5E-1,3.946563E-1,1.7772E2,1.6212E2,-1.2650884E0,-7.0350134E-1,2.3332448E-1,-2.349076E-1,1.155648E0,2.1854308E-1,1.6666248E-1,5.4921585E-1],"split_indices":[2,2,3,4,3,0,0,0,0,0,0,0,0,0,0],"split_type":[0,0,0,0,0,0,0,0,0,0,0,0,0,0,0],"sum_hessian":[1.25E2,9.2E1,3.3E1,1.8E1,7.4E1,2.2E1,1.1E1,5E0,1.3E1,1.2E1,6.2E1,2.1E1,1E0,9E0,2E0],"tree_param":{"num_deleted":"0","num_feature":"5","num_nodes":"15","size_leaf_vector":"1"}},{"base_weights":[-1.777104E-3,-3.6326175E0,9.929691E0,-9.294087E0,-1.2969115E0,1.2990413E1,3.2358353E0,-8.1560826E-1,1.04992874E-1,2.2173984E-2,-4.2305106E-1,1.1803333E0,6.885955E-1,1.5466277E-1,5.199247E-1],"categories":[],"categories_nodes":[],"categories_segments":[],"categories_sizes":[],"default_left":[0,0,0,0,0,0,0,0,0,0,0,0,0,0,0],"id":13,"left_children":[1,3,5,7,9,11,13,-1,-1,-1,-1,-1,-1,-1,-1],"loss_changes":[4.5795776E3,1.2177349E3,6.545581E2,2.7140894E2,4.2239557E2,5.0805176E1,3.8441628E1,0E0,0E0,0E0,0E0,0E0,0E0,0E0,0E0],"parents":[2147483647,0,0,1,1,2,2,3,3,4,4,5,5,6,6],"right_children":[2,4,6,8,10,12,14,-1,-1,-1,-1,-1,-1,-1,-1],"split_conditions":[1.2987E2,1.093E2,8.9484227E-1,-3.5E-1,1.3551822E0,1.6202E2,1.6212E2,-8.1560826E-1,1.04992874E-1,2.2173984E-2,-4.2305106E-1,1.1803333E0,6.885955E-1,1.5466277E-1,5.199247E-1],"split_indices":[2,0,3,4,3,0,0,0,0,0,0,0,0,0,0],"split_type":[0,0,0,0,0,0,0,0,0,0,0,0,0,0,0],"sum_hessian":[1.25E2,9.2E1,3.3E1,2.6E1,6.6E1,2.2E1,1.1E1,2.4E1,2E0,4.8E1,1.8E1,1.4E1,8E0,9E0,2E0],"tree_param":{"num_deleted":"0","num_feature":"5","num_nodes":"15","size_leaf_vector":"1"}},{"base_weights":[9.7309295E-3,-3.3539593E0,9.210127E0,-8.576882E0,-1.19914E0,1.2032439E1,3.0331833E0,-7.529698E-1,9.939311E-2,2.0436501E-2,-3.9098835E-1,4.7819114E-1,1.0394069E0,1.4352703E-1,4.9219522E-1],"categories":[],"categories_nodes":[],"categories_segments":[],"categories_sizes":[],"default_left":[0,0,0,0,0,0,0,0,0,0,0,0,0,0,0],"id":14,"left_children":[1,3,5,7,9,11,13,-1,-1,-1,-1,-1,-1,-1,-1],"loss_changes":[3.9302478E3,1.0363795E3,5.5623413E2,2.3313379E2,3.6069427E2,5.6054443E1,3.5342674E1,0E0,0E0,0E0,0E0,0E0,0E0,0E0,0E0],"parents":[2147483647,0,0,1,1,2,2,3,3,4,4,5,5,6,6],"right_children":[2,4,6,8,10,12,14,-1,-1,-1,-1,-1,-1,-1,-1],"split_conditions":[1.2987E2,1.093E2,8.9484227E-1,-3.5E-1,1.3551822E0,1.4277E2,1.6212E2,-7.529698E-1,9.939311E-2,2.0436501E-2,-3.9098835E-1,4.7819114E-1,1.0394069E0,1.4352703E-1,4.9219522E-1],"split_indices":[2,0,3,4,3,0,0,0,0,0,0,0,0,0,0],"split_type":[0,0,0,0,0,0,0,0,0,0,0,0,0,0,0],"sum_hessian":[1.25E2,9.2E1,3.3E1,2.6E1,6.6E1,2.2E1,1.1E1,2.4E1,2E0,4.8E1,1.8E1,4E0,1.8E1,9E0,2E0],"tree_param":{"num_deleted":"0","num_feature":"5","num_nodes":"15","size_leaf_vector":"1"}},{"base_weights":[1.7912425E-2,-2.8470447E0,9.280677E0,-9.9735775E0,-1.4217817E0,1.1051913E1,3.028287E0,-1.0761775E0,-5.7355577E-1,-3.0832958E-1,-2.7907724E-2,4.1670847E-1,9.606304E-1,1.3923492E-2,3.7648192E-1],"categories":[],"categories_nodes":[],"categories_segments":[],"categories_sizes":[],"default_left":[0,0,0,0,0,0,0,0,0,0,0,0,0,0,0],"id":15,"left_children":[1,3,5,7,9,11,13,-1,-1,-1,-1,-1,-1,-1,-1],"loss_changes":[3.3701375E3,9.7106647E2,2.9876562E2,5.962805E1,2.126543E2,6.592529E1,3.7490303E1,0E0,0E0,0E0,0E0,0E0,0E0,0E0,0E0],"parents":[2147483647,0,0,1,1,2,2,3,3,4,4,5,5,6,6],"right_children":[2,4,6,8,10,12,14,-1,-1,-1,-1,-1,-1,-1,-1],"split_conditions":[1.3542E2,9.34E1,8.9484227E-1,-9.5E-1,1.1515E2,1.4277E2,1.5519E2,-1.0761775E0,-5.7355577E-1,-3.0832958E-1,-2.7907724E-2,4.1670847E-1,9.606304E-1,1.3923492E-2,3.7648192E-1],"split_indices":[0,2,3,4,0,0,0,0,0,0,0,0,0,0,0],"split_type":[0,0,0,0,0,0,0,0,0,0,0,0,0,0,0],"sum_hessian":[1.25E2,9.6E1,2.9E1,1.5E1,8.1E1,2.2E1,7E0,5E0,1E1,2.4E1,5.7E1,4E0,1.8E1,3E0,4E0],"tree_param":{"num_deleted":"0","num_feature":"5","num_nodes":"15","size_leaf_vector":"1"}},{"base_weights":[1.4747196E-2,-2.886432E0,7.949892E0,-8.638909E0,-1.390652E0,1.1501727E1,4.1537204E0,-1.0044321E0,-5.074678E-1,2.4892041E-1,-1.8380758E-1,4.280315E-1,1.03863E0,1.06618196E-1,4.6621925E-1],"categories":[],"categories_nodes":[],"categories_segments":[],"categories_sizes":[],"default_left":[0,0,0,0,0,0,0,0,0,0,0,0,0,0,0],"id":16,"left_children":[1,3,5,7,9,11,13,-1,-1,-1,-1,-1,-1,-1,-1],"loss_changes":[2.9236277E3,7.881993E2,4.106599E2,9.1177246E1,3.1338892E2,8.542407E1,7.723639E1,0E0,0E0,0E0,0E0,0E0,0E0,0E0,0E0],"parents":[2147483647,0,0,1,1,2,2,3,3,4,4,5,5,6,6],"right_children":[2,4,6,8,10,12,14,-1,-1,-1,-1,-1,-1,-1,-1],"split_conditions":[1.2987E2,1.0146E2,7.6343304E-1,-9.5E-1,3.946563E-1,1.4277E2,1.5519E2,-1.0044321E0,-5.074678E-1,2.4892041E-1,-1.8380758E-1,4.280315E-1,1.03863E0,1.06618196E-1,4.6621925E-1],"split_indices":[2,2,3,4,3,0,0,0,0,0,0,0,0,0,0],"split_type":[0,0,0,0,0,0,0,0,0,0,0,0,0,0,0],"sum_hessian":[1.25E2,9.2E1,3.3E1,1.8E1,7.4E1,1.6E1,1.7E1,5E0,1.3E1,1.2E1,6.2E1,4E0,1.2E1,7E0,1E1],"tree_param":{"num_deleted":"0","num_feature":"5","num_nodes":"15","size_leaf_vector":"1"}},{"base_weights":[1.8271673E-2,-2.6710737E0,7.373885E0,-6.9528694E0,-9.057073E-1,1.0667861E1,3.8532474E0,-6.151686E-1,1.20339155E-1,3.2075282E-2,-3.3822525E-1,8.9917934E-1,6.071045E-2,9.915474E-2,4.3231258E-1],"categories":[],"categories_nodes":[],"categories_segments":[],"categories_sizes":[],"default_left":[0,0,0,0,0,0,0,0,0,0,0,0,0,0,0],"id":17,"left_children":[1,3,5,7,9,11,13,-1,-1,-1,-1,-1,-1,-1,-1],"loss_changes":[2.5122012E3,6.966839E2,3.531886E2,1.7979529E2,2.9253055E2,8.780554E1,6.625867E1,0E0,0E0,0E0,0E0,0E0,0E0,0E0,0E0],"parents":[2147483647,0,0,1,1,2,2,3,3,4,4,5,5,6,6],"right_children":[2,4,6,8,10,12,14,-1,-1,-1,-1,-1,-1,-1,-1],"split_conditions":[1.2987E2,1.093E2,7.6343304E-1,-3.5E-1,1.3551822E0,1.7189E2,1.5519E2,-6.151686E-1,1.20339155E-1,3.2075282E-2,-3.3822525E-1,8.9917934E-1,6.071045E-2,9.915474E-2,4.3231258E-1],"split_indices":[2,0,3,4,3,0,0,0,0,0,0,0,0,0,0],"split_type":[0,0,0,0,0,0,0,0,0,0,0,0,0,0,0],"sum_hessian":[1.25E2,9.2E1,3.3E1,2.6E1,6.6E1,1.6E1,1.7E1,2.4E1,2E0,4.8E1,1.8E1,1.5E1,1E0,7E0,1E1],"tree_param":{"num_deleted":"0","num_feature":"5","num_nodes":"15","size_leaf_vector":"1"}},{"base_weights":[2.228873E-2,-2.4660003E0,6.8278356E0,-8.889838E0,-1.4045695E0,9.870891E0,3.574515E0,-7.4756527E-1,-1.3732421E-1,-2.699445E-1,-2.4023023E-2,3.430901E-1,9.006893E-1,1.1023932E-1,4.1551474E-1],"categories":[],"categories_nodes":[],"categories_segments":[],"categories_sizes":[],"default_left":[0,0,0,0,0,0,0,0,0,0,0,0,0,0,0],"id":18,"left_children":[1,3,5,7,9,11,13,-1,-1,-1,-1,-1,-1,-1,-1],"loss_changes":[2.1505427E3,6.2163043E2,3.013175E2,2.6364136E1,1.7517343E2,8.340918E1,5.68705E1,0E0,0E0,0E0,0E0,0E0,0E0,0E0,0E0],"parents":[2147483647,0,0,1,1,2,2,3,3,4,4,5,5,6,6],"right_children":[2,4,6,8,10,12,14,-1,-1,-1,-1,-1,-1,-1,-1],"split_conditions":[1.2987E2,9.335E1,7.6343304E-1,9.335E1,1.1536E2,1.4277E2,1.6188E2,-7.4756527E-1,-1.3732421E-1,-2.699445E-1,-2.4023023E-2,3.430901E-1,9.006893E-1,1.1023932E-1,4.1551474E-1],"split_indices":[2,0,3,1,2,0,0,0,0,0,0,0,0,0,0],"split_type":[0,0,0,0,0,0,0,0,0,0,0,0,0,0,0],"sum_hessian":[1.25E2,9.2E1,3.3E1,1.2E1,8E1,1.6E1,1.7E1,1.1E1,1E0,2.8E1,5.2E1,4E0,1.2E1,8E0,9E0],"tree_param":{"num_deleted":"0","num_feature":"5","num_nodes":"15","size_leaf_vector":"1"}},{"base_weights":[2.5193533E-2,-2.2813957E0,6.3336525E0,-8.246719E0,-1.2958326E0,9.154378E0,3.3177643E0,-8.4662116E-1,-4.3710762E-1,-4.018578E-2,-3.0869952E-1,7.753403E-1,2.2254027E-2,8.449753E-2,3.7287277E-1],"categories":[],"categories_nodes":[],"categories_segments":[],"categories_sizes":[],"default_left":[0,0,0,0,0,0,0,0,0,0,0,0,0,0,0],"id":19,"left_children":[1,3,5,7,9,11,13,-1,-1,-1,-1,-1,-1,-1,-1],"loss_changes":[1.8478783E3,5.3607947E2,2.5886584E2,2.6689392E1,1.627911E2,7.83916E1,4.9753555E1,0E0,0E0,0E0,0E0,0E0,0E0,0E0,0E0],"parents":[2147483647,0,0,1,1,2,2,3,3,4,4,5,5,6,6],"right_children":[2,4,6,8,10,12,14,-1,-1,-1,-1,-1,-1,-1,-1],"split_conditions":[1.2987E2,9.335E1,7.6343304E-1,-9.5E-1,1.3551822E0,1.7189E2,1.5519E2,-8.4662116E-1,-4.3710762E-1,-4.018578E-2,-3.0869952E-1,7.753403E-1,2.2254027E-2,8.449753E-2,3.7287277E-1],"split_indices":[2,0,3,4,3,0,0,0,0,0,0,0,0,0,0],"split_type":[0,0,0,0,0,0,0,0,0,0,0,0,0,0,0],"sum_hessian":[1.25E2,9.2E1,3.3E1,1.2E1,8E1,1.6E1,1.7E1,5E0,7E0,6.2E1,1.8E1,1.5E1,1E0,7E0,1E1],"tree_param":{"num_deleted":"0","num_feature":"5","num_nodes":"15","size_leaf_vector":"1"}},{"base_weights":[2.0179445E-2,-2.1171286E0,5.865752E0,-5.683514E0,-6.4832956E-1,7.1762705E0,-2.1428572E-1,-5.0671095E-1,1.3046122E-1,3.2661386E-2,-2.5213963E-1,7.048374E-1,3.4105083E-1,-2.9733154E-1,7.911051E-2],"categories":[],"categories_nodes":[],"categories_segments":[],"categories_sizes":[],"default_left":[0,0,0,0,0,0,0,0,0,0,0,0,0,0,0],"id":20,"left_children":[1,3,5,7,9,11,13,-1,-1,-1,-1,-1,-1,-1,-1],"loss_changes":[1.5866362E3,4.8347745E2,2.724497E2,1.3876837E2,1.7850858E2,9.573779E1,3.317278E1,0E0,0E0,0E0,0E0,0E0,0E0,0E0,0E0],"parents":[2147483647,0,0,1,1,2,2,3,3,4,4,5,5,6,6],"right_children":[2,4,6,8,10,12,14,-1,-1,-1,-1,-1,-1,-1,-1],"split_conditions":[1.2987E2,1.093E2,9.960318E-1,-3.5E-1,1.3551822E0,1.6202E2,1.0316157E0,-5.0671095E-1,1.3046122E-1,3.2661386E-2,-2.5213963E-1,7.048374E-1,3.4105083E-1,-2.9733154E-1,7.911051E-2],"split_indices":[0,0,3,4,3,0,3,0,0,0,0,0,0,0,0],"split_type":[0,0,0,0,0,0,0,0,0,0,0,0,0,0,0],"sum_hessian":[1.25E2,9.2E1,3.3E1,2.6E1,6.6E1,2.7E1,6E0,2.4E1,2E0,4.7E1,1.9E1,1.6E1,1.1E1,1E0,5E0],"tree_param":{"num_deleted":"0","num_feature":"5","num_nodes":"15","size_leaf_vector":"1"}},{"base_weights":[2.0406451E-2,-1.8550645E0,5.827658E0,-4.3189173E0,-1.8046243E-2,8.6133585E0,3.3372433E0,-4.53402E-1,-1.0053156E-2,4.348046E-1,-9.423178E-2,7.408859E-1,7.7221678E-3,3.4268332E-1,1.2951423E-1],"categories":[],"categories_nodes":[],"categories_segments":[],"categories_sizes":[],"default_left":[0,0,0,0,0,0,0,0,0,0,0,0,0,0,0],"id":21,"left_children":[1,3,5,7,9,11,13,-1,-1,-1,-1,-1,-1,-1,-1],"loss_changes":[1.3831184E3,4.3443173E2,1.8631921E2,2.3114508E2,3.6059003E2,7.633679E1,2.2333939E1,0E0,0E0,0E0,0E0,0E0,0E0,0E0,0E0],"parents":[2147483647,0,0,1,1,2,2,3,3,4,4,5,5,6,6],"right_children":[2,4,6,8,10,12,14,-1,-1,-1,-1,-1,-1,-1,-1],"split_conditions":[1.3462E2,1.1536E2,7.535567E-1,-8.5E-1,4.4268727E-1,1.7189E2,9.960318E-1,-4.53402E-1,-1.0053156E-2,4.348046E-1,-9.423178E-2,7.408859E-1,7.7221678E-3,3.4268332E-1,1.2951423E-1],"split_indices":[2,2,3,4,3,0,3,0,0,0,0,0,0,0,0],"split_type":[0,0,0,0,0,0,0,0,0,0,0,0,0,0,0],"sum_hessian":[1.25E2,9.5E1,3E1,4E1,5.5E1,1.3E1,1.7E1,3E1,1E1,9E0,4.6E1,1.2E1,1E0,1E1,7E0],"tree_param":{"num_deleted":"0","num_feature":"5","num_nodes":"15","size_leaf_vector":"1"}},{"base_weights":[2.7486589E-2,-1.7079402E0,5.400825E0,-6.8740363E0,-8.8809276E-1,7.977758E0,3.0964978E0,-8.073335E-1,-3.4581447E-1,4.1136626E-2,-1.6918774E-1,2.6804078E-1,7.594885E-1,3.17761E-1,1.20448224E-1],"categories":[],"categories_nodes":[],"categories_segments":[],"categories_sizes":[],"default_left":[0,0,0,0,0,0,0,0,0,0,0,0,0,0,0],"id":22,"left_children":[1,3,5,7,9,11,13,-1,-1,-1,-1,-1,-1,-1,-1],"loss_changes":[1.1841788E3,4.0049466E2,1.5937787E2,6.3098145E1,1.4559082E2,6.639044E1,1.909105E1,0E0,0E0,0E0,0E0,0E0,0E0,0E0,0E0],"parents":[2147483647,0,0,1,1,2,2,3,3,4,4,5,5,6,6],"right_children":[2,4,6,8,10,12,14,-1,-1,-1,-1,-1,-1,-1,-1],"split_conditions":[1.3462E2,-5.401475E-1,7.535567E-1,-9.5E-1,1.1835091E0,1.5162E2,9.960318E-1,-8.073335E-1,-3.4581447E-1,4.1136626E-2,-1.6918774E-1,2.6804078E-1,7.594885E-1,3.17761E-1,1.20448224E-1],"split_indices":[2,3,3,4,3,0,3,0,0,0,0,0,0,0,0],"split_type":[0,0,0,0,0,0,0,0,0,0,0,0,0,0,0],"sum_hessian":[1.25E2,9.5E1,3E1,1.2E1,8.3E1,1.3E1,1.7E1,4E0,8E0,3.9E1,4.4E1,4E0,9E0,1E1,7E0],"tree_param":{"num_deleted":"0","num_feature":"5","num_nodes":"15","size_leaf_vector":"1"}},{"base_weights":[2.6752472E-2,-1.5846502E0,5.01604E0,-4.7048373E0,-3.5851157E-1,7.4129324E0,2.873121E0,-4.2111942E-1,1.218455E-1,2.5893068E-1,-9.26511E-2,6.4218587E-1,-2.2966309E-2,3.2696372E-1,1.3832586E-1],"categories":[],"categories_nodes":[],"categories_segments":[],"categories_sizes":[],"default_left":[0,0,0,0,0,0,0,0,0,0,0,0,0,0,0],"id":23,"left_children":[1,3,5,7,9,11,13,-1,-1,-1,-1,-1,-1,-1,-1],"loss_changes":[1.0209573E3,3.6558832E2,1.3792847E2,1.0204138E2,2.0498282E2,6.853601E1,1.7931396E1,0E0,0E0,0E0,0E0,0E0,0E0,0E0,0E0],"parents":[2147483647,0,0,1,1,2,2,3,3,4,4,5,5,6,6],"right_children":[2,4,6,8,10,12,14,-1,-1,-1,-1,-1,-1,-1,-1],"split_conditions":[1.3462E2,1.093E2,7.535567E-1,-3.5E-1,4.4268727E-1,1.7189E2,1.5806E2,-4.2111942E-1,1.218455E-1,2.5893068E-1,-9.26511E-2,6.4218587E-1,-2.2966309E-2,3.2696372E-1,1.3832586E-1],"split_indices":[2,0,3,4,3,0,2,0,0,0,0,0,0,0,0],"split_type":[0,0,0,0,0,0,0,0,0,0,0,0,0,0,0],"sum_hessian":[1.25E2,9.5E1,3E1,2.6E1,6.9E1,1.3E1,1.7E1,2.4E1,2E0,1.2E1,5.7E1,1.2E1,1E0,7E0,1E1],"tree_param":{"num_deleted":"0","num_feature":"5","num_nodes":"15","size_leaf_vector":"1"}},{"base_weights":[3.2164678E-2,-1.4592634E0,4.6497436E0,-3.5802426E0,1.1965452E-1,6.7338285E0,2.5373302E0,-3.818958E-1,8.688576E-3,3.873343E-1,-7.100618E-2,8.952514E-2,6.009245E-1,-1.027185E-1,2.2851287E-1],"categories":[],"categories_nodes":[],"categories_segments":[],"categories_sizes":[],"default_left":[0,0,0,0,0,0,0,0,0,0,0,0,0,0,0],"id":24,"left_children":[1,3,5,7,9,11,13,-1,-1,-1,-1,-1,-1,-1,-1],"loss_changes":[8.745203E2,3.219182E2,1.19390015E2,1.8101996E2,2.7064307E2,5.709546E1,2.439579E1,0E0,0E0,0E0,0E0,0E0,0E0,0E0,0E0],"parents":[2147483647,0,0,1,1,2,2,3,3,4,4,5,5,6,6],"right_children":[2,4,6,8,10,12,14,-1,-1,-1,-1,-1,-1,-1,-1],"split_conditions":[1.3462E2,1.1536E2,7.6343304E-1,-8.5E-1,4.4268727E-1,1.3872E2,7.7381706E-1,-3.818958E-1,8.688576E-3,3.873343E-1,-7.100618E-2,8.952514E-2,6.009245E-1,-1.027185E-1,2.2851287E-1],"split_indices":[2,2,3,4,3,0,3,0,0,0,0,0,0,0,0],"split_type":[0,0,0,0,0,0,0,0,0,0,0,0,0,0,0],"sum_hessian":[1.25E2,9.5E1,3E1,4E1,5.5E1,1.4E1,1.6E1,3E1,1E1,9E0,4.6E1,2E0,1.2E1,1E0,1.5E1],"tree_param":{"num_deleted":"0","num_feature":"5","num_nodes":"15","size_leaf_vector":"1"}},{"base_weights":[3.5618678E-2,-1.3431143E0,4.3040943E0,-5.755066E0,-6.443228E-1,6.3791895E0,2.451015E0,-6.3012856E-1,-2.7556214E-1,8.5375235E-5,-2.2818336E-1,5.5668163E-1,-4.6084594E-2,2.6355657E-1,7.8792416E-2],"categories":[],"categories_nodes":[],"categories_segments":[],"categories_sizes":[],"default_left":[0,0,0,0,0,0,0,0,0,0,0,0,0,0,0],"id":25,"left_children":[1,3,5,7,9,11,13,-1,-1,-1,-1,-1,-1,-1,-1],"loss_changes":[7.4730194E2,2.9226318E2,1.035694E2,3.6593567E1,1.19703156E2,6.0419983E1,1.9013687E1,0E0,0E0,0E0,0E0,0E0,0E0,0E0,0E0],"parents":[2147483647,0,0,1,1,2,2,3,3,4,4,5,5,6,6],"right_children":[2,4,6,8,10,12,14,-1,-1,-1,-1,-1,-1,-1,-1],"split_conditions":[1.3462E2,9.335E1,7.535567E-1,-9.5E-1,1.3551822E0,1.7189E2,9.960318E-1,-6.3012856E-1,-2.7556214E-1,8.5375235E-5,-2.2818336E-1,5.5668163E-1,-4.6084594E-2,2.6355657E-1,7.8792416E-2],"split_indices":[2,0,3,4,3,0,3,0,0,0,0,0,0,0,0],"split_type":[0,0,0,0,0,0,0,0,0,0,0,0,0,0,0],"sum_hessian":[1.25E2,9.5E1,3E1,1.2E1,8.3E1,1.3E1,1.7E1,5E0,7E0,6.5E1,1.8E1,1.2E1,1E0,1E1,7E0],"tree_param":{"num_deleted":"0","num_feature":"5","num_nodes":"15","size_leaf_vector":"1"}},{"base_weights":[3.0540103E-2,-1.2474757E0,3.9872816E0,-3.1679564E0,1.808668E-1,5.781308E0,2.1697712E0,-3.3946952E-1,1.20598255E-2,3.5944E-1,-5.9236526E-2,1.520647E-1,5.6156784E-1,2.7702194E-1,7.347131E-2],"categories":[],"categories_nodes":[],"categories_segments":[],"categories_sizes":[],"default_left":[0,0,0,0,0,0,0,0,0,0,0,0,0,0,0],"id":26,"left_children":[1,3,5,7,9,11,13,-1,-1,-1,-1,-1,-1,-1,-1],"loss_changes":[6.421281E2,2.63911E2,8.853644E1,1.4696768E2,2.2580756E2,5.8734802E1,2.4326462E1,0E0,0E0,0E0,0E0,0E0,0E0,0E0,0E0],"parents":[2147483647,0,0,1,1,2,2,3,3,4,4,5,5,6,6],"right_children":[2,4,6,8,10,12,14,-1,-1,-1,-1,-1,-1,-1,-1],"split_conditions":[1.3462E2,1.1536E2,7.6343304E-1,-8.5E-1,4.4268727E-1,1.5162E2,1.5806E2,-3.3946952E-1,1.20598255E-2,3.5944E-1,-5.9236526E-2,1.520647E-1,5.6156784E-1,2.7702194E-1,7.347131E-2],"split_indices":[2,2,3,4,3,0,2,0,0,0,0,0,0,0,0],"split_type":[0,0,0,0,0,0,0,0,0,0,0,0,0,0,0],"sum_hessian":[1.25E2,9.5E1,3E1,4E1,5.5E1,1.4E1,1.6E1,3E1,1E1,9E0,4.6E1,4E0,1E1,7E0,9E0],"tree_param":{"num_deleted":"0","num_feature":"5","num_nodes":"15","size_leaf_vector":"1"}},{"base_weights":[3.6325302E-2,-1.1479622E0,3.7026243E0,-5.1301274E0,-5.180085E-1,4.810182E0,1.2515938E0,-6.422168E-1,-2.3602761E-1,5.996251E-3,-2.0404048E-1,4.8709774E-1,1.1066284E-1,2.4010651E-1,1.762207E-2],"categories":[],"categories_nodes":[],"categories_segments":[],"categories_sizes":[],"default_left":[0,0,0,0,0,0,0,0,0,0,0,0,0,0,0],"id":27,"left_children":[1,3,5,7,9,11,13,-1,-1,-1,-1,-1,-1,-1,-1],"loss_changes":[5.513364E2,2.3816623E2,7.8134E1,5.8424774E1,1.0142738E2,8.35874E1,1.9188772E1,0E0,0E0,0E0,0E0,0E0,0E0,0E0,0E0],"parents":[2147483647,0,0,1,1,2,2,3,3,4,4,5,5,6,6],"right_children":[2,4,6,8,10,12,14,-1,-1,-1,-1,-1,-1,-1,-1],"split_conditions":[1.3462E2,-5.401475E-1,8.9484227E-1,-9.5E-1,1.3551822E0,1.6429E2,1.5445E2,-6.422168E-1,-2.3602761E-1,5.996251E-3,-2.0404048E-1,4.8709774E-1,1.1066284E-1,2.4010651E-1,1.762207E-2],"split_indices":[2,3,3,4,3,0,2,0,0,0,0,0,0,0,0],"split_type":[0,0,0,0,0,0,0,0,0,0,0,0,0,0,0],"sum_hessian":[1.25E2,9.5E1,3E1,1.2E1,8.3E1,2E1,1E1,4E0,8E0,6.5E1,1.8E1,1.4E1,6E0,3E0,7E0],"tree_param":{"num_deleted":"0","num_feature":"5","num_nodes":"15","size_leaf_vector":"1"}},{"base_weights":[3.1667862E-2,-2.807645E0,1.3849256E0,-3.7766175E0,1.7833571E-1,4.3299136E0,-4.4043604E-1,-2.1511365E-1,-5.254105E-1,-4.1044495E-1,1.5425225E-1,4.3096718E-1,1.6247445E-1,-3.618689E-1,1.3133302E-2],"categories":[],"categories_nodes":[],"categories_segments":[],"categories_sizes":[],"default_left":[0,0,0,0,0,0,0,0,0,0,0,0,0,0,0],"id":28,"left_children":[1,3,5,7,9,11,13,-1,-1,-1,-1,-1,-1,-1,-1],"loss_changes":[4.8802097E2,1.1930017E2,4.642145E2,7.644919E1,1.12078125E2,6.926337E1,1.3404407E2,0E0,0E0,0E0,0E0,0E0,0E0,0E0,0E0],"parents":[2147483647,0,0,1,1,2,2,3,3,4,4,5,5,6,6],"right_children":[2,4,6,8,10,12,14,-1,-1,-1,-1,-1,-1,-1,-1],"split_conditions":[1.1536E2,-8.5E-1,9.960318E-1,1.0961E2,8.727E1,1.6202E2,1.0819007E0,-2.1511365E-1,-5.254105E-1,-4.1044495E-1,1.5425225E-1,4.3096718E-1,1.6247445E-1,-3.618689E-1,1.3133302E-2],"split_indices":[2,4,3,2,0,0,3,0,0,0,0,0,0,0,0],"split_type":[0,0,0,0,0,0,0,0,0,0,0,0,0,0,0],"sum_hessian":[1.25E2,4E1,8.5E1,3E1,1E1,3.2E1,5.3E1,2.3E1,7E0,2E0,8E0,2.1E1,1.1E1,6E0,4.7E1],"tree_param":{"num_deleted":"0","num_feature":"5","num_nodes":"15","size_leaf_vector":"1"}},{"base_weights":[2.3166414E-2,-9.306303E-1,3.554889E0,-3.380641E0,-6.888489E-2,6.931366E0,2.4724457E0,-5.169763E-1,-1.8713693E-1,6.853415E-2,-1.2532464E-1,9.89209E-2,6.2584275E-1,-1.09134674E-1,2.5200227E-1],"categories":[],"categories_nodes":[],"categories_segments":[],"categories_sizes":[],"default_left":[0,0,0,0,0,0,0,0,0,0,0,0,0,0,0],"id":29,"left_children":[1,3,5,7,9,11,13,-1,-1,-1,-1,-1,-1,-1,-1],"loss_changes":[4.27745E2,2.108957E2,8.1543365E1,6.832352E1,1.0530622E2,2.0794281E1,6.148915E1,0E0,0E0,0E0,0E0,0E0,0E0,0E0,0E0],"parents":[2147483647,0,0,1,1,2,2,3,3,4,4,5,5,6,6],"right_children":[2,4,6,8,10,12,14,-1,-1,-1,-1,-1,-1,-1,-1],"split_conditions":[1.3986E2,1.0895E2,1.5199E2,-9.5E-1,1.2345E2,1.4277E2,1.5445E2,-5.169763E-1,-1.8713693E-1,6.853415E-2,-1.2532464E-1,9.89209E-2,6.2584275E-1,-1.09134674E-1,2.5200227E-1],"split_indices":[0,0,1,4,2,0,1,0,0,0,0,0,0,0,0],"split_type":[0,0,0,0,0,0,0,0,0,0,0,0,0,0,0],"sum_hessian":[1.25E2,9.9E1,2.6E1,2.5E1,7.4E1,5E0,2.1E1,5E0,2E1,4.6E1,2.8E1,1E0,4E0,3E0,1.8E1],"tree_param":{"num_deleted":"0","num_feature":"5","num_nodes":"15","size_leaf_vector":"1"}},{"base_weights":[2.2160424E-2,-2.4843235E0,1.2168543E0,-3.354801E0,1.9468828E-1,3.8251913E0,-3.9966357E-1,-1.8389091E-1,-4.8831558E-1,-3.78574E-1,1.4522752E-1,3.8566628E-1,1.344872E-1,-3.373897E-1,1.3232943E-2],"categories":[],"categories_nodes":[],"categories_segments":[],"categories_sizes":[],"default_left":[0,0,0,0,0,0,0,0,0,0,0,0,0,0,0],"id":30,"left_children":[1,3,5,7,9,11,13,-1,-1,-1,-1,-1,-1,-1,-1],"loss_changes":[3.8032764E2,9.6265945E1,3.6414117E2,7.597925E1,9.642277E1,6.2342407E1,1.171914E2,0E0,0E0,0E0,0E0,0E0,0E0,0E0,0E0],"parents":[2147483647,0,0,1,1,2,2,3,3,4,4,5,5,6,6],"right_children":[2,4,6,8,10,12,14,-1,-1,-1,-1,-1,-1,-1,-1],"split_conditions":[1.1536E2,-8.5E-1,9.960318E-1,1.0961E2,8.727E1,1.6202E2,1.0819007E0,-1.8389091E-1,-4.8831558E-1,-3.78574E-1,1.4522752E-1,3.8566628E-1,1.344872E-1,-3.373897E-1,1.3232943E-2],"split_indices":[2,4,3,2,0,0,3,0,0,0,0,0,0,0,0],"split_type":[0,0,0,0,0,0,0,0,0,0,0,0,0,0,0],"sum_hessian":[1.25E2,4E1,8.5E1,3E1,1E1,3.2E1,5.3E1,2.3E1,7E0,2E0,8E0,2.1E1,1.1E1,6E0,4.7E1],"tree_param":{"num_deleted":"0","num_feature":"5","num_nodes":"15","size_leaf_vector":"1"}},{"base_weights":[1.4757369E-2,-9.0323067E-1,2.857083E0,-5.8781486E0,-5.652885E-1,4.221171E0,1.6373991E0,-9.132019E-2,-8.1874347E-1,-5.9500482E-2,3.934143E-1,5.4636717E-2,4.4545275E-1,2.2688323E-1,4.9344424E-2],"categories":[],"categories_nodes":[],"categories_segments":[],"categories_sizes":[],"default_left":[0,0,0,0,0,0,0,0,0,0,0,0,0,0,0],"id":31,"left_children":[1,3,5,7,9,11,13,-1,-1,-1,-1,-1,-1,-1,-1],"loss_changes":[3.3134244E2,1.5807567E2,4.4664673E1,1.1211861E2,9.270396E1,6.292021E1,2.0270584E1,0E0,0E0,0E0,0E0,0E0,0E0,0E0,0E0],"parents":[2147483647,0,0,1,1,2,2,3,3,4,4,5,5,6,6],"right_children":[2,4,6,8,10,12,14,-1,-1,-1,-1,-1,-1,-1,-1],"split_conditions":[1.3462E2,-9.5E-1,7.535567E-1,8.652E1,3.5E-1,1.5162E2,1.5806E2,-9.132019E-2,-8.1874347E-1,-5.9500482E-2,3.934143E-1,5.4636717E-2,4.4545275E-1,2.2688323E-1,4.9344424E-2],"split_indices":[2,4,3,0,4,0,2,0,0,0,0,0,0,0,0],"split_type":[0,0,0,0,0,0,0,0,0,0,0,0,0,0,0],"sum_hessian":[1.25E2,9.5E1,3E1,5E0,9E1,1.3E1,1.7E1,3E0,2E0,8.8E1,2E0,4E0,9E0,7E0,1E1],"tree_param":{"num_deleted":"0","num_feature":"5","num_nodes":"15","size_leaf_vector":"1"}},{"base_weights":[1.5165844E-2,-2.2342439E0,1.0873824E0,-3.055798E0,3.0674553E0,3.427357E0,-4.3424988E-1,-1.7587808E-1,-4.0519896E-1,-3.687683E-2,3.0922642E-1,3.4817454E-1,1.09532975E-1,-3.1266245E-1,7.391864E-3],"categories":[],"categories_nodes":[],"categories_segments":[],"categories_sizes":[],"default_left":[0,0,0,0,0,0,0,0,0,0,0,0,0,0,0],"id":32,"left_children":[1,3,5,7,9,11,13,-1,-1,-1,-1,-1,-1,-1,-1],"loss_changes":[3.0632312E2,1.8795445E2,3.0769827E2,5.087555E1,1.8673183E1,5.8759155E1,9.732949E1,0E0,0E0,0E0,0E0,0E0,0E0,0E0,0E0],"parents":[2147483647,0,0,1,1,2,2,3,3,4,4,5,5,6,6],"right_children":[2,4,6,8,10,12,14,-1,-1,-1,-1,-1,-1,-1,-1],"split_conditions":[1.1536E2,-3.5E-1,9.960318E-1,1.1211E2,1.0695E2,1.6202E2,1.0819007E0,-1.7587808E-1,-4.0519896E-1,-3.687683E-2,3.0922642E-1,3.4817454E-1,1.09532975E-1,-3.1266245E-1,7.391864E-3],"split_indices":[1,4,3,2,2,0,3,0,0,0,0,0,0,0,0],"split_type":[0,0,0,0,0,0,0,0,0,0,0,0,0,0,0],"sum_hessian":[1.25E2,4E1,8.5E1,3.5E1,5E0,3.3E1,5.2E1,2.6E1,9E0,1E0,4E0,2.2E1,1.1E1,6E0,4.6E1],"tree_param":{"num_deleted":"0","num_feature":"5","num_nodes":"15","size_leaf_vector":"1"}},{"base_weights":[1.271257E-2,-1.9102365E0,1.1046008E0,-2.841231E0,2.232878E0,3.1707547E0,-2.3982972E-1,-2.4996369E-1,3.0565673E-1,2.3554336E-1,-1.383374E-1,3.2852954E-1,1.0150096E-1,1.1771243E-1,-1.14376E-1],"categories":[],"categories_nodes":[],"categories_segments":[],"categories_sizes":[],"default_left":[0,0,0,0,0,0,0,0,0,0,0,0,0,0,0],"id":33,"left_children":[1,3,5,7,9,11,13,-1,-1,-1,-1,-1,-1,-1,-1],"loss_changes":[2.6666537E2,1.8377612E2,2.2576227E2,8.366022E1,3.0459538E1,5.174991E1,1.0391106E2,0E0,0E0,0E0,0E0,0E0,0E0,0E0,0E0],"parents":[2147483647,0,0,1,1,2,2,3,3,4,4,5,5,6,6],"right_children":[2,4,6,8,10,12,14,-1,-1,-1,-1,-1,-1,-1,-1],"split_conditions":[1.1606E2,-3.5E-1,9.960318E-1,1.1764E2,1.1536E2,1.6202E2,1.2168E2,-2.4996369E-1,3.0565673E-1,2.3554336E-1,-1.383374E-1,3.2852954E-1,1.0150096E-1,1.1771243E-1,-1.14376E-1],"split_indices":[0,4,3,1,0,0,0,0,0,0,0,0,0,0,0],"split_type":[0,0,0,0,0,0,0,0,0,0,0,0,0,0,0],"sum_hessian":[1.25E2,4.5E1,8E1,3.7E1,8E0,3.1E1,4.9E1,3.6E1,1E0,7E0,1E0,2E1,1.1E1,2E1,2.9E1],"tree_param":{"num_deleted":"0","num_feature":"5","num_nodes":"15","size_leaf_vector":"1"}},{"base_weights":[1.6345795E-2,-6.788122E-1,2.5903995E0,-5.2047043E0,-3.8582098E-1,5.3904214E0,1.7090118E0,-6.029022E-2,-7.523657E-1,-4.2865794E-2,3.5142657E-1,5.484863E-2,4.9554098E-1,-1.69587E-1,1.7583108E-1],"categories":[],"categories_nodes":[],"categories_segments":[],"categories_sizes":[],"default_left":[0,0,0,0,0,0,0,0,0,0,0,0,0,0,0],"id":34,"left_children":[1,3,5,7,9,11,13,-1,-1,-1,-1,-1,-1,-1,-1],"loss_changes":[2.2721953E2,1.3059657E2,5.7421143E1,1.05076035E2,7.0450264E1,1.8444702E1,4.5839546E1,0E0,0E0,0E0,0E0,0E0,0E0,0E0,0E0],"parents":[2147483647,0,0,1,1,2,2,3,3,4,4,5,5,6,6],"right_children":[2,4,6,8,10,12,14,-1,-1,-1,-1,-1,-1,-1,-1],"split_conditions":[1.3986E2,-9.5E-1,1.5199E2,8.652E1,3.5E-1,1.4277E2,1.53E2,-6.029022E-2,-7.523657E-1,-4.2865794E-2,3.5142657E-1,5.484863E-2,4.9554098E-1,-1.69587E-1,1.7583108E-1],"split_indices":[0,4,1,0,4,0,1,0,0,0,0,0,0,0,0],"split_type":[0,0,0,0,0,0,0,0,0,0,0,0,0,0,0],"sum_hessian":[1.25E2,9.9E1,2.6E1,5E0,9.4E1,5E0,2.1E1,3E0,2E0,9.2E1,2E0,1E0,4E0,2E0,1.9E1],"tree_param":{"num_deleted":"0","num_feature":"5","num_nodes":"15","size_leaf_vector":"1"}},{"base_weights":[1.5457577E-2,-1.6973174E0,9.879537E-1,-2.5320108E0,2.0155344E0,2.8071063E0,-1.9606292E-1,-2.2398923E-1,2.9514465E-1,2.1417038E-1,-1.3108917E-1,2.9450458E-1,8.346629E-2,8.201991E-2,-1.3394822E-1],"categories":[],"categories_nodes":[],"categories_segments":[],"categories_sizes":[],"default_left":[0,0,0,0,0,0,0,0,0,0,0,0,0,0,0],"id":35,"left_children":[1,3,5,7,9,11,13,-1,-1,-1,-1,-1,-1,-1,-1],"loss_changes":[2.1155092E2,1.476616E2,1.7501682E2,7.365314E1,2.6144901E1,4.5499878E1,9.198928E1,0E0,0E0,0E0,0E0,0E0,0E0,0E0,0E0],"parents":[2147483647,0,0,1,1,2,2,3,3,4,4,5,5,6,6],"right_children":[2,4,6,8,10,12,14,-1,-1,-1,-1,-1,-1,-1,-1],"split_conditions":[1.1606E2,-3.5E-1,9.960318E-1,1.1764E2,1.1536E2,1.6202E2,1.2422E2,-2.2398923E-1,2.9514465E-1,2.1417038E-1,-1.3108917E-1,2.9450458E-1,8.346629E-2,8.201991E-2,-1.3394822E-1],"split_indices":[0,4,3,1,0,0,1,0,0,0,0,0,0,0,0],"split_type":[0,0,0,0,0,0,0,0,0,0,0,0,0,0,0],"sum_hessian":[1.25E2,4.5E1,8E1,3.7E1,8E0,3.1E1,4.9E1,3.6E1,1E0,7E0,1E0,2E1,1.1E1,2.7E1,2.2E1],"tree_param":{"num_deleted":"0","num_feature":"5","num_nodes":"15","size_leaf_vector":"1"}},{"base_weights":[1.803171E-2,-1.5581778E0,9.1294044E-1,-2.3275754E0,1.8635211E0,1.4683298E0,-2.402909E0,-2.0655423E-1,2.833386E-1,2.1943715E-1,-6.477498E-2,2.4177246E-1,5.925821E-2,-6.994934E-3,-3.2354614E-1],"categories":[],"categories_nodes":[],"categories_segments":[],"categories_sizes":[],"default_left":[0,0,0,0,0,0,0,0,0,0,0,0,0,0,0],"id":36,"left_children":[1,3,5,7,9,11,13,-1,-1,-1,-1,-1,-1,-1,-1],"loss_changes":[1.7915353E2,1.2543928E2,1.5269684E2,6.587367E1,2.3379364E1,7.690111E1,4.5254257E1,0E0,0E0,0E0,0E0,0E0,0E0,0E0,0E0],"parents":[2147483647,0,0,1,1,2,2,3,3,4,4,5,5,6,6],"right_children":[2,4,6,8,10,12,14,-1,-1,-1,-1,-1,-1,-1,-1],"split_conditions":[1.1606E2,-3.5E-1,1.3585818E0,1.1764E2,1.1606E2,7.535567E-1,1.2386E2,-2.0655423E-1,2.833386E-1,2.1943715E-1,-6.477498E-2,2.4177246E-1,5.925821E-2,-6.994934E-3,-3.2354614E-1],"split_indices":[0,4,3,1,1,3,2,0,0,0,0,0,0,0,0],"split_type":[0,0,0,0,0,0,0,0,0,0,0,0,0,0,0],"sum_hessian":[1.25E2,4.5E1,8E1,3.7E1,8E0,6.9E1,1.1E1,3.6E1,1E0,6E0,2E0,2.1E1,4.8E1,5E0,6E0],"tree_param":{"num_deleted":"0","num_feature":"5","num_nodes":"15","size_leaf_vector":"1"}},{"base_weights":[1.818993E-2,-1.5748713E0,7.774611E-1,-8.1805766E-1,-4.174869E0,2.4472919E0,-2.5738835E-1,-2.9655972E-1,2.037461E-2,-3.9156333E-1,6.3300475E-2,2.558482E-1,6.934916E-2,-2.854385E-1,1.8461494E-2],"categories":[],"categories_nodes":[],"categories_segments":[],"categories_sizes":[],"default_left":[0,0,0,0,0,0,0,0,0,0,0,0,0,0,0],"id":37,"left_children":[1,3,5,7,9,11,13,-1,-1,-1,-1,-1,-1,-1,-1],"loss_changes":[1.5362967E2,7.726097E1,1.492399E2,1.0321378E2,3.6038696E1,3.6385544E1,8.809219E1,0E0,0E0,0E0,0E0,0E0,0E0,0E0,0E0],"parents":[2147483647,0,0,1,1,2,2,3,3,4,4,5,5,6,6],"right_children":[2,4,6,8,10,12,14,-1,-1,-1,-1,-1,-1,-1,-1],"split_conditions":[1.1536E2,1.1211E2,9.960318E-1,9.008E1,-8.5E-1,1.6202E2,1.0819007E0,-2.9655972E-1,2.037461E-2,-3.9156333E-1,6.3300475E-2,2.558482E-1,6.934916E-2,-2.854385E-1,1.8461494E-2],"split_indices":[2,2,3,2,4,0,3,0,0,0,0,0,0,0,0],"split_type":[0,0,0,0,0,0,0,0,0,0,0,0,0,0,0],"sum_hessian":[1.25E2,4E1,8.5E1,3.2E1,8E0,3.2E1,5.3E1,8E0,2.4E1,7E0,1E0,2.1E1,1.1E1,6E0,4.7E1],"tree_param":{"num_deleted":"0","num_feature":"5","num_nodes":"15","size_leaf_vector":"1"}},{"base_weights":[1.2398916E-2,-5.326487E-1,2.0306346E0,-4.4234986E0,-2.8130397E-1,4.8417435E0,1.3312355E0,-2.5724335E-2,-6.7346066E-1,1.8974109E-2,-1.1755777E-1,3.381256E-2,4.6726805E-1,-1.9133462E-1,1.4397511E-1],"categories":[],"categories_nodes":[],"categories_segments":[],"categories_sizes":[],"default_left":[0,0,0,0,0,0,0,0,0,0,0,0,0,0,0],"id":38,"left_children":[1,3,5,7,9,11,13,-1,-1,-1,-1,-1,-1,-1,-1],"loss_changes":[1.3968597E2,9.6550125E1,4.663884E1,9.561078E1,5.8872498E1,1.960704E1,4.441659E1,0E0,0E0,0E0,0E0,0E0,0E0,0E0,0E0],"parents":[2147483647,0,0,1,1,2,2,3,3,4,4,5,5,6,6],"right_children":[2,4,6,8,10,12,14,-1,-1,-1,-1,-1,-1,-1,-1],"split_conditions":[1.3986E2,-9.5E-1,1.5162E2,8.652E1,1.2345E2,1.3462E2,1.4964E2,-2.5724335E-2,-6.7346066E-1,1.8974109E-2,-1.1755777E-1,3.381256E-2,4.6726805E-1,-1.9133462E-1,1.4397511E-1],"split_indices":[1,4,1,0,2,0,2,0,0,0,0,0,0,0,0],"split_type":[0,0,0,0,0,0,0,0,0,0,0,0,0,0,0],"sum_hessian":[1.25E2,9.9E1,2.6E1,5E0,9.4E1,4E0,2.2E1,3E0,2E0,6.6E1,2.8E1,1E0,3E0,2E0,2E1],"tree_param":{"num_deleted":"0","num_feature":"5","num_nodes":"15","size_leaf_vector":"1"}},{"base_weights":[8.676135E-3,-1.335966E0,7.7219296E-1,-2.0217743E0,1.7081095E0,1.2675114E0,-2.181514E0,-1.8022212E-1,2.6101255E-1,1.849179E-1,-1.2475219E-1,6.848755E-2,2.9203236E-1,-5.3834026E-3,-2.9456472E-1],"categories":[],"categories_nodes":[],"categories_segments":[],"categories_sizes":[],"default_left":[0,0,0,0,0,0,0,0,0,0,0,0,0,0,0],"id":39,"left_children":[1,3,5,7,9,11,13,-1,-1,-1,-1,-1,-1,-1,-1],"loss_changes":[1.303904E2,9.948541E1,1.2127017E2,5.373726E1,2.1348019E1,6.5500305E1,3.7822037E1,0E0,0E0,0E0,0E0,0E0,0E0,0E0,0E0],"parents":[2147483647,0,0,1,1,2,2,3,3,4,4,5,5,6,6],"right_children":[2,4,6,8,10,12,14,-1,-1,-1,-1,-1,-1,-1,-1],"split_conditions":[1.1606E2,-3.5E-1,1.3585818E0,1.1764E2,1.1536E2,1.2945784E0,1.2386E2,-1.8022212E-1,2.6101255E-1,1.849179E-1,-1.2475219E-1,6.848755E-2,2.9203236E-1,-5.3834026E-3,-2.9456472E-1],"split_indices":[0,4,3,1,0,3,2,0,0,0,0,0,0,0,0],"split_type":[0,0,0,0,0,0,0,0,0,0,0,0,0,0,0],"sum_hessian":[1.25E2,4.5E1,8E1,3.7E1,8E0,6.9E1,1.1E1,3.6E1,1E0,7E0,1E0,6E1,9E0,5E0,6E0],"tree_param":{"num_deleted":"0","num_feature":"5","num_nodes":"15","size_leaf_vector":"1"}},{"base_weights":[9.5825195E-3,-4.7906607E-1,1.8190373E0,-4.0359635E0,-2.4937712E-1,5.124585E-1,1.3962517E0,7.452006E-2,-5.4020566E-1,1.8790392E-2,-1.0876629E-1,-1.8478271E-1,1.4410631E-1],"categories":[],"categories_nodes":[],"categories_segments":[],"categories_sizes":[],"default_left":[0,0,0,0,0,0,0,0,0,0,0,0,0],"id":40,"left_children":[1,3,5,7,9,-1,11,-1,-1,-1,-1,-1,-1],"loss_changes":[1.1227907E2,8.0691536E1,4.341407E1,8.725794E1,5.139351E1,0E0,4.3192688E1,0E0,0E0,0E0,0E0,0E0,0E0],"parents":[2147483647,0,0,1,1,2,2,3,3,4,4,6,6],"right_children":[2,4,6,8,10,-1,12,-1,-1,-1,-1,-1,-1],"split_conditions":[1.3986E2,-9.5E-1,1.4277E2,8.652E1,1.2345E2,5.124585E-1,1.4964E2,7.452006E-2,-5.4020566E-1,1.8790392E-2,-1.0876629E-1,-1.8478271E-1,1.4410631E-1],"split_indices":[1,4,1,1,2,0,2,0,0,0,0,0,0],"split_type":[0,0,0,0,0,0,0,0,0,0,0,0,0],"sum_hessian":[1.25E2,9.9E1,2.6E1,5E0,9.4E1,1E0,2.5E1,2E0,3E0,6.6E1,2.8E1,2E0,2.3E1],"tree_param":{"num_deleted":"0","num_feature":"5","num_nodes":"13","size_leaf_vector":"1"}},{"base_weights":[8.150313E-3,-1.2020556E0,6.953271E-1,-1.8282914E0,1.5756133E0,1.1413087E0,-1.9641762E0,-7.660745E-2,-2.74324E-1,3.4907315E-2,2.9669678E-1,5.9901293E-2,2.73735E-1,1.7003387E-1,-2.0233427E-1],"categories":[],"categories_nodes":[],"categories_segments":[],"categories_sizes":[],"default_left":[0,0,0,0,0,0,0,0,0,0,0,0,0,0,0],"id":41,"left_children":[1,3,5,7,9,11,13,-1,-1,-1,-1,-1,-1,-1,-1],"loss_changes":[1.0562061E2,8.289658E1,9.831499E1,4.9679916E1,2.0253326E1,6.0098152E1,3.310316E1,0E0,0E0,0E0,0E0,0E0,0E0,0E0,0E0],"parents":[2147483647,0,0,1,1,2,2,3,3,4,4,5,5,6,6],"right_children":[2,4,6,8,10,12,14,-1,-1,-1,-1,-1,-1,-1,-1],"split_conditions":[1.1606E2,-3.5E-1,1.3585818E0,1.1041316E0,-5E-2,1.2945784E0,1.1764E2,-7.660745E-2,-2.74324E-1,3.4907315E-2,2.9669678E-1,5.9901293E-2,2.73735E-1,1.7003387E-1,-2.0233427E-1],"split_indices":[0,4,3,3,4,3,0,0,0,0,0,0,0,0,0],"split_type":[0,0,0,0,0,0,0,0,0,0,0,0,0,0,0],"sum_hessian":[1.25E2,4.5E1,8E1,3.7E1,8E0,6.9E1,1.1E1,2.5E1,1.2E1,6E0,2E0,6E1,9E0,1E0,1E1],"tree_param":{"num_deleted":"0","num_feature":"5","num_nodes":"15","size_leaf_vector":"1"}},{"base_weights":[9.735531E-3,-1.2273453E0,5.993934E-1,-5.1269627E-1,-3.7113538E0,1.9906452E0,-2.6191583E-1,-2.981488E-1,1.5549098E-2,-4.4644725E-1,-8.798767E-2,2.180683E-1,3.8150024E-2,-2.7694395E-1,1.6815236E-2],"categories":[],"categories_nodes":[],"categories_segments":[],"categories_sizes":[],"default_left":[0,0,0,0,0,0,0,0,0,0,0,0,0,0,0],"id":42,"left_children":[1,3,5,7,9,11,13,-1,-1,-1,-1,-1,-1,-1,-1],"loss_changes":[9.2646935E1,7.088017E1,1.03575005E2,7.572038E1,3.779596E1,3.5427048E1,8.230464E1,0E0,0E0,0E0,0E0,0E0,0E0,0E0,0E0],"parents":[2147483647,0,0,1,1,2,2,3,3,4,4,5,5,6,6],"right_children":[2,4,6,8,10,12,14,-1,-1,-1,-1,-1,-1,-1,-1],"split_conditions":[1.1536E2,1.1211E2,9.960318E-1,-9.5E-1,1.2945784E0,1.6202E2,1.0819007E0,-2.981488E-1,1.5549098E-2,-4.4644725E-1,-8.798767E-2,2.180683E-1,3.8150024E-2,-2.7694395E-1,1.6815236E-2],"split_indices":[2,2,3,4,3,0,3,0,0,0,0,0,0,0,0],"split_type":[0,0,0,0,0,0,0,0,0,0,0,0,0,0,0],"sum_hessian":[1.25E2,4E1,8.5E1,3.2E1,8E0,3.2E1,5.3E1,5E0,2.7E1,4E0,4E0,2.1E1,1.1E1,6E0,4.7E1],"tree_param":{"num_deleted":"0","num_feature":"5","num_nodes":"15","size_leaf_vector":"1"}},{"base_weights":[2.4426777E-3,-4.0764776E-1,1.5953923E0,-2.8810468E0,-1.6390327E-1,4.0243164E-1,9.2863566E-1,1.305722E-1,-2.9193726E-1,2.6559971E-2,-9.7309284E-2,-1.8495484E-1,1.0778829E-1],"categories":[],"categories_nodes":[],"categories_segments":[],"categories_sizes":[],"default_left":[0,0,0,0,0,0,0,0,0,0,0,0,0],"id":43,"left_children":[1,3,5,7,9,-1,11,-1,-1,-1,-1,-1,-1],"loss_changes":[8.296029E1,6.04184E1,5.4876686E1,3.7158173E1,4.8942337E1,0E0,3.4323357E1,0E0,0E0,0E0,0E0,0E0,0E0],"parents":[2147483647,0,0,1,1,2,2,3,3,4,4,6,6],"right_children":[2,4,6,8,10,-1,12,-1,-1,-1,-1,-1,-1],"split_conditions":[1.4277E2,9.008E1,1.5162E2,8.031E1,1.2345E2,4.0243164E-1,1.4964E2,1.305722E-1,-2.9193726E-1,2.6559971E-2,-9.7309284E-2,-1.8495484E-1,1.0778829E-1],"split_indices":[0,2,1,0,2,0,2,0,0,0,0,0,0],"split_type":[0,0,0,0,0,0,0,0,0,0,0,0,0],"sum_hessian":[1.25E2,1E2,2.5E1,8E0,9.2E1,3E0,2.2E1,1E0,7E0,6.3E1,2.9E1,2E0,2E1],"tree_param":{"num_deleted":"0","num_feature":"5","num_nodes":"13","size_leaf_vector":"1"}},{"base_weights":[2.9878162E-3,-1.0390838E0,5.9474474E-1,-1.6068362E0,1.4735464E0,9.9110425E-1,-1.7669144E0,-6.383385E-2,-2.4808475E-1,1.6353035E-1,-1.2364471E-1,4.920513E-2,2.5486705E-1,6.059977E-3,-2.4751393E-1],"categories":[],"categories_nodes":[],"categories_segments":[],"categories_sizes":[],"default_left":[0,0,0,0,0,0,0,0,0,0,0,0,0,0,0],"id":44,"left_children":[1,3,5,7,9,11,13,-1,-1,-1,-1,-1,-1,-1,-1],"loss_changes":[7.831629E1,6.798912E1,7.757254E1,4.3456078E1,1.8663174E1,5.5812065E1,2.9577171E1,0E0,0E0,0E0,0E0,0E0,0E0,0E0,0E0],"parents":[2147483647,0,0,1,1,2,2,3,3,4,4,5,5,6,6],"right_children":[2,4,6,8,10,12,14,-1,-1,-1,-1,-1,-1,-1,-1],"split_conditions":[1.1606E2,-3.5E-1,1.3585818E0,1.1041316E0,1.1536E2,1.2945784E0,1.2386E2,-6.383385E-2,-2.4808475E-1,1.6353035E-1,-1.2364471E-1,4.920513E-2,2.5486705E-1,6.059977E-3,-2.4751393E-1],"split_indices":[0,4,3,3,0,3,2,0,0,0,0,0,0,0,0],"split_type":[0,0,0,0,0,0,0,0,0,0,0,0,0,0,0],"sum_hessian":[1.25E2,4.5E1,8E1,3.7E1,8E0,6.9E1,1.1E1,2.5E1,1.2E1,7E0,1E0,6E1,9E0,5E0,6E0],"tree_param":{"num_deleted":"0","num_feature":"5","num_nodes":"15","size_leaf_vector":"1"}},{"base_weights":[1.0866438E-3,-3.3585079E0,1.6766912E-1,2.1372223E-1,-5.6015825E-1,7.7529466E-1,-7.7257997E-1,1.2790284E-1,-6.2471516E-2,-2.616046E-1,7.464664E-2,-2.1044093E-1,1.2131754E-2],"categories":[],"categories_nodes":[],"categories_segments":[],"categories_sizes":[],"default_left":[0,0,0,0,0,0,0,0,0,0,0,0,0],"id":45,"left_children":[1,3,5,7,-1,9,11,-1,-1,-1,-1,-1,-1],"loss_changes":[7.1078964E1,7.958837E1,6.972862E1,6.758907E0,0E0,5.0286137E1,8.2822136E1,0E0,0E0,0E0,0E0,0E0,0E0],"parents":[2147483647,0,0,1,1,2,2,3,3,5,5,6,6],"right_children":[2,4,6,8,-1,10,12,-1,-1,-1,-1,-1,-1],"split_conditions":[-9.5E-1,8.652E1,1.183169E0,8.031E1,-5.6015825E-1,8.727E1,1.2945784E0,1.2790284E-1,-6.2471516E-2,-2.616046E-1,7.464664E-2,-2.1044093E-1,1.2131754E-2],"split_indices":[4,0,3,0,0,0,3,0,0,0,0,0,0],"split_type":[0,0,0,0,0,0,0,0,0,0,0,0,0],"sum_hessian":[1.25E2,5E0,1.2E2,3E0,2E0,7.3E1,4.7E1,1E0,2E0,2E0,7.1E1,1.5E1,3.2E1],"tree_param":{"num_deleted":"0","num_feature":"5","num_nodes":"13","size_leaf_vector":"1"}},{"base_weights":[-5.9836856E-3,-1.4081429E0,3.5502747E-1,-8.8723946E-1,-4.0847918E-1,1.3951321E0,-2.4249409E-1,-2.5378254E-1,-9.516023E-3,-3.323291E-1,1.3317358E-1,3.061551E-1,-4.0090155E-2],"categories":[],"categories_nodes":[],"categories_segments":[],"categories_sizes":[],"default_left":[0,0,0,0,0,0,0,0,0,0,0,0,0],"id":46,"left_children":[1,3,5,7,-1,9,11,-1,-1,-1,-1,-1,-1],"loss_changes":[6.428052E1,4.5551525E1,6.3108288E1,4.1756416E1,0E0,6.2257286E1,7.032957E1,0E0,0E0,0E0,0E0,0E0,0E0],"parents":[2147483647,0,0,1,1,2,2,3,3,5,5,6,6],"right_children":[2,4,6,8,-1,10,12,-1,-1,-1,-1,-1,-1],"split_conditions":[1.0895E2,1.1835091E0,9.960318E-1,-9.5E-1,-4.0847918E-1,1.0493E2,1.0895E2,-2.5378254E-1,-9.516023E-3,-3.323291E-1,1.3317358E-1,3.061551E-1,-4.0090155E-2],"split_indices":[0,3,3,4,0,1,2,0,0,0,0,0,0],"split_type":[0,0,0,0,0,0,0,0,0,0,0,0,0],"sum_hessian":[1.25E2,2.5E1,1E2,2.3E1,2E0,3.6E1,6.4E1,5E0,1.8E1,1E0,3.5E1,3E0,6.1E1],"tree_param":{"num_deleted":"0","num_feature":"5","num_nodes":"13","size_leaf_vector":"1"}},{"base_weights":[-1.030592E-2,-9.865185E-1,4.5521757E-1,-3.5756406E-1,-3.1830716E0,1.925343E0,-8.0221534E-2,-8.674003E-2,1.3605909E-1,-3.8538745E-1,-7.297485E-2,1.8081278E-1,-8.481242E-2,-1.9753585E-2,2.7132934E-1],"categories":[],"categories_nodes":[],"categories_segments":[],"categories_sizes":[],"default_left":[0,0,0,0,0,0,0,0,0,0,0,0,0,0,0],"id":47,"left_children":[1,3,5,7,9,11,13,-1,-1,-1,-1,-1,-1,-1,-1],"loss_changes":[5.770977E1,5.5504646E1,6.785045E1,5.120347E1,2.900689E1,2.5386803E1,3.7877422E1,0E0,0E0,0E0,0E0,0E0,0E0,0E0,0E0],"parents":[2147483647,0,0,1,1,2,2,3,3,4,4,5,5,6,6],"right_children":[2,4,6,8,10,12,14,-1,-1,-1,-1,-1,-1,-1,-1],"split_conditions":[1.1536E2,1.1211E2,7.535567E-1,1.0695E2,1.2945784E0,1.6931E2,3.5E-1,-8.674003E-2,1.3605909E-1,-3.8538745E-1,-7.297485E-2,1.8081278E-1,-8.481242E-2,-1.9753585E-2,2.7132934E-1],"split_indices":[2,2,3,2,3,0,4,0,0,0,0,0,0,0,0],"split_type":[0,0,0,0,0,0,0,0,0,0,0,0,0,0,0],"sum_hessian":[1.25E2,4E1,8.5E1,3.2E1,8E0,2.2E1,6.3E1,2.4E1,8E0,4E0,4E0,2E1,2E0,6.1E1,2E0],"tree_param":{"num_deleted":"0","num_feature":"5","num_nodes":"15","size_leaf_vector":"1"}},{"base_weights":[-9.970105E-3,-2.8885128E0,1.3284995E-1,4.6837425E-1,-5.12122E-1,6.28713E-1,-6.3437337E-1,1.0616374E-1,-8.4305726E-2,-2.4251892E-1,6.179914E-2,-1.8228015E-1,1.4560269E-2],"categories":[],"categories_nodes":[],"categories_segments":[],"categories_sizes":[],"default_left":[0,0,0,0,0,0,0,0,0,0,0,0,0],"id":48,"left_children":[1,3,5,7,-1,9,11,-1,-1,-1,-1,-1,-1],"loss_changes":[5.218406E1,7.375502E1,4.64318E1,6.626741E0,0E0,4.1284264E1,6.484165E1,0E0,0E0,0E0,0E0,0E0,0E0],"parents":[2147483647,0,0,1,1,2,2,3,3,5,5,6,6],"right_children":[2,4,6,8,-1,10,12,-1,-1,-1,-1,-1,-1],"split_conditions":[-9.5E-1,8.652E1,1.183169E0,8.652E1,-5.12122E-1,8.727E1,1.2945784E0,1.0616374E-1,-8.4305726E-2,-2.4251892E-1,6.179914E-2,-1.8228015E-1,1.4560269E-2],"split_indices":[4,0,3,1,0,0,3,0,0,0,0,0,0],"split_type":[0,0,0,0,0,0,0,0,0,0,0,0,0],"sum_hessian":[1.25E2,5E0,1.2E2,3E0,2E0,7.3E1,4.7E1,2E0,1E0,2E0,7.1E1,1.5E1,3.2E1],"tree_param":{"num_deleted":"0","num_feature":"5","num_nodes":"13","size_leaf_vector":"1"}},{"base_weights":[-1.58273E-2,-8.259513E-1,4.4443852E-1,-1.1358776E0,2.712244E0,7.911853E-1,-1.6152878E0,-1.0781197E-1,1.7095743E-1,2.5608194E-1,4.9836118E-2,3.3468828E-2,2.3890392E-1,1.6258147E-1,-1.7053083E-1],"categories":[],"categories_nodes":[],"categories_segments":[],"categories_sizes":[],"default_left":[0,0,0,0,0,0,0,0,0,0,0,0,0,0,0],"id":49,"left_children":[1,3,5,7,9,11,13,-1,-1,-1,-1,-1,-1,-1,-1],"loss_changes":[4.7349007E1,5.3523438E1,5.912848E1,3.2683086E1,2.0907364E0,5.603818E1,2.6932943E1,0E0,0E0,0E0,0E0,0E0,0E0,0E0,0E0],"parents":[2147483647,0,0,1,1,2,2,3,3,4,4,5,5,6,6],"right_children":[2,4,6,8,10,12,14,-1,-1,-1,-1,-1,-1,-1,-1],"split_conditions":[1.1606E2,-1.5E-1,1.3585818E0,1.1872E2,1.1358E2,1.2945784E0,1.1764E2,-1.0781197E-1,1.7095743E-1,2.5608194E-1,4.9836118E-2,3.3468828E-2,2.3890392E-1,1.6258147E-1,-1.7053083E-1],"split_indices":[0,4,3,1,0,3,0,0,0,0,0,0,0,0,0],"split_type":[0,0,0,0,0,0,0,0,0,0,0,0,0,0,0],"sum_hessian":[1.25E2,4.5E1,8E1,4.2E1,3E0,6.9E1,1.1E1,4E1,2E0,2E0,1E0,6E1,9E0,1E0,1E1],"tree_param":{"num_deleted":"0","num_feature":"5","num_nodes":"15","size_leaf_vector":"1"}},{"base_weights":[-9.532565E-3,-2.6492996E0,1.21443756E-1,5.172272E-1,-4.7905883E-1,8.162698E-1,-3.7936714E-1,1.0625163E-1,-7.662109E-2,-2.2383483E-1,8.167113E-2,-1.0425227E-1,4.037903E-2],"categories":[],"categories_nodes":[],"categories_segments":[],"categories_sizes":[],"default_left":[0,0,0,0,0,0,0,0,0,0,0,0,0],"id":50,"left_children":[1,3,5,7,-1,9,11,-1,-1,-1,-1,-1,-1],"loss_changes":[4.3885864E1,6.653426E1,4.2414814E1,6.0564365E0,0E0,4.0572723E1,5.8645157E1,0E0,0E0,0E0,0E0,0E0,0E0],"parents":[2147483647,0,0,1,1,2,2,3,3,5,5,6,6],"right_children":[2,4,6,8,-1,10,12,-1,-1,-1,-1,-1,-1],"split_conditions":[-9.5E-1,8.652E1,9.960318E-1,8.652E1,-4.7905883E-1,8.727E1,-8.5E-1,1.0625163E-1,-7.662109E-2,-2.2383483E-1,8.167113E-2,-1.0425227E-1,4.037903E-2],"split_indices":[4,0,3,1,0,0,4,0,0,0,0,0,0],"split_type":[0,0,0,0,0,0,0,0,0,0,0,0,0],"sum_hessian":[1.25E2,5E0,1.2E2,3E0,2E0,5E1,7E1,2E0,1E0,2E0,4.8E1,3.4E1,3.6E1],"tree_param":{"num_deleted":"0","num_feature":"5","num_nodes":"13","size_leaf_vector":"1"}},{"base_weights":[-1.3971056E-2,-3.0747682E-1,1.0736047E0,7.329847E-2,-1.5163193E0,4.4015318E-1,6.91673E-1,-5.906223E-2,9.901191E-2,1.2600671E-1,-1.7706832E-1,-2.0079549E-1,8.504443E-2],"categories":[],"categories_nodes":[],"categories_segments":[],"categories_sizes":[],"default_left":[0,0,0,0,0,0,0,0,0,0,0,0,0],"id":51,"left_children":[1,3,5,7,9,-1,11,-1,-1,-1,-1,-1,-1],"loss_changes":[4.0550537E1,4.6140877E1,4.18599E1,7.36756E1,5.5201797E1,0E0,3.3582832E1,0E0,0E0,0E0,0E0,0E0,0E0],"parents":[2147483647,0,0,1,1,2,2,3,3,4,4,6,6],"right_children":[2,4,6,8,10,-1,12,-1,-1,-1,-1,-1,-1],"split_conditions":[1.3986E2,1.2422E2,1.4277E2,1.1606E2,1.2168E2,4.4015318E-1,1.4964E2,-5.906223E-2,9.901191E-2,1.2600671E-1,-1.7706832E-1,-2.0079549E-1,8.504443E-2],"split_indices":[1,1,1,0,0,0,2,0,0,0,0,0,0],"split_type":[0,0,0,0,0,0,0,0,0,0,0,0,0],"sum_hessian":[1.25E2,9.9E1,2.6E1,7.6E1,2.3E1,1E0,2.5E1,4.5E1,3.1E1,4E0,1.9E1,2E0,2.3E1],"tree_param":{"num_deleted":"0","num_feature":"5","num_nodes":"13","size_leaf_vector":"1"}},{"base_weights":[-1.036756E-2,-2.4630458E0,1.11338526E-1,5.2754974E-1,-4.5035928E-1,7.5248194E-1,-3.5076925E-1,1.0373454E-1,-7.1193844E-2,-2.0874734E-1,7.543609E-2,-9.67407E-2,3.7663657E-2],"categories":[],"categories_nodes":[],"categories_segments":[],"categories_sizes":[],"default_left":[0,0,0,0,0,0,0,0,0,0,0,0,0],"id":52,"left_children":[1,3,5,7,-1,9,11,-1,-1,-1,-1,-1,-1],"loss_changes":[3.788597E1,5.9787186E1,3.611351E1,5.5148416E0,0E0,3.5116997E1,5.064596E1,0E0,0E0,0E0,0E0,0E0,0E0],"parents":[2147483647,0,0,1,1,2,2,3,3,5,5,6,6],"right_children":[2,4,6,8,-1,10,12,-1,-1,-1,-1,-1,-1],"split_conditions":[-9.5E-1,8.652E1,9.960318E-1,8.652E1,-4.5035928E-1,8.727E1,-8.5E-1,1.0373454E-1,-7.1193844E-2,-2.0874734E-1,7.543609E-2,-9.67407E-2,3.7663657E-2],"split_indices":[4,0,3,1,0,0,4,0,0,0,0,0,0],"split_type":[0,0,0,0,0,0,0,0,0,0,0,0,0],"sum_hessian":[1.25E2,5E0,1.2E2,3E0,2E0,5E1,7E1,2E0,1E0,2E0,4.8E1,3.4E1,3.6E1],"tree_param":{"num_deleted":"0","num_feature":"5","num_nodes":"13","size_leaf_vector":"1"}},{"base_weights":[-1.4383164E-2,-2.33564E0,1.0083935E-1,4.9348068E-1,-4.263403E-1,3.2273805E-1,-1.035886E0,9.82019E-2,-6.834595E-2,4.127602E-3,1.6187042E-1,-1.3231401E-1,2.4141152E-1],"categories":[],"categories_nodes":[],"categories_segments":[],"categories_sizes":[],"default_left":[0,0,0,0,0,0,0,0,0,0,0,0,0],"id":53,"left_children":[1,3,5,7,-1,9,11,-1,-1,-1,-1,-1,-1],"loss_changes":[3.3935616E1,5.3445656E1,3.0855104E1,5.006091E0,0E0,4.6929565E1,5.5095764E1,0E0,0E0,0E0,0E0,0E0,0E0],"parents":[2147483647,0,0,1,1,2,2,3,3,5,5,6,6],"right_children":[2,4,6,8,-1,10,12,-1,-1,-1,-1,-1,-1],"split_conditions":[-9.5E-1,8.652E1,1.3551822E0,8.652E1,-4.263403E-1,1.2945784E0,3.5E-1,9.82019E-2,-6.834595E-2,4.127602E-3,1.6187042E-1,-1.3231401E-1,2.4141152E-1],"split_indices":[4,0,3,1,0,3,4,0,0,0,0,0,0],"split_type":[0,0,0,0,0,0,0,0,0,0,0,0,0],"sum_hessian":[1.25E2,5E0,1.2E2,3E0,2E0,1.01E2,1.9E1,2E0,1E0,8.8E1,1.3E1,1.7E1,2E0],"tree_param":{"num_deleted":"0","num_feature":"5","num_nodes":"13","size_leaf_vector":"1"}},{"base_weights":[-1.4197819E-2,-6.5748376E-1,3.9009973E-1,-3.9944994E-1,-3.584682E-1,3.1582007E-1,1.444463E-1,-6.109863E-2,1.7736846E-1,4.233788E-2,-9.414558E-2],"categories":[],"categories_nodes":[],"categories_segments":[],"categories_sizes":[],"default_left":[0,0,0,0,0,0,0,0,0,0,0],"id":54,"left_children":[1,3,5,7,-1,-1,9,-1,-1,-1,-1],"loss_changes":[3.3026432E1,4.65515E1,6.759781E1,4.6492107E1,0E0,0E0,3.824388E1,0E0,0E0,0E0,0E0],"parents":[2147483647,0,0,1,1,2,2,3,3,6,6],"right_children":[2,4,6,8,-1,-1,10,-1,-1,-1,-1],"split_conditions":[1.1621E2,1.231E2,3.3793753E-1,1.1599E2,-3.584682E-1,3.1582007E-1,1.3551822E0,-6.109863E-2,1.7736846E-1,4.233788E-2,-9.414558E-2],"split_indices":[2,1,3,1,0,0,3,0,0,0,0],"split_type":[0,0,0,0,0,0,0,0,0,0,0],"sum_hessian":[1.25E2,4.8E1,7.7E1,4.6E1,2E0,4E0,7.3E1,4.1E1,5E0,5.7E1,1.6E1],"tree_param":{"num_deleted":"0","num_feature":"5","num_nodes":"11","size_leaf_vector":"1"}},{"base_weights":[-1.2890286E-2,-2.0572064E0,1.064689E-1,-4.0149942E-1,-4.796579E-1,7.2966474E-1,-2.9078344E-1,-1.945758E-1,9.775192E-2,-2.7838744E-2,9.5791526E-2,1.4592308E-1,-4.3116756E-2],"categories":[],"categories_nodes":[],"categories_segments":[],"categories_sizes":[],"default_left":[0,0,0,0,0,0,0,0,0,0,0,0,0],"id":55,"left_children":[1,3,5,7,-1,9,11,-1,-1,-1,-1,-1,-1],"loss_changes":[3.0964022E1,4.3239933E1,2.9920095E1,2.2751694E1,0E0,2.4106937E1,3.982184E1,0E0,0E0,0E0,0E0,0E0,0E0],"parents":[2147483647,0,0,1,1,2,2,3,3,5,5,6,6],"right_children":[2,4,6,8,-1,10,12,-1,-1,-1,-1,-1,-1],"split_conditions":[8.727E1,8.665E1,8.9484227E-1,8.171E1,-4.796579E-1,-1.24397455E-2,1.0943E2,-1.945758E-1,9.775192E-2,-2.7838744E-2,9.5791526E-2,1.4592308E-1,-4.3116756E-2],"split_indices":[2,2,3,1,0,3,2,0,0,0,0,0,0],"split_type":[0,0,0,0,0,0,0,0,0,0,0,0,0],"sum_hessian":[1.25E2,6E0,1.19E2,5E0,1E0,4.6E1,7.3E1,2E0,3E0,1.4E1,3.2E1,7E0,6.6E1],"tree_param":{"num_deleted":"0","num_feature":"5","num_nodes":"13","size_leaf_vector":"1"}},{"base_weights":[-1.5081012E-2,-1.9749864E0,9.9372484E-2,-3.8551965E-1,-4.6047148E-1,7.546278E-1,-2.2543721E-1,-1.841986E-1,9.1886595E-2,1.6882028E-2,1.8914661E-1,-5.4167524E-2,5.6236323E-2],"categories":[],"categories_nodes":[],"categories_segments":[],"categories_sizes":[],"default_left":[0,0,0,0,0,0,0,0,0,0,0,0,0],"id":56,"left_children":[1,3,5,7,-1,9,11,-1,-1,-1,-1,-1,-1],"loss_changes":[2.846033E1,3.984838E1,2.5710115E1,2.0289494E1,0E0,3.450264E1,3.4440422E1,0E0,0E0,0E0,0E0,0E0,0E0],"parents":[2147483647,0,0,1,1,2,2,3,3,5,5,6,6],"right_children":[2,4,6,8,-1,10,12,-1,-1,-1,-1,-1,-1],"split_conditions":[8.727E1,8.665E1,7.535567E-1,8.171E1,-4.6047148E-1,1.5162E2,-7.5E-1,-1.841986E-1,9.1886595E-2,1.6882028E-2,1.8914661E-1,-5.4167524E-2,5.6236323E-2],"split_indices":[2,2,3,1,0,0,4,0,0,0,0,0,0],"split_type":[0,0,0,0,0,0,0,0,0,0,0,0,0],"sum_hessian":[1.25E2,6E0,1.19E2,5E0,1E0,3.9E1,8E1,2E0,3E0,3E1,9E0,5.4E1,2.6E1],"tree_param":{"num_deleted":"0","num_feature":"5","num_nodes":"13","size_leaf_vector":"1"}},{"base_weights":[-1.6609496E-2,-5.965604E-1,3.479316E-1,-3.553277E-1,-3.3416155E-1,3.5704987E0,1.254888E-1,-5.501574E-2,1.6243814E-1,3.5253987E-1,1.2352661E-1,3.7396524E-2,-8.388851E-2],"categories":[],"categories_nodes":[],"categories_segments":[],"categories_sizes":[],"default_left":[0,0,0,0,0,0,0,0,0,0,0,0,0],"id":57,"left_children":[1,3,5,7,-1,9,11,-1,-1,-1,-1,-1,-1],"loss_changes":[2.684597E1,4.083827E1,5.5465218E1,3.8665825E1,0E0,1.6685715E0,3.0201382E1,0E0,0E0,0E0,0E0,0E0,0E0],"parents":[2147483647,0,0,1,1,2,2,3,3,5,5,6,6],"right_children":[2,4,6,8,-1,10,12,-1,-1,-1,-1,-1,-1],"split_conditions":[1.1621E2,1.231E2,3.3793753E-1,1.1599E2,-3.3416155E-1,1.231E2,1.3551822E0,-5.501574E-2,1.6243814E-1,3.5253987E-1,1.2352661E-1,3.7396524E-2,-8.388851E-2],"split_indices":[2,1,3,1,0,0,3,0,0,0,0,0,0],"split_type":[0,0,0,0,0,0,0,0,0,0,0,0,0],"sum_hessian":[1.25E2,4.8E1,7.7E1,4.6E1,2E0,4E0,7.3E1,4.1E1,5E0,2E0,2E0,5.7E1,1.6E1],"tree_param":{"num_deleted":"0","num_feature":"5","num_nodes":"13","size_leaf_vector":"1"}},{"base_weights":[-1.3672662E-2,-8.516748E-2,2.3568033E-1,-7.849893E-1,2.9603407E-1,-4.6043802E-2,-2.7644083E-1,1.0819231E-1,-1.3798367E-2],"categories":[],"categories_nodes":[],"categories_segments":[],"categories_sizes":[],"default_left":[0,0,0,0,0,0,0,0,0],"id":58,"left_children":[1,3,-1,5,7,-1,-1,-1,-1],"loss_changes":[2.69127E1,3.3312256E1,0E0,2.2621208E1,4.0322083E1,0E0,0E0,0E0,0E0],"parents":[2147483647,0,0,1,1,3,3,4,4],"right_children":[2,4,-1,6,8,-1,-1,-1,-1],"split_conditions":[3.5E-1,1.1606E2,2.3568033E-1,1.1564E2,1.231E2,-4.6043802E-2,-2.7644083E-1,1.0819231E-1,-1.3798367E-2],"split_indices":[4,0,0,0,0,0,0,0,0],"split_type":[0,0,0,0,0,0,0,0,0],"sum_hessian":[1.25E2,1.23E2,2E0,4.3E1,8E1,4.1E1,2E0,2.4E1,5.6E1],"tree_param":{"num_deleted":"0","num_feature":"5","num_nodes":"9","size_leaf_vector":"1"}},{"base_weights":[-1.2518928E-2,-8.0193855E-2,2.2311075E-1,1.2647954E-1,-1.3042971E0,-1.0489425E-2,1.477622E-1,-1.7564584E-1,6.7534685E-2],"categories":[],"categories_nodes":[],"categories_segments":[],"categories_sizes":[],"default_left":[0,0,0,0,0,0,0,0,0],"id":59,"left_children":[1,3,-1,5,7,-1,-1,-1,-1],"loss_changes":[2.4111336E1,3.1535675E1,0E0,4.7665493E1,3.6321472E1,0E0,0E0,0E0,0E0],"parents":[2147483647,0,0,1,1,3,3,4,4],"right_children":[2,4,-1,6,8,-1,-1,-1,-1],"split_conditions":[3.5E-1,1.3551822E0,2.2311075E-1,1.2945784E0,1.2478E2,-1.0489425E-2,1.477622E-1,-1.7564584E-1,6.7534685E-2],"split_indices":[4,3,0,3,0,0,0,0,0],"split_type":[0,0,0,0,0,0,0,0,0],"sum_hessian":[1.25E2,1.23E2,2E0,1.06E2,1.7E1,9.3E1,1.3E1,1.2E1,5E0],"tree_param":{"num_deleted":"0","num_feature":"5","num_nodes":"9","size_leaf_vector":"1"}},{"base_weights":[-9.516398E-3,-1.8003442E0,9.502786E-2,-2.7710724E-1,-4.3759063E-1,6.213367E-1,-2.7695057E-1,-1.684255E-1,9.306625E-2,6.34211E-2,-8.640478E-2,-2.816362E-1,-6.5666824E-3],"categories":[],"categories_nodes":[],"categories_segments":[],"categories_sizes":[],"default_left":[0,0,0,0,0,0,0,0,0,0,0,0,0],"id":60,"left_children":[1,3,5,7,-1,9,11,-1,-1,-1,-1,-1,-1],"loss_changes":[2.3760899E1,3.7611298E1,2.3665144E1,1.82497E1,0E0,1.5439507E1,4.4586693E1,0E0,0E0,0E0,0E0,0E0,0E0],"parents":[2147483647,0,0,1,1,2,2,3,3,5,5,6,6],"right_children":[2,4,6,8,-1,10,12,-1,-1,-1,-1,-1,-1],"split_conditions":[8.727E1,8.665E1,9.960318E-1,8.171E1,-4.3759063E-1,1.6931E2,1.0580789E0,-1.684255E-1,9.306625E-2,6.34211E-2,-8.640478E-2,-2.816362E-1,-6.5666824E-3],"split_indices":[2,2,3,1,0,0,3,0,0,0,0,0,0],"split_type":[0,0,0,0,0,0,0,0,0,0,0,0,0],"sum_hessian":[1.25E2,6E0,1.19E2,5E0,1E0,4.9E1,7E1,2E0,3E0,4.5E1,4E0,3E0,6.7E1],"tree_param":{"num_deleted":"0","num_feature":"5","num_nodes":"13","size_leaf_vector":"1"}},{"base_weights":[-1.5293545E-2,-1.9147314E0,7.9019845E-2,4.9403763E-1,-3.5905436E-1,1.3679312E-2,2.1156168E-1,9.323405E-2,-6.0805053E-2,1.8214481E-2,-9.598056E-2],"categories":[],"categories_nodes":[],"categories_segments":[],"categories_sizes":[],"default_left":[0,0,0,0,0,0,0,0,0,0,0],"id":61,"left_children":[1,3,5,7,-1,9,-1,-1,-1,-1,-1],"loss_changes":[2.2723248E1,3.9410378E1,2.0247202E1,4.2537503E0,0E0,3.117478E1,0E0,0E0,0E0,0E0,0E0],"parents":[2147483647,0,0,1,1,2,2,3,3,5,5],"right_children":[2,4,6,8,-1,10,-1,-1,-1,-1,-1],"split_conditions":[-9.5E-1,8.652E1,3.5E-1,8.652E1,-3.5905436E-1,1.3551822E0,2.1156168E-1,9.323405E-2,-6.0805053E-2,1.8214481E-2,-9.598056E-2],"split_indices":[4,0,4,1,0,3,0,0,0,0,0],"split_type":[0,0,0,0,0,0,0,0,0,0,0],"sum_hessian":[1.25E2,5E0,1.2E2,3E0,2E0,1.18E2,2E0,2E0,1E0,1.01E2,1.7E1],"tree_param":{"num_deleted":"0","num_feature":"5","num_nodes":"11","size_leaf_vector":"1"}},{"base_weights":[-1.5600296E-2,-5.4513395E-1,3.1725547E-1,-3.1972763E-1,-3.1158304E-1,3.3162446E0,1.1033383E-1,-4.9136903E-2,1.4359568E-1,3.282861E-1,1.138798E-1,1.6730112E-1,-5.081601E-3],"categories":[],"categories_nodes":[],"categories_segments":[],"categories_sizes":[],"default_left":[0,0,0,0,0,0,0,0,0,0,0,0,0],"id":62,"left_children":[1,3,5,7,-1,9,11,-1,-1,-1,-1,-1,-1],"loss_changes":[2.2381496E1,3.575135E1,4.8037453E1,3.0371109E1,0E0,1.6096725E0,2.561787E1,0E0,0E0,0E0,0E0,0E0,0E0],"parents":[2147483647,0,0,1,1,2,2,3,3,5,5,6,6],"right_children":[2,4,6,8,-1,10,12,-1,-1,-1,-1,-1,-1],"split_conditions":[1.1621E2,1.231E2,3.3793753E-1,1.1599E2,-3.1158304E-1,1.231E2,1.1872E2,-4.9136903E-2,1.4359568E-1,3.282861E-1,1.138798E-1,1.6730112E-1,-5.081601E-3],"split_indices":[2,1,3,1,0,0,2,0,0,0,0,0,0],"split_type":[0,0,0,0,0,0,0,0,0,0,0,0,0],"sum_hessian":[1.25E2,4.8E1,7.7E1,4.6E1,2E0,4E0,7.3E1,4.1E1,5E0,2E0,2E0,5E0,6.8E1],"tree_param":{"num_deleted":"0","num_feature":"5","num_nodes":"13","size_leaf_vector":"1"}},{"base_weights":[-1.128006E-2,-2.2491623E-1,7.803828E-1,-2.0159404E-3,-2.028199E0,4.0268552E-1,4.2319986E-1,-1.3472951E-2,1.3796753E-1,-3.0023396E-2,-2.6744577E-1,-2.0797934E-1,6.267474E-2],"categories":[],"categories_nodes":[],"categories_segments":[],"categories_sizes":[],"default_left":[0,0,0,0,0,0,0,0,0,0,0,0,0],"id":63,"left_children":[1,3,5,7,9,-1,11,-1,-1,-1,-1,-1,-1],"loss_changes":[2.1485628E1,4.0191135E1,3.8887264E1,2.6147526E1,2.2652363E1,0E0,3.034988E1,0E0,0E0,0E0,0E0,0E0,0E0],"parents":[2147483647,0,0,1,1,2,2,3,3,4,4,6,6],"right_children":[2,4,6,8,10,-1,12,-1,-1,-1,-1,-1,-1],"split_conditions":[1.3986E2,1.2804E2,1.4277E2,1.2582E2,4.4268727E-1,4.0268552E-1,1.4964E2,-1.3472951E-2,1.3796753E-1,-3.0023396E-2,-2.6744577E-1,-2.0797934E-1,6.267474E-2],"split_indices":[1,0,1,0,3,0,2,0,0,0,0,0,0],"split_type":[0,0,0,0,0,0,0,0,0,0,0,0,0],"sum_hessian":[1.25E2,9.9E1,2.6E1,8.9E1,1E1,1E0,2.5E1,8.2E1,7E0,5E0,5E0,2E0,2.3E1],"tree_param":{"num_deleted":"0","num_feature":"5","num_nodes":"13","size_leaf_vector":"1"}},{"base_weights":[-9.706164E-3,-1.6483623E0,8.5962996E-2,-2.4300385E-1,-4.032205E-1,6.470316E-1,-1.9216919E-1,-1.5707499E-1,8.864578E-2,1.3641692E-2,1.6476086E-1,1.4148186E-1,-3.2123122E-2],"categories":[],"categories_nodes":[],"categories_segments":[],"categories_sizes":[],"default_left":[0,0,0,0,0,0,0,0,0,0,0,0,0],"id":64,"left_children":[1,3,5,7,-1,9,11,-1,-1,-1,-1,-1,-1],"loss_changes":[1.9894573E1,3.214299E1,1.8850487E1,1.612225E1,0E0,2.6571255E1,3.3961433E1,0E0,0E0,0E0,0E0,0E0,0E0],"parents":[2147483647,0,0,1,1,2,2,3,3,5,5,6,6],"right_children":[2,4,6,8,-1,10,12,-1,-1,-1,-1,-1,-1],"split_conditions":[8.727E1,8.665E1,7.535567E-1,8.171E1,-4.032205E-1,1.5162E2,1.0943E2,-1.5707499E-1,8.864578E-2,1.3641692E-2,1.6476086E-1,1.4148186E-1,-3.2123122E-2],"split_indices":[2,2,3,1,0,0,2,0,0,0,0,0,0],"split_type":[0,0,0,0,0,0,0,0,0,0,0,0,0],"sum_hessian":[1.25E2,6E0,1.19E2,5E0,1E0,3.9E1,8E1,2E0,3E0,3E1,9E0,7E0,7.3E1],"tree_param":{"num_deleted":"0","num_feature":"5","num_nodes":"13","size_leaf_vector":"1"}},{"base_weights":[-1.0391114E-2,-7.0909195E-2,1.9955893E-1,-6.781204E-1,2.5980932E-1,-2.2375468E-2,-1.4783797E-1,1.0047829E-1,-1.453321E-2],"categories":[],"categories_nodes":[],"categories_segments":[],"categories_sizes":[],"default_left":[0,0,0,0,0,0,0,0,0],"id":65,"left_children":[1,3,-1,5,7,-1,-1,-1,-1],"loss_changes":[1.927727E1,2.5077364E1,0E0,1.9991598E1,3.5850616E1,0E0,0E0,0E0,0E0],"parents":[2147483647,0,0,1,1,3,3,4,4],"right_children":[2,4,-1,6,8,-1,-1,-1,-1],"split_conditions":[3.5E-1,1.1606E2,1.9955893E-1,1.1276E2,1.231E2,-2.2375468E-2,-1.4783797E-1,1.0047829E-1,-1.453321E-2],"split_indices":[4,0,0,0,0,0,0,0,0],"split_type":[0,0,0,0,0,0,0,0,0],"sum_hessian":[1.25E2,1.23E2,2E0,4.3E1,8E1,3.3E1,1E1,2.4E1,5.6E1],"tree_param":{"num_deleted":"0","num_feature":"5","num_nodes":"9","size_leaf_vector":"1"}},{"base_weights":[-8.646284E-3,-1.6995608E0,7.527217E-2,4.973793E-1,-4.062294E0,5.077075E-1,-2.3641054E-1,9.006653E-2,-5.5519104E-2,-1.01278685E-1,-3.8619658E-1,-1.4750427E-1,5.1305294E-2,-2.537544E-1,-4.8205024E-3],"categories":[],"categories_nodes":[],"categories_segments":[],"categories_sizes":[],"default_left":[0,0,0,0,0,0,0,0,0,0,0,0,0,0,0],"id":66,"left_children":[1,3,5,7,9,11,13,-1,-1,-1,-1,-1,-1,-1,-1],"loss_changes":[1.8007195E1,3.31652E1,1.6428722E1,3.7761867E0,3.0742264E-1,1.7205757E1,3.6523277E1,0E0,0E0,0E0,0E0,0E0,0E0,0E0,0E0],"parents":[2147483647,0,0,1,1,2,2,3,3,4,4,5,5,6,6],"right_children":[2,4,6,8,10,12,14,-1,-1,-1,-1,-1,-1,-1,-1],"split_conditions":[-9.5E-1,8.652E1,9.960318E-1,8.652E1,9.028E1,8.727E1,1.0580789E0,9.006653E-2,-5.5519104E-2,-1.01278685E-1,-3.8619658E-1,-1.4750427E-1,5.1305294E-2,-2.537544E-1,-4.8205024E-3],"split_indices":[4,0,3,1,0,0,3,0,0,0,0,0,0,0,0],"split_type":[0,0,0,0,0,0,0,0,0,0,0,0,0,0,0],"sum_hessian":[1.25E2,5E0,1.2E2,3E0,2E0,5E1,7E1,2E0,1E0,1E0,1E0,2E0,4.8E1,3E0,6.7E1],"tree_param":{"num_deleted":"0","num_feature":"5","num_nodes":"15","size_leaf_vector":"1"}},{"base_weights":[-1.4363183E-2,-4.8259175E-1,2.7996454E-1,-2.7879983E-1,-2.8115743E-1,1.4148909E0,-2.2036633E-1,-4.2770922E-2,1.246819E-1,1.5748821E-1,-2.4938333E-1,-1.5360923E-1,2.811708E-2],"categories":[],"categories_nodes":[],"categories_segments":[],"categories_sizes":[],"default_left":[0,0,0,0,0,0,0,0,0,0,0,0,0],"id":67,"left_children":[1,3,5,7,-1,9,11,-1,-1,-1,-1,-1,-1],"loss_changes":[1.7499504E1,2.9295887E1,4.460321E1,2.2925823E1,0E0,6.636526E1,5.413305E1,0E0,0E0,0E0,0E0,0E0,0E0],"parents":[2147483647,0,0,1,1,2,2,3,3,5,5,6,6],"right_children":[2,4,6,8,-1,10,12,-1,-1,-1,-1,-1,-1],"split_conditions":[1.1621E2,1.231E2,1.2345E2,1.1599E2,-2.8115743E-1,1.2796E2,1.2762E2,-4.2770922E-2,1.246819E-1,1.5748821E-1,-2.4938333E-1,-1.5360923E-1,2.811708E-2],"split_indices":[2,1,2,1,0,1,2,0,0,0,0,0,0],"split_type":[0,0,0,0,0,0,0,0,0,0,0,0,0],"sum_hessian":[1.25E2,4.8E1,7.7E1,4.6E1,2E0,2.3E1,5.4E1,4.1E1,5E0,2.1E1,2E0,1.3E1,4.1E1],"tree_param":{"num_deleted":"0","num_feature":"5","num_nodes":"13","size_leaf_vector":"1"}},{"base_weights":[-1.652115E-2,-7.3072E-2,1.8611367E-1,-5.670956E-1,2.3583974E-1,1.0636479E-2,-1.3929877E-1,2.3769824E-1,3.620296E-3],"categories":[],"categories_nodes":[],"categories_segments":[],"categories_sizes":[],"default_left":[0,0,0,0,0,0,0,0,0],"id":68,"left_children":[1,3,-1,5,7,-1,-1,-1,-1],"loss_changes":[1.6864414E1,1.9057346E1,0E0,3.968549E1,4.000771E1,0E0,0E0,0E0,0E0],"parents":[2147483647,0,0,1,1,3,3,4,4],"right_children":[2,4,-1,6,8,-1,-1,-1,-1],"split_conditions":[3.5E-1,1.1621E2,1.8611367E-1,1.0961E2,3.3793753E-1,1.0636479E-2,-1.3929877E-1,2.3769824E-1,3.620296E-3],"split_indices":[4,2,0,2,3,0,0,0,0],"split_type":[0,0,0,0,0,0,0,0,0],"sum_hessian":[1.25E2,1.23E2,2E0,4.7E1,7.6E1,3E1,1.7E1,4E0,7.2E1],"tree_param":{"num_deleted":"0","num_feature":"5","num_nodes":"9","size_leaf_vector":"1"}},{"base_weights":[-1.2828706E-2,-1.6123034E0,6.6590115E-2,4.9032784E-1,-3.8783772E0,1.2187926E-2,1.7618774E-1,1.1591278E-1,-2.497355E-2,-9.594207E-2,-3.6946318E-1,1.5189292E-2,-7.96266E-2],"categories":[],"categories_nodes":[],"categories_segments":[],"categories_sizes":[],"default_left":[0,0,0,0,0,0,0,0,0,0,0,0,0],"id":69,"left_children":[1,3,5,7,9,11,-1,-1,-1,-1,-1,-1,-1],"loss_changes":[1.611294E1,3.0489983E1,1.4032128E1,3.5293427E0,4.082985E-1,2.1491697E1,0E0,0E0,0E0,0E0,0E0,0E0,0E0],"parents":[2147483647,0,0,1,1,2,2,3,3,4,4,5,5],"right_children":[2,4,6,8,10,12,-1,-1,-1,-1,-1,-1,-1],"split_conditions":[-9.5E-1,8.652E1,3.5E-1,8.031E1,9.028E1,1.3551822E0,1.7618774E-1,1.1591278E-1,-2.497355E-2,-9.594207E-2,-3.6946318E-1,1.5189292E-2,-7.96266E-2],"split_indices":[4,0,4,0,0,3,0,0,0,0,0,0,0],"split_type":[0,0,0,0,0,0,0,0,0,0,0,0,0],"sum_hessian":[1.25E2,5E0,1.2E2,3E0,2E0,1.18E2,2E0,1E0,2E0,1E0,1E0,1.01E2,1.7E1],"tree_param":{"num_deleted":"0","num_feature":"5","num_nodes":"13","size_leaf_vector":"1"}},{"base_weights":[-1.3885982E-2,-1.4398161E0,6.940899E-2,-2.0193227E-1,-3.5468474E-1,5.3443754E-1,-1.6109166E-1,-1.3873352E-1,7.981826E-2,8.39383E-3,1.4499913E-1,1.3053672E-1,-2.8218484E-2],"categories":[],"categories_nodes":[],"categories_segments":[],"categories_sizes":[],"default_left":[0,0,0,0,0,0,0,0,0,0,0,0,0],"id":70,"left_children":[1,3,5,7,-1,9,11,-1,-1,-1,-1,-1,-1],"loss_changes":[1.5065309E1,2.5046064E1,1.2948819E1,1.2759215E1,0E0,2.1767508E1,2.8404825E1,0E0,0E0,0E0,0E0,0E0,0E0],"parents":[2147483647,0,0,1,1,2,2,3,3,5,5,6,6],"right_children":[2,4,6,8,-1,10,12,-1,-1,-1,-1,-1,-1],"split_conditions":[8.727E1,8.665E1,7.535567E-1,8.171E1,-3.5468474E-1,1.5162E2,1.0943E2,-1.3873352E-1,7.981826E-2,8.39383E-3,1.4499913E-1,1.3053672E-1,-2.8218484E-2],"split_indices":[2,2,3,1,0,0,2,0,0,0,0,0,0],"split_type":[0,0,0,0,0,0,0,0,0,0,0,0,0],"sum_hessian":[1.25E2,6E0,1.19E2,5E0,1E0,3.9E1,8E1,2E0,3E0,3E1,9E0,7E0,7.3E1],"tree_param":{"num_deleted":"0","num_feature":"5","num_nodes":"13","size_leaf_vector":"1"}},{"base_weights":[-1.402755E-2,-1.6317698E-1,7.3949E-1,1.4179151E-1,-9.404902E-1,1.4225571E0,-8.298667E-1,-5.13049E-3,2.4959227E-1,1.1302111E-1,-1.08549304E-1,1.8639132E-1,4.2209295E-3,-1.8898925E-1,1.6007364E-1],"categories":[],"categories_nodes":[],"categories_segments":[],"categories_sizes":[],"default_left":[0,0,0,0,0,0,0,0,0,0,0,0,0,0,0],"id":71,"left_children":[1,3,5,7,9,11,13,-1,-1,-1,-1,-1,-1,-1,-1],"loss_changes":[1.4281394E1,2.5261293E1,2.3692028E1,4.7421154E1,3.1312105E1,1.8520008E1,3.509416E1,0E0,0E0,0E0,0E0,0E0,0E0,0E0,0E0],"parents":[2147483647,0,0,1,1,2,2,3,3,4,4,5,5,6,6],"right_children":[2,4,6,8,10,12,14,-1,-1,-1,-1,-1,-1,-1,-1],"split_conditions":[1.5237E2,1.2422E2,1.6683E2,1.2361E2,1.2168E2,8.9484227E-1,1.7189E2,-5.13049E-3,2.4959227E-1,1.1302111E-1,-1.08549304E-1,1.8639132E-1,4.2209295E-3,-1.8898925E-1,1.6007364E-1],"split_indices":[2,1,2,1,0,3,2,0,0,0,0,0,0,0,0],"split_type":[0,0,0,0,0,0,0,0,0,0,0,0,0,0,0],"sum_hessian":[1.25E2,1.05E2,2E1,7.6E1,2.9E1,1.4E1,6E0,7.2E1,4E0,4E0,2.5E1,8E0,6E0,4E0,2E0],"tree_param":{"num_deleted":"0","num_feature":"5","num_nodes":"15","size_leaf_vector":"1"}},{"base_weights":[-9.647854E-3,-1.4998449E0,6.432595E-2,4.5352936E-1,-2.8835166E-1,1.2286338E-2,1.6856973E-1,8.247294E-2,-5.114471E-2,1.3697659E-2,-7.112196E-2],"categories":[],"categories_nodes":[],"categories_segments":[],"categories_sizes":[],"default_left":[0,0,0,0,0,0,0,0,0,0,0],"id":72,"left_children":[1,3,5,7,-1,9,-1,-1,-1,-1,-1],"loss_changes":[1.3986156E1,2.6300549E1,1.28371725E1,3.1830137E0,0E0,1.7198887E1,0E0,0E0,0E0,0E0,0E0],"parents":[2147483647,0,0,1,1,2,2,3,3,5,5],"right_children":[2,4,6,8,-1,10,-1,-1,-1,-1,-1],"split_conditions":[-9.5E-1,8.652E1,3.5E-1,8.652E1,-2.8835166E-1,1.3551822E0,1.6856973E-1,8.247294E-2,-5.114471E-2,1.3697659E-2,-7.112196E-2],"split_indices":[4,0,4,1,0,3,0,0,0,0,0],"split_type":[0,0,0,0,0,0,0,0,0,0,0],"sum_hessian":[1.25E2,5E0,1.2E2,3E0,2E0,1.18E2,2E0,2E0,1E0,1.01E2,1.7E1],"tree_param":{"num_deleted":"0","num_feature":"5","num_nodes":"11","size_leaf_vector":"1"}},{"base_weights":[-1.0033562E-2,-1.3577368E0,6.866608E-2,1.4173584E-1,-3.404279E0,6.0322213E-1,-1.0831577E-1,-1.3179138E-1,1.506895E-1,-3.2875824E-1,-7.975525E-2,2.408502E-2,3.746338E-1,1.2079925E-1,-2.0892058E-2],"categories":[],"categories_nodes":[],"categories_segments":[],"categories_sizes":[],"default_left":[0,0,0,0,0,0,0,0,0,0,0,0,0,0,0],"id":73,"left_children":[1,3,5,7,9,11,13,-1,-1,-1,-1,-1,-1,-1,-1],"loss_changes":[1.3457264E1,2.196365E1,1.1418144E1,1.8685318E1,9.960518E-1,3.557174E1,2.290171E1,0E0,0E0,0E0,0E0,0E0,0E0,0E0,0E0],"parents":[2147483647,0,0,1,1,2,2,3,3,4,4,5,5,6,6],"right_children":[2,4,6,8,10,12,14,-1,-1,-1,-1,-1,-1,-1,-1],"split_conditions":[8.727E1,9.14E1,4.2295194E-1,8.171E1,9.263E1,4.1601217E-1,1.0943E2,-1.3179138E-1,1.506895E-1,-3.2875824E-1,-7.975525E-2,2.408502E-2,3.746338E-1,1.2079925E-1,-2.0892058E-2],"split_indices":[2,0,3,1,0,3,2,0,0,0,0,0,0,0,0],"split_type":[0,0,0,0,0,0,0,0,0,0,0,0,0,0,0],"sum_hessian":[1.25E2,6E0,1.19E2,4E0,2E0,2.9E1,9E1,2E0,2E0,1E0,1E0,2.8E1,1E0,7E0,8.3E1],"tree_param":{"num_deleted":"0","num_feature":"5","num_nodes":"15","size_leaf_vector":"1"}},{"base_weights":[-8.366963E-3,-4.2831093E-1,2.5555128E-1,-7.527686E-1,1.3286304E0,1.2763714E0,-1.9454387E-1,6.5768533E-3,-2.277654E-1,1.0196533E-2,2.6304808E-1,1.4202212E-1,-2.2461791E-1,-1.3111886E-1,2.33255E-2],"categories":[],"categories_nodes":[],"categories_segments":[],"categories_sizes":[],"default_left":[0,0,0,0,0,0,0,0,0,0,0,0,0,0,0],"id":74,"left_children":[1,3,5,7,9,11,13,-1,-1,-1,-1,-1,-1,-1,-1],"loss_changes":[1.4074145E1,2.8932747E1,3.6086674E1,7.3679306E1,1.8410225E1,5.388632E1,3.9096756E1,0E0,0E0,0E0,0E0,0E0,0E0,0E0,0E0],"parents":[2147483647,0,0,1,1,2,2,3,3,4,4,5,5,6,6],"right_children":[2,4,6,8,10,12,14,-1,-1,-1,-1,-1,-1,-1,-1],"split_conditions":[1.1621E2,1.2945784E0,1.2345E2,1.0961E2,1.141E2,1.2796E2,1.2762E2,6.5768533E-3,-2.277654E-1,1.0196533E-2,2.6304808E-1,1.4202212E-1,-2.2461791E-1,-1.3111886E-1,2.33255E-2],"split_indices":[2,3,2,2,2,1,2,0,0,0,0,0,0,0,0],"split_type":[0,0,0,0,0,0,0,0,0,0,0,0,0,0,0],"sum_hessian":[1.25E2,4.8E1,7.7E1,4.1E1,7E0,2.3E1,5.4E1,3E1,1.1E1,5E0,2E0,2.1E1,2E0,1.3E1,4.1E1],"tree_param":{"num_deleted":"0","num_feature":"5","num_nodes":"15","size_leaf_vector":"1"}},{"base_weights":[-8.795965E-3,-6.2581944E-1,1.5788834E-1,6.8619154E-2,-2.2836885E0,-2.9992583E-1,2.3522201E-1,-4.5028687E-2,2.1881957E-1,-2.1047058E-2,-2.754745E-1,2.1537994E-1,6.07105E-3],"categories":[],"categories_nodes":[],"categories_segments":[],"categories_sizes":[],"default_left":[0,0,0,0,0,0,0,0,0,0,0,0,0],"id":75,"left_children":[1,3,5,7,9,-1,11,-1,-1,-1,-1,-1,-1],"loss_changes":[1.3057674E1,3.124149E1,3.1095835E1,3.521785E1,1.7841087E1,0E0,3.8552975E1,0E0,0E0,0E0,0E0,0E0,0E0],"parents":[2147483647,0,0,1,1,2,2,3,3,4,4,6,6],"right_children":[2,4,6,8,10,-1,12,-1,-1,-1,-1,-1,-1],"split_conditions":[1.093E2,1.0253E2,1.0493E2,9.62E1,1.1590371E-1,-2.9992583E-1,1.093E2,-4.5028687E-2,2.1881957E-1,-2.1047058E-2,-2.754745E-1,2.1537994E-1,6.07105E-3],"split_indices":[0,1,1,2,3,0,2,0,0,0,0,0,0],"split_type":[0,0,0,0,0,0,0,0,0,0,0,0,0],"sum_hessian":[1.25E2,2.6E1,9.9E1,1.9E1,7E0,1E0,9.8E1,1.6E1,3E0,3E0,4E0,5E0,9.3E1],"tree_param":{"num_deleted":"0","num_feature":"5","num_nodes":"13","size_leaf_vector":"1"}},{"base_weights":[-9.690421E-3,-1.2718179E0,6.4014435E-2,1.6493836E-1,-3.2424724E0,5.714681E-1,-1.03981435E-1,-1.2271179E-1,1.4470357E-1,-3.140698E-1,-7.5026855E-2,2.2571685E-2,3.584723E-1,1.0655495E-1,-1.9159814E-2],"categories":[],"categories_nodes":[],"categories_segments":[],"categories_sizes":[],"default_left":[0,0,0,0,0,0,0,0,0,0,0,0,0,0,0],"id":76,"left_children":[1,3,5,7,9,11,13,-1,-1,-1,-1,-1,-1,-1,-1],"loss_changes":[1.1802555E1,2.0354258E1,1.0289436E1,1.6737715E1,1.0431461E0,3.2668304E1,1.8026709E1,0E0,0E0,0E0,0E0,0E0,0E0,0E0,0E0],"parents":[2147483647,0,0,1,1,2,2,3,3,4,4,5,5,6,6],"right_children":[2,4,6,8,10,12,14,-1,-1,-1,-1,-1,-1,-1,-1],"split_conditions":[8.727E1,9.14E1,4.2295194E-1,8.171E1,9.263E1,4.1601217E-1,1.0943E2,-1.2271179E-1,1.4470357E-1,-3.140698E-1,-7.5026855E-2,2.2571685E-2,3.584723E-1,1.0655495E-1,-1.9159814E-2],"split_indices":[2,0,3,1,0,3,2,0,0,0,0,0,0,0,0],"split_type":[0,0,0,0,0,0,0,0,0,0,0,0,0,0,0],"sum_hessian":[1.25E2,6E0,1.19E2,4E0,2E0,2.9E1,9E1,2E0,2E0,1E0,1E0,2.8E1,1E0,7E0,8.3E1],"tree_param":{"num_deleted":"0","num_feature":"5","num_nodes":"15","size_leaf_vector":"1"}},{"base_weights":[-8.111318E-3,-1.453745E-1,6.8512726E-1,6.1991952E-2,-1.0981574E0,2.4853852E0,1.1533804E-1,-7.1156863E-3,2.6031417E-1,3.7579346E-2,-1.8249212E-1,6.9763586E-2,2.616211E-1,-2.0438924E-1,5.1335163E-2],"categories":[],"categories_nodes":[],"categories_segments":[],"categories_sizes":[],"default_left":[0,0,0,0,0,0,0,0,0,0,0,0,0,0,0],"id":77,"left_children":[1,3,5,7,9,11,13,-1,-1,-1,-1,-1,-1,-1,-1],"loss_changes":[1.2089273E1,2.101105E1,2.125446E1,4.2686455E1,3.631305E1,3.4795647E0,2.5532347E1,0E0,0E0,0E0,0E0,0E0,0E0,0E0,0E0],"parents":[2147483647,0,0,1,1,2,2,3,3,4,4,5,5,6,6],"right_children":[2,4,6,8,10,12,14,-1,-1,-1,-1,-1,-1,-1,-1],"split_conditions":[1.5237E2,1.2791E2,1.5199E2,1.2762E2,4.2295194E-1,1.5162E2,1.5445E2,-7.1156863E-3,2.6031417E-1,3.7579346E-2,-1.8249212E-1,6.9763586E-2,2.616211E-1,-2.0438924E-1,5.1335163E-2],"split_indices":[2,0,0,0,3,1,0,0,0,0,0,0,0,0,0],"split_type":[0,0,0,0,0,0,0,0,0,0,0,0,0,0,0],"sum_hessian":[1.25E2,1.05E2,2E1,8.7E1,1.8E1,4E0,1.6E1,8.4E1,3E0,8E0,1E1,2E0,2E0,2E0,1.4E1],"tree_param":{"num_deleted":"0","num_feature":"5","num_nodes":"15","size_leaf_vector":"1"}},{"base_weights":[-5.185748E-3,-3.9308572E-1,2.3856148E-1,-6.9493264E-1,1.2407465E0,2.764966E-1,1.0841018E-1,4.2690546E-3,-2.0560953E-1,1.0863851E-2,2.4296488E-1,6.52137E-2,-1.410123E-2],"categories":[],"categories_nodes":[],"categories_segments":[],"categories_sizes":[],"default_left":[0,0,0,0,0,0,0,0,0,0,0,0,0],"id":78,"left_children":[1,3,5,7,9,-1,11,-1,-1,-1,-1,-1,-1],"loss_changes":[1.2007018E1,2.502743E1,3.2290215E1,5.9071312E1,1.5466251E1,0E0,1.5434707E1,0E0,0E0,0E0,0E0,0E0,0E0],"parents":[2147483647,0,0,1,1,2,2,3,3,4,4,6,6],"right_children":[2,4,6,8,10,-1,12,-1,-1,-1,-1,-1,-1],"split_conditions":[1.1621E2,1.2945784E0,1.2018392E-1,1.0961E2,1.141E2,2.764966E-1,1.2345E2,4.2690546E-3,-2.0560953E-1,1.0863851E-2,2.4296488E-1,6.52137E-2,-1.410123E-2],"split_indices":[2,3,3,2,2,0,2,0,0,0,0,0,0],"split_type":[0,0,0,0,0,0,0,0,0,0,0,0,0],"sum_hessian":[1.25E2,4.8E1,7.7E1,4.1E1,7E0,2E0,7.5E1,3E1,1.1E1,5E0,2E0,2.1E1,5.4E1],"tree_param":{"num_deleted":"0","num_feature":"5","num_nodes":"13","size_leaf_vector":"1"}},{"base_weights":[-1.7560323E-3,-1.3537039E0,6.5297216E-2,8.8944244E-1,-2.6976376E0,1.9318717E-2,1.8673452E0,9.4825745E-2,1.1907348E-2,-8.6819254E-2,-3.0139312E-1,9.224476E-3,-1.7538013E-1,1.9166748E-1,3.241394E-2],"categories":[],"categories_nodes":[],"categories_segments":[],"categories_sizes":[],"default_left":[0,0,0,0,0,0,0,0,0,0,0,0,0,0,0],"id":79,"left_children":[1,3,5,7,9,11,13,-1,-1,-1,-1,-1,-1,-1,-1],"loss_changes":[1.1510607E1,2.0487232E1,9.989435E0,4.8095965E-1,2.8110657E0,2.55144E1,1.3475304E0,0E0,0E0,0E0,0E0,0E0,0E0,0E0,0E0],"parents":[2147483647,0,0,1,1,2,2,3,3,4,4,5,5,6,6],"right_children":[2,4,6,8,10,12,14,-1,-1,-1,-1,-1,-1,-1,-1],"split_conditions":[-9.5E-1,8.652E1,1.7189E2,8.031E1,9.028E1,1.6683E2,1.6683E2,9.4825745E-2,1.1907348E-2,-8.6819254E-2,-3.0139312E-1,9.224476E-3,-1.7538013E-1,1.9166748E-1,3.241394E-2],"split_indices":[4,1,2,0,0,2,0,0,0,0,0,0,0,0,0],"split_type":[0,0,0,0,0,0,0,0,0,0,0,0,0,0,0],"sum_hessian":[1.25E2,5E0,1.2E2,2E0,3E0,1.18E2,2E0,1E0,1E0,2E0,1E0,1.14E2,4E0,1E0,1E0],"tree_param":{"num_deleted":"0","num_feature":"5","num_nodes":"15","size_leaf_vector":"1"}},{"base_weights":[-3.3907208E-3,-1.3653298E-1,6.6882217E-1,1.2968425E-1,-8.1527275E-1,2.3567245E0,1.3303779E-1,-4.339073E-3,2.2312145E-1,1.07020386E-1,-9.583679E-2,6.6302694E-2,2.4792723E-1,-1.8830545E-1,4.9723186E-2],"categories":[],"categories_nodes":[],"categories_segments":[],"categories_sizes":[],"default_left":[0,0,0,0,0,0,0,0,0,0,0,0,0,0,0],"id":80,"left_children":[1,3,5,7,9,11,13,-1,-1,-1,-1,-1,-1,-1,-1],"loss_changes":[1.1368309E1,1.9259106E1,1.8677853E1,3.781288E1,2.6320654E1,3.1029835E0,2.2115173E1,0E0,0E0,0E0,0E0,0E0,0E0,0E0,0E0],"parents":[2147483647,0,0,1,1,2,2,3,3,4,4,5,5,6,6],"right_children":[2,4,6,8,10,12,14,-1,-1,-1,-1,-1,-1,-1,-1],"split_conditions":[1.5237E2,1.2422E2,1.5199E2,1.2361E2,1.2168E2,1.5162E2,1.5445E2,-4.339073E-3,2.2312145E-1,1.07020386E-1,-9.583679E-2,6.6302694E-2,2.4792723E-1,-1.8830545E-1,4.9723186E-2],"split_indices":[2,1,0,1,0,1,0,0,0,0,0,0,0,0,0],"split_type":[0,0,0,0,0,0,0,0,0,0,0,0,0,0,0],"sum_hessian":[1.25E2,1.05E2,2E1,7.6E1,2.9E1,4E0,1.6E1,7.2E1,4E0,4E0,2.5E1,2E0,2E0,2E0,1.4E1],"tree_param":{"num_deleted":"0","num_feature":"5","num_nodes":"15","size_leaf_vector":"1"}},{"base_weights":[1.010592E-4,-3.8914043E-1,2.2115053E-1,-1.9862002E-1,-2.4429809E-1,1.0441384E0,-1.4368893E-1,-4.1394487E-2,1.040567E-1,2.3279648E-1,1.2550286E-2,-1.0621977E-1,1.612523E-2],"categories":[],"categories_nodes":[],"categories_segments":[],"categories_sizes":[],"default_left":[0,0,0,0,0,0,0,0,0,0,0,0,0],"id":81,"left_children":[1,3,5,7,-1,9,11,-1,-1,-1,-1,-1,-1],"loss_changes":[1.0927304E1,2.2745735E1,2.447097E1,2.1705143E1,0E0,4.0930115E1,2.3569294E1,0E0,0E0,0E0,0E0,0E0,0E0],"parents":[2147483647,0,0,1,1,2,2,3,3,5,5,6,6],"right_children":[2,4,6,8,-1,10,12,-1,-1,-1,-1,-1,-1],"split_conditions":[1.1606E2,1.1564E2,1.231E2,-3.5E-1,-2.4429809E-1,1.1013896E0,1.2579E2,-4.1394487E-2,1.040567E-1,2.3279648E-1,1.2550286E-2,-1.0621977E-1,1.612523E-2],"split_indices":[0,0,0,4,0,3,0,0,0,0,0,0,0],"split_type":[0,0,0,0,0,0,0,0,0,0,0,0,0],"sum_hessian":[1.25E2,4.5E1,8E1,4.3E1,2E0,2.4E1,5.6E1,3.6E1,7E0,7E0,1.7E1,1.2E1,4.4E1],"tree_param":{"num_deleted":"0","num_feature":"5","num_nodes":"13","size_leaf_vector":"1"}},{"base_weights":[-1.1722625E-4,-1.1566347E0,6.734727E-2,1.7050782E-1,-2.982994E0,4.2929402E-1,-1.6344792E-1,-1.14067994E-1,1.3680236E-1,-2.8750792E-1,-7.045136E-2,5.4896686E-2,-9.094552E-2,-5.1964417E-2,3.681496E-2],"categories":[],"categories_nodes":[],"categories_segments":[],"categories_sizes":[],"default_left":[0,0,0,0,0,0,0,0,0,0,0,0,0,0,0],"id":82,"left_children":[1,3,5,7,9,11,13,-1,-1,-1,-1,-1,-1,-1,-1],"loss_changes":[9.908903E0,1.7475498E1,1.0094436E1,1.4726383E1,6.8780327E-1,1.9690886E1,2.2732275E1,0E0,0E0,0E0,0E0,0E0,0E0,0E0,0E0],"parents":[2147483647,0,0,1,1,2,2,3,3,4,4,5,5,6,6],"right_children":[2,4,6,8,10,12,14,-1,-1,-1,-1,-1,-1,-1,-1],"split_conditions":[8.727E1,9.14E1,8.9484227E-1,8.171E1,9.263E1,1.6429E2,1.2945784E0,-1.14067994E-1,1.3680236E-1,-2.8750792E-1,-7.045136E-2,5.4896686E-2,-9.094552E-2,-5.1964417E-2,3.681496E-2],"split_indices":[2,0,3,1,0,0,3,0,0,0,0,0,0,0,0],"split_type":[0,0,0,0,0,0,0,0,0,0,0,0,0,0,0],"sum_hessian":[1.25E2,6E0,1.19E2,4E0,2E0,4.6E1,7.3E1,2E0,2E0,1E0,1E0,4E1,6E0,4.1E1,3.2E1],"tree_param":{"num_deleted":"0","num_feature":"5","num_nodes":"15","size_leaf_vector":"1"}},{"base_weights":[-3.1743126E-3,-3.7607905E-1,2.0863794E-1,-1.9398533E-1,-2.9214275E0,9.826254E-1,-1.3449056E-1,-3.9397333E-2,9.685913E-2,-2.8133696E-1,-6.923431E-2,2.1693222E-1,1.2766282E-2,-5.6583684E-2,4.2252492E-2],"categories":[],"categories_nodes":[],"categories_segments":[],"categories_sizes":[],"default_left":[0,0,0,0,0,0,0,0,0,0,0,0,0,0,0],"id":83,"left_children":[1,3,5,7,9,11,13,-1,-1,-1,-1,-1,-1,-1,-1],"loss_changes":[1.0030675E1,2.0753918E1,2.1643906E1,1.9044748E1,6.282482E-1,3.5144043E1,2.200892E1,0E0,0E0,0E0,0E0,0E0,0E0,0E0,0E0],"parents":[2147483647,0,0,1,1,2,2,3,3,4,4,5,5,6,6],"right_children":[2,4,6,8,10,12,14,-1,-1,-1,-1,-1,-1,-1,-1],"split_conditions":[1.1606E2,1.1564E2,1.231E2,-3.5E-1,1.1599E2,1.1013896E0,1.3986E2,-3.9397333E-2,9.685913E-2,-2.8133696E-1,-6.923431E-2,2.1693222E-1,1.2766282E-2,-5.6583684E-2,4.2252492E-2],"split_indices":[0,0,0,4,0,3,1,0,0,0,0,0,0,0,0],"split_type":[0,0,0,0,0,0,0,0,0,0,0,0,0,0,0],"sum_hessian":[1.25E2,4.5E1,8E1,4.3E1,2E0,2.4E1,5.6E1,3.6E1,7E0,1E0,1E0,7E0,1.7E1,3E1,2.6E1],"tree_param":{"num_deleted":"0","num_feature":"5","num_nodes":"15","size_leaf_vector":"1"}},{"base_weights":[-3.536527E-3,-4.6373058E-2,1.768219E0,3.8922884E-2,-2.084201E0,1.8175536E-1,3.0430907E-2,-9.596644E-3,9.272692E-2,-2.0385742E-2,-1.9822723E-1],"categories":[],"categories_nodes":[],"categories_segments":[],"categories_sizes":[],"default_left":[0,0,0,0,0,0,0,0,0,0,0],"id":84,"left_children":[1,3,5,7,9,-1,-1,-1,-1,-1,-1],"loss_changes":[9.6448765E0,2.1634613E1,1.2330351E0,2.149576E1,2.9691696E0,0E0,0E0,0E0,0E0,0E0,0E0],"parents":[2147483647,0,0,1,1,2,2,3,3,4,4],"right_children":[2,4,6,8,10,-1,-1,-1,-1,-1,-1],"split_conditions":[1.7189E2,1.6683E2,1.6683E2,1.5237E2,1.5237E2,1.8175536E-1,3.0430907E-2,-9.596644E-3,9.272692E-2,-2.0385742E-2,-1.9822723E-1],"split_indices":[2,2,0,2,0,0,0,0,0,0,0],"split_type":[0,0,0,0,0,0,0,0,0,0,0],"sum_hessian":[1.25E2,1.23E2,2E0,1.19E2,4E0,1E0,1E0,1.05E2,1.4E1,1E0,3E0],"tree_param":{"num_deleted":"0","num_feature":"5","num_nodes":"11","size_leaf_vector":"1"}},{"base_weights":[-2.644009E-3,-1.2157046E0,5.7529606E-2,8.5312146E-1,-2.463398E0,5.133748E-1,-9.839052E-2,8.934997E-2,1.30245965E-2,-8.006389E-2,-2.7404785E-1,1.9604918E-2,3.4251097E-1,-1.2543221E-1,1.9028535E-3],"categories":[],"categories_nodes":[],"categories_segments":[],"categories_sizes":[],"default_left":[0,0,0,0,0,0,0,0,0,0,0,0,0,0,0],"id":85,"left_children":[1,3,5,7,9,11,13,-1,-1,-1,-1,-1,-1,-1,-1],"loss_changes":[9.267214E0,1.7589142E1,8.6506405E0,3.6438227E-1,2.20092E0,3.0292046E1,1.637538E1,0E0,0E0,0E0,0E0,0E0,0E0,0E0,0E0],"parents":[2147483647,0,0,1,1,2,2,3,3,4,4,5,5,6,6],"right_children":[2,4,6,8,10,12,14,-1,-1,-1,-1,-1,-1,-1,-1],"split_conditions":[-9.5E-1,8.652E1,4.2295194E-1,8.031E1,9.028E1,4.1601217E-1,1.0895E2,8.934997E-2,1.30245965E-2,-8.006389E-2,-2.7404785E-1,1.9604918E-2,3.4251097E-1,-1.2543221E-1,1.9028535E-3],"split_indices":[4,1,3,0,0,3,0,0,0,0,0,0,0,0,0],"split_type":[0,0,0,0,0,0,0,0,0,0,0,0,0,0,0],"sum_hessian":[1.25E2,5E0,1.2E2,2E0,3E0,3E1,9E1,1E0,1E0,2E0,1E0,2.9E1,1E0,6E0,8.4E1],"tree_param":{"num_deleted":"0","num_feature":"5","num_nodes":"15","size_leaf_vector":"1"}},{"base_weights":[-2.536592E-3,-1.614681E-1,4.5025426E-1,1.206046E-1,-1.5441103E0,1.6579132E0,-4.176197E-1,-1.102889E-3,1.6898754E-1,-1.6314475E-1,3.6105193E-2,5.9524026E-2,1.666354E-1,-2.731894E-1,-6.411197E-3],"categories":[],"categories_nodes":[],"categories_segments":[],"categories_sizes":[],"default_left":[0,0,0,0,0,0,0,0,0,0,0,0,0,0,0],"id":86,"left_children":[1,3,5,7,9,11,13,-1,-1,-1,-1,-1,-1,-1,-1],"loss_changes":[9.140006E0,3.6846756E1,3.527954E1,2.1175156E1,1.67305E1,3.8880463E0,1.9956541E1,0E0,0E0,0E0,0E0,0E0,0E0,0E0,0E0],"parents":[2147483647,0,0,1,1,2,2,3,3,4,4,5,5,6,6],"right_children":[2,4,6,8,10,12,14,-1,-1,-1,-1,-1,-1,-1,-1],"split_conditions":[1.2945784E0,1.183169E0,1.3551822E0,1.1619239E0,1.2075E2,1.1564E2,1.3579816E0,-1.102889E-3,1.6898754E-1,-1.6314475E-1,3.6105193E-2,5.9524026E-2,1.666354E-1,-2.731894E-1,-6.411197E-3],"split_indices":[3,3,3,3,2,0,3,0,0,0,0,0,0,0,0],"split_type":[0,0,0,0,0,0,0,0,0,0,0,0,0,0,0],"sum_hessian":[1.25E2,9.3E1,3.2E1,7.8E1,1.5E1,1.3E1,1.9E1,7.4E1,4E0,1.2E1,3E0,5E0,8E0,1E0,1.8E1],"tree_param":{"num_deleted":"0","num_feature":"5","num_nodes":"15","size_leaf_vector":"1"}},{"base_weights":[-2.4337163E-3,-4.3528218E-2,1.6969503E0,3.6763955E-2,-1.9618347E0,1.7445251E-1,2.9181518E-2,-8.647444E-3,8.463754E-2,-1.960266E-2,-1.8638213E-1],"categories":[],"categories_nodes":[],"categories_segments":[],"categories_sizes":[],"default_left":[0,0,0,0,0,0,0,0,0,0,0],"id":87,"left_children":[1,3,5,7,9,-1,-1,-1,-1,-1,-1],"loss_changes":[8.873117E0,1.9171225E1,1.1377172E0,1.7865805E1,2.5875454E0,0E0,0E0,0E0,0E0,0E0,0E0],"parents":[2147483647,0,0,1,1,2,2,3,3,4,4],"right_children":[2,4,6,8,10,-1,-1,-1,-1,-1,-1],"split_conditions":[1.7189E2,1.6683E2,1.6683E2,1.5237E2,1.5237E2,1.7445251E-1,2.9181518E-2,-8.647444E-3,8.463754E-2,-1.960266E-2,-1.8638213E-1],"split_indices":[2,2,0,2,0,0,0,0,0,0,0],"split_type":[0,0,0,0,0,0,0,0,0,0,0],"sum_hessian":[1.25E2,1.23E2,2E0,1.19E2,4E0,1E0,1E0,1.05E2,1.4E1,1E0,3E0],"tree_param":{"num_deleted":"0","num_feature":"5","num_nodes":"11","size_leaf_vector":"1"}},{"base_weights":[-1.6565474E-3,-1.1522789E0,5.5412795E-2,8.254979E-1,-2.3475418E0,1.0840476E-1,-1.1956818E0,8.616608E-2,1.2893677E-2,-7.527384E-2,-2.626959E-1,4.2387154E-2,-1.1491436E-2,-1.7729919E-1,1.15462035E-1],"categories":[],"categories_nodes":[],"categories_segments":[],"categories_sizes":[],"default_left":[0,0,0,0,0,0,0,0,0,0,0,0,0,0,0],"id":88,"left_children":[1,3,5,7,9,11,13,-1,-1,-1,-1,-1,-1,-1,-1],"loss_changes":[8.337674E0,1.612167E1,8.15167E0,3.277967E-1,2.177557E0,1.250404E1,1.6664692E1,0E0,0E0,0E0,0E0,0E0,0E0,0E0,0E0],"parents":[2147483647,0,0,1,1,2,2,3,3,4,4,5,5,6,6],"right_children":[2,4,6,8,10,12,14,-1,-1,-1,-1,-1,-1,-1,-1],"split_conditions":[-9.5E-1,8.652E1,1.6931E2,8.031E1,9.028E1,8.693471E-1,7.7381706E-1,8.616608E-2,1.2893677E-2,-7.527384E-2,-2.626959E-1,4.2387154E-2,-1.1491436E-2,-1.7729919E-1,1.15462035E-1],"split_indices":[4,1,0,0,0,3,3,0,0,0,0,0,0,0,0],"split_type":[0,0,0,0,0,0,0,0,0,0,0,0,0,0,0],"sum_hessian":[1.25E2,5E0,1.2E2,2E0,3E0,1.16E2,4E0,1E0,1E0,2E0,1E0,4.3E1,7.3E1,3E0,1E0],"tree_param":{"num_deleted":"0","num_feature":"5","num_nodes":"15","size_leaf_vector":"1"}},{"base_weights":[-3.667438E-3,-1.5662368E-1,4.3213722E-1,1.0031591E-1,-1.4154739E0,1.5601311E0,-3.7906533E-1,-2.0779215E-3,1.5796813E-1,7.027588E-2,-1.4447388E-1,5.6897987E-2,1.5621765E-1,-7.690267E-2,9.117259E-2],"categories":[],"categories_nodes":[],"categories_segments":[],"categories_sizes":[],"default_left":[0,0,0,0,0,0,0,0,0,0,0,0,0,0,0],"id":89,"left_children":[1,3,5,7,9,11,13,-1,-1,-1,-1,-1,-1,-1,-1],"loss_changes":[8.4667225E0,3.054615E1,3.078743E1,1.8750858E1,1.5916985E1,3.2769814E0,1.8780088E1,0E0,0E0,0E0,0E0,0E0,0E0,0E0,0E0],"parents":[2147483647,0,0,1,1,2,2,3,3,4,4,5,5,6,6],"right_children":[2,4,6,8,10,12,14,-1,-1,-1,-1,-1,-1,-1,-1],"split_conditions":[1.2945784E0,1.183169E0,1.3551822E0,1.1619239E0,1.0895E2,1.1564E2,1.2478E2,-2.0779215E-3,1.5796813E-1,7.027588E-2,-1.4447388E-1,5.6897987E-2,1.5621765E-1,-7.690267E-2,9.117259E-2],"split_indices":[3,3,3,3,2,0,0,0,0,0,0,0,0,0,0],"split_type":[0,0,0,0,0,0,0,0,0,0,0,0,0,0,0],"sum_hessian":[1.25E2,9.3E1,3.2E1,7.8E1,1.5E1,1.3E1,1.9E1,7.4E1,4E0,2E0,1.3E1,5E0,8E0,1.4E1,5E0],"tree_param":{"num_deleted":"0","num_feature":"5","num_nodes":"15","size_leaf_vector":"1"}},{"base_weights":[-9.229751E-4,-4.1988004E-2,1.6967392E0,-4.2736557E-1,1.6787127E-1,1.668875E-1,3.6721192E-2,-1.992561E-2,-2.2248372E-1,6.513132E-2,-1.992793E-2],"categories":[],"categories_nodes":[],"categories_segments":[],"categories_sizes":[],"default_left":[0,0,0,0,0,0,0,0,0,0,0],"id":90,"left_children":[1,3,5,7,9,-1,-1,-1,-1,-1,-1],"loss_changes":[8.855274E0,1.0100248E1,4.881935E-1,1.777195E1,2.2030321E1,0E0,0E0,0E0,0E0,0E0,0E0],"parents":[2147483647,0,0,1,1,2,2,3,3,4,4],"right_children":[2,4,6,8,10,-1,-1,-1,-1,-1,-1],"split_conditions":[3.5E-1,1.1606E2,1.1347E2,1.1564E2,1.2422E2,1.668875E-1,3.6721192E-2,-1.992561E-2,-2.2248372E-1,6.513132E-2,-1.992793E-2],"split_indices":[4,0,0,0,1,0,0,0,0,0,0],"split_type":[0,0,0,0,0,0,0,0,0,0,0],"sum_hessian":[1.25E2,1.23E2,2E0,4.3E1,8E1,1E0,1E0,4.1E1,2E0,3.1E1,4.9E1],"tree_param":{"num_deleted":"0","num_feature":"5","num_nodes":"11","size_leaf_vector":"1"}},{"base_weights":[-7.9757447E-4,-4.0329225E-2,1.6334432E0,3.3646394E-2,-1.8076782E0,1.6881408E-1,2.7199097E-2,-8.161379E-3,7.9207435E-2,-1.9633789E-2,-1.7095092E-1],"categories":[],"categories_nodes":[],"categories_segments":[],"categories_sizes":[],"default_left":[0,0,0,0,0,0,0,0,0,0,0],"id":91,"left_children":[1,3,5,7,9,-1,-1,-1,-1,-1,-1],"loss_changes":[8.206009E0,1.6272673E1,1.1324615E0,1.5671608E1,2.0470982E0,0E0,0E0,0E0,0E0,0E0,0E0],"parents":[2147483647,0,0,1,1,2,2,3,3,4,4],"right_children":[2,4,6,8,10,-1,-1,-1,-1,-1,-1],"split_conditions":[1.7189E2,1.6683E2,1.6683E2,1.5237E2,1.5237E2,1.6881408E-1,2.7199097E-2,-8.161379E-3,7.9207435E-2,-1.9633789E-2,-1.7095092E-1],"split_indices":[2,2,0,2,0,0,0,0,0,0,0],"split_type":[0,0,0,0,0,0,0,0,0,0,0],"sum_hessian":[1.25E2,1.23E2,2E0,1.19E2,4E0,1E0,1E0,1.05E2,1.4E1,1E0,3E0],"tree_param":{"num_deleted":"0","num_feature":"5","num_nodes":"11","size_leaf_vector":"1"}},{"base_weights":[-1.2534006E-4,-3.9667193E-2,1.634313E0,-3.9070562E-1,1.5151007E-1,1.6053863E-1,3.5578918E-2,-1.7731803E-2,-2.101827E-1,7.214731E-2,-1.4419255E-2],"categories":[],"categories_nodes":[],"categories_segments":[],"categories_sizes":[],"default_left":[0,0,0,0,0,0,0,0,0,0,0],"id":92,"left_children":[1,3,5,7,9,-1,-1,-1,-1,-1,-1],"loss_changes":[8.208047E0,8.380907E0,4.3659878E-1,1.605458E1,2.0325312E1,0E0,0E0,0E0,0E0,0E0,0E0],"parents":[2147483647,0,0,1,1,2,2,3,3,4,4],"right_children":[2,4,6,8,10,-1,-1,-1,-1,-1,-1],"split_conditions":[3.5E-1,1.1606E2,1.1347E2,1.1564E2,1.231E2,1.6053863E-1,3.5578918E-2,-1.7731803E-2,-2.101827E-1,7.214731E-2,-1.4419255E-2],"split_indices":[4,0,0,0,0,0,0,0,0,0,0],"split_type":[0,0,0,0,0,0,0,0,0,0,0],"sum_hessian":[1.25E2,1.23E2,2E0,4.3E1,8E1,1E0,1E0,4.1E1,2E0,2.4E1,5.6E1],"tree_param":{"num_deleted":"0","num_feature":"5","num_nodes":"11","size_leaf_vector":"1"}},