{"learner":{"attributes":{"scikit_learn":"{\"_estimator_type\": \"regressor\"}"},"feature_names":[],"feature_types":[],"gradient_booster":{"model":{"cats":{"enc":[],"feature_segments":[],"sorted_idx":[]},"gbtree_model_param":{"num_parallel_tree":"1","num_trees":"100"},"iteration_indptr":[0,1,2,3,4,5,6,7,8,9,10,11,12,13,14,15,16,17,18,19,20,21,22,23,24,25,26,27,28,29,30,31,32,33,34,35,36,37,38,39,40,41,42,43,44,45,46,47,48,49,50,51,52,53,54,55,56,57,58,59,60,61,62,63,64,65,66,67,68,69,70,71,72,73,74,75,76,77,78,79,80,81,82,83,84,85,86,87,88,89,90,91,92,93,94,95,96,97,98,99,100],"tree_info":[0,0,0,0,0,0,0,0,0,0,0,0,0,0,0,0,0,0,0,0,0,0,0,0,0,0,0,0,0,0,0,0,0,0,0,0,0,0,0,0,0,0,0,0,0,0,0,0,0,0,0,0,0,0,0,0,0,0,0,0,0,0,0,0,0,0,0,0,0,0,0,0,0,0,0,0,0,0,0,0,0,0,0,0,0,0,0,0,0,0,0,0,0,0,0,0,0,0,0,0],"trees":[{"base_weights":[-1.1920929E-7,2.0446343E0,-1.7186784E0,2.4279618E0,9.773175E-1,-2.2144835E0,-5.5880016E-1,4.5536E-2,1.9675316E-1,4.085759E-2,8.6527996E-2,-2.0633088E-1,-1.3938934E-1,-6.562001E-2,9.490269E-3],"categories":[],"categories_nodes":[],"categories_segments":[],"categories_sizes":[],"default_left":[0,0,0,0,0,0,0,0,0,0,0,0,0,0,0],"id":0,"left_children":[1,3,5,7,9,11,13,-1,-1,-1,-1,-1,-1,-1,-1],"loss_changes":[4.4628674E2,2.1356766E1,3.8442627E1,1.0555725E0,2.7479172E-1,3.769806E0,3.9938054E0,0E0,0E0,0E0,0E0,0E0,0E0,0E0,0E0],"parents":[2147483647,0,0,1,1,2,2,3,3,4,4,5,5,6,6],"right_children":[2,4,6,8,10,12,14,-1,-1,-1,-1,-1,-1,-1,-1],"split_conditions":[1.0369598E0,6.397578E-1,5.9E0,5.7E0,8.1E0,4.8E0,7.3E0,4.5536E-2,1.9675316E-1,4.085759E-2,8.6527996E-2,-2.0633088E-1,-1.3938934E-1,-6.562001E-2,9.490269E-3],"split_indices":[3,3,2,0,2,0,1,0,0,0,0,0,0,0,0],"split_type":[0,0,0,0,0,0,0,0,0,0,0,0,0,0,0],"sum_hessian":[1.25E2,5.7E1,6.8E1,4.1E1,1.6E1,4.7E1,2.1E1,1E0,4E1,4E0,1.2E1,2.4E1,2.3E1,1.5E1,6E0],"tree_param":{"num_deleted":"0","num_feature":"5","num_nodes":"15","size_leaf_vector":"1"}},{"base_weights":[-2.554239E-4,1.8874375E0,-1.587008E0,2.328392E0,1.0600394E0,-2.0292509E0,-4.7953653E-1,6.758696E-2,1.9112226E-1,4.745784E-2,9.906711E-2,-1.9048467E-1,-1.2770183E-1,-6.2472384E-2,7.244025E-4],"categories":[],"categories_nodes":[],"categories_segments":[],"categories_sizes":[],"default_left":[0,0,0,0,0,0,0,0,0,0,0,0,0,0,0],"id":1,"left_children":[1,3,5,7,9,11,13,-1,-1,-1,-1,-1,-1,-1,-1],"loss_changes":[3.8040338E2,1.869281E1,3.2821106E1,1.3100891E0,1.0965157E0,3.6631012E0,3.099237E0,0E0,0E0,0E0,0E0,0E0,0E0,0E0,0E0],"parents":[2147483647,0,0,1,1,2,2,3,3,4,4,5,5,6,6],"right_children":[2,4,6,8,10,12,14,-1,-1,-1,-1,-1,-1,-1,-1],"split_conditions":[1.0369598E0,4.4268727E-1,5.9E0,5.9E0,8.2E0,4.8E0,7.2E0,6.758696E-2,1.9112226E-1,4.745784E-2,9.906711E-2,-1.9048467E-1,-1.2770183E-1,-6.2472384E-2,7.244025E-4],"split_indices":[3,3,1,0,0,0,0,0,0,0,0,0,0,0,0],"split_type":[0,0,0,0,0,0,0,0,0,0,0,0,0,0,0],"sum_hessian":[1.25E2,5.7E1,6.8E1,3.6E1,2.1E1,4.8E1,2E1,2E0,3.4E1,7E0,1.4E1,2.4E1,2.4E1,1.2E1,8E0],"tree_param":{"num_deleted":"0","num_feature":"5","num_nodes":"15","size_leaf_vector":"1"}},{"base_weights":[-3.4186574E-5,1.7434294E0,-1.4655538E0,2.149113E0,9.8189646E-1,-1.8880945E0,-4.7703055E-1,6.398233E-2,1.7626935E-1,4.41358E-2,9.167009E-2,-1.7585546E-1,-1.1891234E-1,-6.814435E-2,-7.4988203E-3],"categories":[],"categories_nodes":[],"categories_segments":[],"categories_sizes":[],"default_left":[0,0,0,0,0,0,0,0,0,0,0,0,0,0,0],"id":2,"left_children":[1,3,5,7,9,11,13,-1,-1,-1,-1,-1,-1,-1,-1],"loss_changes":[3.2449515E2,1.5808395E1,2.7920029E1,9.4644165E-1,9.1978836E-1,2.7116547E0,3.0804358E0,0E0,0E0,0E0,0E0,0E0,0E0,0E0,0E0],"parents":[2147483647,0,0,1,1,2,2,3,3,4,4,5,5,6,6],"right_children":[2,4,6,8,10,12,14,-1,-1,-1,-1,-1,-1,-1,-1],"split_conditions":[1.0369598E0,4.4268727E-1,5.9E0,5.9E0,8.2E0,4.8E0,6.8E0,6.398233E-2,1.7626935E-1,4.41358E-2,9.167009E-2,-1.7585546E-1,-1.1891234E-1,-6.814435E-2,-7.4988203E-3],"split_indices":[3,3,2,0,0,0,2,0,0,0,0,0,0,0,0],"split_type":[0,0,0,0,0,0,0,0,0,0,0,0,0,0,0],"sum_hessian":[1.25E2,5.7E1,6.8E1,3.6E1,2.1E1,4.7E1,2.1E1,2E0,3.4E1,7E0,1.4E1,2.4E1,2.3E1,1E1,1.1E1],"tree_param":{"num_deleted":"0","num_feature":"5","num_nodes":"15","size_leaf_vector":"1"}},{"base_weights":[1.3330626E-5,1.6104387E0,-1.3536777E0,2.0992088E0,1.0492821E0,-1.7436992E0,-4.4119117E-1,7.491255E-2,1.7549817E-1,5.3551085E-2,1.0528869E-1,-1.5786386E-1,-1.0315204E-1,-5.2601535E-2,9.304024E-3],"categories":[],"categories_nodes":[],"categories_segments":[],"categories_sizes":[],"default_left":[0,0,0,0,0,0,0,0,0,0,0,0,0,0,0],"id":3,"left_children":[1,3,5,7,9,11,13,-1,-1,-1,-1,-1,-1,-1,-1],"loss_changes":[2.7686234E2,1.3705383E1,2.378704E1,1.2429657E0,2.0586166E0,2.4623413E0,2.729693E0,0E0,0E0,0E0,0E0,0E0,0E0,0E0,0E0],"parents":[2147483647,0,0,1,1,2,2,3,3,4,4,5,5,6,6],"right_children":[2,4,6,8,10,12,14,-1,-1,-1,-1,-1,-1,-1,-1],"split_conditions":[1.0369598E0,3.31356E-1,5.8E0,5.9E0,8.5E0,5E0,7.3E0,7.491255E-2,1.7549817E-1,5.3551085E-2,1.0528869E-1,-1.5786386E-1,-1.0315204E-1,-5.2601535E-2,9.304024E-3],"split_indices":[3,3,1,1,1,2,1,0,0,0,0,0,0,0,0],"split_type":[0,0,0,0,0,0,0,0,0,0,0,0,0,0,0],"sum_hessian":[1.25E2,5.7E1,6.8E1,2.9E1,2.8E1,4.7E1,2.1E1,3E0,2.6E1,1.3E1,1.5E1,2.9E1,1.8E1,1.5E1,6E0],"tree_param":{"num_deleted":"0","num_feature":"5","num_nodes":"15","size_leaf_vector":"1"}},{"base_weights":[8.4509735E-4,1.4886597E0,-1.249794E0,1.9396193E0,9.708168E-1,-1.6101831E0,-4.0668163E-1,7.041779E-2,1.6197833E-1,4.9572997E-2,9.739206E-2,-1.504009E-1,-1.0096167E-1,-5.8995206E-2,-5.5676964E-3],"categories":[],"categories_nodes":[],"categories_segments":[],"categories_sizes":[],"default_left":[0,0,0,0,0,0,0,0,0,0,0,0,0,0,0],"id":4,"left_children":[1,3,5,7,9,11,13,-1,-1,-1,-1,-1,-1,-1,-1],"loss_changes":[2.3631113E2,1.1661499E1,2.0310715E1,9.2274475E-1,1.7567043E0,2.1367035E0,2.4015424E0,0E0,0E0,0E0,0E0,0E0,0E0,0E0,0E0],"parents":[2147483647,0,0,1,1,2,2,3,3,4,4,5,5,6,6],"right_children":[2,4,6,8,10,12,14,-1,-1,-1,-1,-1,-1,-1,-1],"split_conditions":[1.0369598E0,3.31356E-1,5.9E0,5.9E0,8.5E0,4.8E0,6.8E0,7.041779E-2,1.6197833E-1,4.9572997E-2,9.739206E-2,-1.504009E-1,-1.0096167E-1,-5.8995206E-2,-5.5676964E-3],"split_indices":[3,3,2,1,1,0,2,0,0,0,0,0,0,0,0],"split_type":[0,0,0,0,0,0,0,0,0,0,0,0,0,0,0],"sum_hessian":[1.25E2,5.7E1,6.8E1,2.9E1,2.8E1,4.7E1,2.1E1,3E0,2.6E1,1.3E1,1.5E1,2.4E1,2.3E1,1E1,1.1E1],"tree_param":{"num_deleted":"0","num_feature":"5","num_nodes":"15","size_leaf_vector":"1"}},{"base_weights":[1.2809985E-3,1.3761077E0,-1.154389E0,1.7921964E0,8.982192E-1,-1.4869374E0,-3.7635672E-1,5.281897E-2,1.4795765E-1,8.628027E-2,4.0413048E-2,-1.3481575E-1,-8.765088E-2,-4.5357656E-2,9.047808E-3],"categories":[],"categories_nodes":[],"categories_segments":[],"categories_sizes":[],"default_left":[0,0,0,0,0,0,0,0,0,0,0,0,0,0,0],"id":5,"left_children":[1,3,5,7,9,11,13,-1,-1,-1,-1,-1,-1,-1,-1],"loss_changes":[2.0178314E2,9.923164E0,1.7292984E1,7.2387695E-1,1.51017E0,1.8774414E0,2.1166532E0,0E0,0E0,0E0,0E0,0E0,0E0,0E0,0E0],"parents":[2147483647,0,0,1,1,2,2,3,3,4,4,5,5,6,6],"right_children":[2,4,6,8,10,12,14,-1,-1,-1,-1,-1,-1,-1,-1],"split_conditions":[1.0369598E0,3.31356E-1,5.8E0,5.9E0,7.7381706E-1,5E0,7.3E0,5.281897E-2,1.4795765E-1,8.628027E-2,4.0413048E-2,-1.3481575E-1,-8.765088E-2,-4.5357656E-2,9.047808E-3],"split_indices":[3,3,1,0,3,2,1,0,0,0,0,0,0,0,0],"split_type":[0,0,0,0,0,0,0,0,0,0,0,0,0,0,0],"sum_hessian":[1.25E2,5.7E1,6.8E1,2.9E1,2.8E1,4.7E1,2.1E1,2E0,2.7E1,1.8E1,1E1,2.9E1,1.8E1,1.5E1,6E0],"tree_param":{"num_deleted":"0","num_feature":"5","num_nodes":"15","size_leaf_vector":"1"}},{"base_weights":[1.7236433E-3,1.2716651E0,-1.0657884E0,1.5585369E0,6.920082E-1,-1.3111917E0,-1.7094049E-1,3.0525817E-2,1.2640272E-1,3.099872E-2,6.532743E-2,-1.24390006E-1,-7.730589E-2,-2.7779546E-2,8.427375E-3],"categories":[],"categories_nodes":[],"categories_segments":[],"categories_sizes":[],"default_left":[0,0,0,0,0,0,0,0,0,0,0,0,0,0,0],"id":6,"left_children":[1,3,5,7,9,11,13,-1,-1,-1,-1,-1,-1,-1,-1],"loss_changes":[1.721707E2,8.566139E0,1.4928177E1,3.5855865E-1,4.803028E-1,3.0355606E0,8.1593454E-1,0E0,0E0,0E0,0E0,0E0,0E0,0E0,0E0],"parents":[2147483647,0,0,1,1,2,2,3,3,4,4,5,5,6,6],"right_children":[2,4,6,8,10,12,14,-1,-1,-1,-1,-1,-1,-1,-1],"split_conditions":[1.0369598E0,4.6315628E-1,6.3E0,5.7E0,8.2E0,5E0,7.3E0,3.0525817E-2,1.2640272E-1,3.099872E-2,6.532743E-2,-1.24390006E-1,-7.730589E-2,-2.7779546E-2,8.427375E-3],"split_indices":[3,3,1,0,0,2,1,0,0,0,0,0,0,0,0],"split_type":[0,0,0,0,0,0,0,0,0,0,0,0,0,0,0],"sum_hessian":[1.25E2,5.7E1,6.8E1,3.7E1,2E1,5.3E1,1.5E1,1E0,3.6E1,7E0,1.3E1,2.9E1,2.4E1,9E0,6E0],"tree_param":{"num_deleted":"0","num_feature":"5","num_nodes":"15","size_leaf_vector":"1"}},{"base_weights":[1.84132E-3,1.1742982E0,-9.837288E-1,1.5365195E0,7.590934E-1,-1.2690239E0,-3.165519E-1,6.296205E-2,1.2972449E-1,3.8622282E-2,7.627405E-2,-1.2315876E-1,-8.1668496E-2,-4.6916842E-2,-3.4205054E-3],"categories":[],"categories_nodes":[],"categories_segments":[],"categories_sizes":[],"default_left":[0,0,0,0,0,0,0,0,0,0,0,0,0,0,0],"id":7,"left_children":[1,3,5,7,9,11,13,-1,-1,-1,-1,-1,-1,-1,-1],"loss_changes":[1.4675305E2,7.55661E0,1.2731903E1,6.358261E-1,1.0969162E0,1.6501465E0,1.6007202E0,0E0,0E0,0E0,0E0,0E0,0E0,0E0,0E0],"parents":[2147483647,0,0,1,1,2,2,3,3,4,4,5,5,6,6],"right_children":[2,4,6,8,10,12,14,-1,-1,-1,-1,-1,-1,-1,-1],"split_conditions":[1.0369598E0,3.31356E-1,5.9E0,6.2E0,8.5E0,4.6E0,6.8E0,6.296205E-2,1.2972449E-1,3.8622282E-2,7.627405E-2,-1.2315876E-1,-8.1668496E-2,-4.6916842E-2,-3.4205054E-3],"split_indices":[3,3,2,0,1,0,2,0,0,0,0,0,0,0,0],"split_type":[0,0,0,0,0,0,0,0,0,0,0,0,0,0,0],"sum_hessian":[1.25E2,5.7E1,6.8E1,2.9E1,2.8E1,4.7E1,2.1E1,4E0,2.5E1,1.3E1,1.5E1,2E1,2.7E1,1E1,1.1E1],"tree_param":{"num_deleted":"0","num_feature":"5","num_nodes":"15","size_leaf_vector":"1"}},{"base_weights":[2.1100328E-3,1.0856575E0,-9.0872854E-1,1.4593534E0,7.3642474E-1,-1.1183698E0,-1.4439392E-1,5.893247E-2,1.2424092E-1,3.575319E-2,7.287908E-2,-1.0525309E-1,-6.3619934E-2,-2.414126E-2,8.084052E-3],"categories":[],"categories_nodes":[],"categories_segments":[],"categories_sizes":[],"default_left":[0,0,0,0,0,0,0,0,0,0,0,0,0,0,0],"id":8,"left_children":[1,3,5,7,9,11,13,-1,-1,-1,-1,-1,-1,-1,-1],"loss_changes":[1.2534061E2,6.49469E0,1.089481E1,6.834984E-1,1.2100811E0,2.396202E0,6.485106E-1,0E0,0E0,0E0,0E0,0E0,0E0,0E0,0E0],"parents":[2147483647,0,0,1,1,2,2,3,3,4,4,5,5,6,6],"right_children":[2,4,6,8,10,12,14,-1,-1,-1,-1,-1,-1,-1,-1],"split_conditions":[1.0369598E0,1.1590371E-1,6.3E0,6.2E0,8.5E0,5E0,7.3E0,5.893247E-2,1.2424092E-1,3.575319E-2,7.287908E-2,-1.0525309E-1,-6.3619934E-2,-2.414126E-2,8.084052E-3],"split_indices":[3,3,1,0,1,0,1,0,0,0,0,0,0,0,0],"split_type":[0,0,0,0,0,0,0,0,0,0,0,0,0,0,0],"sum_hessian":[1.25E2,5.7E1,6.8E1,2.6E1,3.1E1,5.3E1,1.5E1,4E0,2.2E1,1.3E1,1.8E1,3.1E1,2.2E1,9E0,6E0],"tree_param":{"num_deleted":"0","num_feature":"5","num_nodes":"15","size_leaf_vector":"1"}},{"base_weights":[2.789507E-3,1.003836E0,-8.387103E-1,1.3259705E0,6.589781E-1,-1.0915514E0,-2.855694E-1,4.8140526E-2,1.1091114E-1,6.2290672E-2,2.7344326E-2,-1.07683524E-1,-7.097401E-2,-3.958147E-2,-9.898689E-4],"categories":[],"categories_nodes":[],"categories_segments":[],"categories_sizes":[],"default_left":[0,0,0,0,0,0,0,0,0,0,0,0,0,0,0],"id":9,"left_children":[1,3,5,7,9,11,13,-1,-1,-1,-1,-1,-1,-1,-1],"loss_changes":[1.06981865E2,5.5694733E0,9.338402E0,4.3465805E-1,8.724079E-1,1.2503967E0,1.3083818E0,0E0,0E0,0E0,0E0,0E0,0E0,0E0,0E0],"parents":[2147483647,0,0,1,1,2,2,3,3,4,4,5,5,6,6],"right_children":[2,4,6,8,10,12,14,-1,-1,-1,-1,-1,-1,-1,-1],"split_conditions":[1.0369598E0,2.0814936E-1,5.7E0,5.9E0,7.7485853E-1,4.6E0,6.8E0,4.8140526E-2,1.1091114E-1,6.2290672E-2,2.7344326E-2,-1.07683524E-1,-7.097401E-2,-3.958147E-2,-9.898689E-4],"split_indices":[3,3,0,1,3,2,1,0,0,0,0,0,0,0,0],"split_type":[0,0,0,0,0,0,0,0,0,0,0,0,0,0,0],"sum_hessian":[1.25E2,5.7E1,6.8E1,2.8E1,2.9E1,4.6E1,2.2E1,3E0,2.5E1,2E1,9E0,1.8E1,2.8E1,1.2E1,1E1],"tree_param":{"num_deleted":"0","num_feature":"5","num_nodes":"15","size_leaf_vector":"1"}},{"base_weights":[2.8000767E-3,9.2781675E-1,-7.7479076E-1,1.2495605E0,6.273512E-1,-1.05079E0,-3.3312088E-1,5.1075485E-2,1.0624666E-1,3.0267175E-2,6.222519E-2,-9.952223E-2,-6.832215E-2,-4.2228784E-2,-2.3584524E-3],"categories":[],"categories_nodes":[],"categories_segments":[],"categories_sizes":[],"default_left":[0,0,0,0,0,0,0,0,0,0,0,0,0,0,0],"id":10,"left_children":[1,3,5,7,9,11,13,-1,-1,-1,-1,-1,-1,-1,-1],"loss_changes":[9.134872E1,4.8231125E0,8.061096E0,4.4773102E-1,9.046726E-1,5.344925E-1,1.6400945E0,0E0,0E0,0E0,0E0,0E0,0E0,0E0,0E0],"parents":[2147483647,0,0,1,1,2,2,3,3,4,4,5,5,6,6],"right_children":[2,4,6,8,10,12,14,-1,-1,-1,-1,-1,-1,-1,-1],"split_conditions":[1.0369598E0,1.1590371E-1,5.4E0,6.2E0,8.5E0,4.6E0,6.8E0,5.1075485E-2,1.0624666E-1,3.0267175E-2,6.222519E-2,-9.952223E-2,-6.832215E-2,-4.2228784E-2,-2.3584524E-3],"split_indices":[3,3,0,0,1,2,2,0,0,0,0,0,0,0,0],"split_type":[0,0,0,0,0,0,0,0,0,0,0,0,0,0,0],"sum_hessian":[1.25E2,5.7E1,6.8E1,2.6E1,3.1E1,4.1E1,2.7E1,4E0,2.2E1,1.3E1,1.8E1,1.8E1,2.3E1,1.6E1,1.1E1],"tree_param":{"num_deleted":"0","num_feature":"5","num_nodes":"15","size_leaf_vector":"1"}},{"base_weights":[2.8726545E-3,8.5789835E-1,-7.1588624E-1,1.1554221E0,5.800534E-1,-8.8254225E-1,-1.08679414E-1,4.7806647E-2,9.811645E-2,3.6398187E-2,7.187274E-2,-8.7624185E-2,-5.4065928E-2,-1.9342499E-2,7.7593336E-3],"categories":[],"categories_nodes":[],"categories_segments":[],"categories_sizes":[],"default_left":[0,0,0,0,0,0,0,0,0,0,0,0,0,0,0],"id":11,"left_children":[1,3,5,7,9,11,13,-1,-1,-1,-1,-1,-1,-1,-1],"loss_changes":[7.8048386E1,4.1243896E0,6.8865166E0,3.3697128E-1,8.654423E-1,1.6347618E0,4.614539E-1,0E0,0E0,0E0,0E0,0E0,0E0,0E0,0E0],"parents":[2147483647,0,0,1,1,2,2,3,3,4,4,5,5,6,6],"right_children":[2,4,6,8,10,12,14,-1,-1,-1,-1,-1,-1,-1,-1],"split_conditions":[1.0369598E0,1.1590371E-1,6.3E0,6.2E0,9.3E0,4.8E0,7.3E0,4.7806647E-2,9.811645E-2,3.6398187E-2,7.187274E-2,-8.7624185E-2,-5.4065928E-2,-1.9342499E-2,7.7593336E-3],"split_indices":[3,3,1,0,2,0,1,0,0,0,0,0,0,0,0],"split_type":[0,0,0,0,0,0,0,0,0,0,0,0,0,0,0],"sum_hessian":[1.25E2,5.7E1,6.8E1,2.6E1,3.1E1,5.3E1,1.5E1,4E0,2.2E1,2.4E1,7E0,2.4E1,2.9E1,9E0,6E0],"tree_param":{"num_deleted":"0","num_feature":"5","num_nodes":"15","size_leaf_vector":"1"}},{"base_weights":[3.443595E-3,8.1974256E-1,-6.404463E-1,1.0904098E0,5.826668E-1,-8.150023E-1,-8.119795E-2,4.4747017E-2,9.319449E-2,3.608632E-2,6.6164166E-2,-8.3810106E-2,-5.178817E-2,-1.7760016E-2,6.74168E-3],"categories":[],"categories_nodes":[],"categories_segments":[],"categories_sizes":[],"default_left":[0,0,0,0,0,0,0,0,0,0,0,0,0,0,0],"id":12,"left_children":[1,3,5,7,9,11,13,-1,-1,-1,-1,-1,-1,-1,-1],"loss_changes":[6.675144E1,2.9580956E0,6.864853E0,3.3781433E-1,6.559944E-1,1.4277878E0,4.3807942E-1,0E0,0E0,0E0,0E0,0E0,0E0,0E0,0E0],"parents":[2147483647,0,0,1,1,2,2,3,3,4,4,5,5,6,6],"right_children":[2,4,6,8,10,12,14,-1,-1,-1,-1,-1,-1,-1,-1],"split_conditions":[9.960318E-1,5.3728193E-2,6.5E0,6.2E0,9.3E0,4.6E0,7.3E0,4.4747017E-2,9.319449E-2,3.608632E-2,6.6164166E-2,-8.3810106E-2,-5.178817E-2,-1.7760016E-2,6.74168E-3],"split_indices":[3,3,2,0,2,0,1,0,0,0,0,0,0,0,0],"split_type":[0,0,0,0,0,0,0,0,0,0,0,0,0,0,0],"sum_hessian":[1.25E2,5.5E1,7E1,2.4E1,3.1E1,5.3E1,1.7E1,4E0,2E1,2.2E1,9E0,2E1,3.3E1,9E0,8E0],"tree_param":{"num_deleted":"0","num_feature":"5","num_nodes":"15","size_leaf_vector":"1"}},{"base_weights":[3.9107706E-3,7.584521E-1,-5.912755E-1,1.0086943E0,5.392488E-1,-8.329646E-1,-2.3320164E-1,1.6758231E-2,8.266133E-2,3.332493E-2,6.1400354E-2,-7.898658E-2,-5.4083996E-2,-3.237318E-2,-6.6713605E-4],"categories":[],"categories_nodes":[],"categories_segments":[],"categories_sizes":[],"default_left":[0,0,0,0,0,0,0,0,0,0,0,0,0,0,0],"id":13,"left_children":[1,3,5,7,9,11,13,-1,-1,-1,-1,-1,-1,-1,-1],"loss_changes":[5.703413E1,2.5278816E0,5.9502716E0,2.7452087E-1,5.76416E-1,3.4986305E-1,1.1532937E0,0E0,0E0,0E0,0E0,0E0,0E0,0E0,0E0],"parents":[2147483647,0,0,1,1,2,2,3,3,4,4,5,5,6,6],"right_children":[2,4,6,8,10,12,14,-1,-1,-1,-1,-1,-1,-1,-1],"split_conditions":[9.960318E-1,5.3728193E-2,5.4E0,5.7E0,9.3E0,4.6E0,6.8E0,1.6758231E-2,8.266133E-2,3.332493E-2,6.1400354E-2,-7.898658E-2,-5.4083996E-2,-3.237318E-2,-6.6713605E-4],"split_indices":[3,3,0,0,2,2,2,0,0,0,0,0,0,0,0],"split_type":[0,0,0,0,0,0,0,0,0,0,0,0,0,0,0],"sum_hessian":[1.25E2,5.5E1,7E1,2.4E1,3.1E1,4.1E1,2.9E1,1E0,2.3E1,2.2E1,9E0,1.8E1,2.3E1,1.6E1,1.3E1],"tree_param":{"num_deleted":"0","num_feature":"5","num_nodes":"15","size_leaf_vector":"1"}},{"base_weights":[3.8203115E-3,7.0124274E-1,-5.4631317E-1,9.3197525E-1,4.9906915E-1,-7.32119E-1,-1.5193836E-1,3.764732E-2,7.97959E-2,3.0774858E-2,5.6979526E-2,-7.300022E-2,-4.747776E-2,-2.178182E-2,6.309721E-3],"categories":[],"categories_nodes":[],"categories_segments":[],"categories_sizes":[],"default_left":[0,0,0,0,0,0,0,0,0,0,0,0,0,0,0],"id":14,"left_children":[1,3,5,7,9,11,13,-1,-1,-1,-1,-1,-1,-1,-1],"loss_changes":[4.8726204E1,2.1471672E0,5.091442E0,2.858219E-1,5.0628805E-1,6.589184E-1,6.880594E-1,0E0,0E0,0E0,0E0,0E0,0E0,0E0,0E0],"parents":[2147483647,0,0,1,1,2,2,3,3,4,4,5,5,6,6],"right_children":[2,4,6,8,10,12,14,-1,-1,-1,-1,-1,-1,-1,-1],"split_conditions":[9.960318E-1,5.3728193E-2,5.8E0,6.2E0,9.3E0,4.6E0,7.3E0,3.764732E-2,7.97959E-2,3.0774858E-2,5.6979526E-2,-7.300022E-2,-4.747776E-2,-2.178182E-2,6.309721E-3],"split_indices":[3,3,1,0,2,2,1,0,0,0,0,0,0,0,0],"split_type":[0,0,0,0,0,0,0,0,0,0,0,0,0,0,0],"sum_hessian":[1.25E2,5.5E1,7E1,2.4E1,3.1E1,4.7E1,2.3E1,4E0,2E1,2.2E1,9E0,1.8E1,2.9E1,1.5E1,8E0],"tree_param":{"num_deleted":"0","num_feature":"5","num_nodes":"15","size_leaf_vector":"1"}},{"base_weights":[4.064312E-3,6.488076E-1,-5.045228E-1,8.62115E-1,4.6188587E-1,-7.3828226E-1,-2.2842336E-1,3.0733889E-2,7.278611E-2,2.8419895E-2,5.287702E-2,-4.946683E-2,-7.047828E-2,-2.9397147E-2,-2.836745E-4],"categories":[],"categories_nodes":[],"categories_segments":[],"categories_sizes":[],"default_left":[0,0,0,0,0,0,0,0,0,0,0,0,0,0,0],"id":15,"left_children":[1,3,5,7,9,11,13,-1,-1,-1,-1,-1,-1,-1,-1],"loss_changes":[4.164376E1,1.8346195E0,4.413761E0,2.2055054E-1,4.445219E-1,1.0566902E-1,1.0617809E0,0E0,0E0,0E0,0E0,0E0,0E0,0E0,0E0],"parents":[2147483647,0,0,1,1,2,2,3,3,4,4,5,5,6,6],"right_children":[2,4,6,8,10,12,14,-1,-1,-1,-1,-1,-1,-1,-1],"split_conditions":[9.960318E-1,5.3728193E-2,5.2E0,5.9E0,9.3E0,1.3145425E0,6.8E0,3.0733889E-2,7.278611E-2,2.8419895E-2,5.287702E-2,-4.946683E-2,-7.047828E-2,-2.9397147E-2,-2.836745E-4],"split_indices":[3,3,2,1,2,3,2,0,0,0,0,0,0,0,0],"split_type":[0,0,0,0,0,0,0,0,0,0,0,0,0,0,0],"sum_hessian":[1.25E2,5.5E1,7E1,2.4E1,3.1E1,3.7E1,3.3E1,3E0,2.1E1,2.2E1,9E0,2.3E1,1.4E1,2E1,1.3E1],"tree_param":{"num_deleted":"0","num_feature":"5","num_nodes":"15","size_leaf_vector":"1"}},{"base_weights":[4.018358E-3,6.002031E-1,-4.6626848E-1,7.0041615E-1,2.7959314E-1,-6.5882885E-1,-1.8114166E-1,6.816988E-2,4.59427E-2,1.3768768E-3,2.3768429E-2,-6.58071E-2,-4.4564325E-2,-2.2166861E-2,5.8812206E-3],"categories":[],"categories_nodes":[],"categories_segments":[],"categories_sizes":[],"default_left":[0,0,0,0,0,0,0,0,0,0,0,0,0,0,0],"id":16,"left_children":[1,3,5,7,9,11,13,-1,-1,-1,-1,-1,-1,-1,-1],"loss_changes":[3.5607464E1,1.6034088E0,3.7788525E0,3.143177E-1,6.381011E-2,2.4176979E-1,7.5335497E-1,0E0,0E0,0E0,0E0,0E0,0E0,0E0,0E0],"parents":[2147483647,0,0,1,1,2,2,3,3,4,4,5,5,6,6],"right_children":[2,4,6,8,10,12,14,-1,-1,-1,-1,-1,-1,-1,-1],"split_conditions":[9.960318E-1,6.397578E-1,5.4E0,-2.6059052E-1,7.8E0,4.3E0,7.3E0,6.816988E-2,4.59427E-2,1.3768768E-3,2.3768429E-2,-6.58071E-2,-4.4564325E-2,-2.2166861E-2,5.8812206E-3],"split_indices":[3,3,0,3,1,0,1,0,0,0,0,0,0,0,0],"split_type":[0,0,0,0,0,0,0,0,0,0,0,0,0,0,0],"sum_hessian":[1.25E2,5.5E1,7E1,4.1E1,1.4E1,4.1E1,2.9E1,1.6E1,2.5E1,1E0,1.3E1,1.3E1,2.8E1,2.1E1,8E0],"tree_param":{"num_deleted":"0","num_feature":"5","num_nodes":"15","size_leaf_vector":"1"}},{"base_weights":[3.7969123E-3,5.546738E-1,-4.3075103E-1,7.389563E-1,3.9336956E-1,-5.51767E-1,-4.377251E-2,2.859085E-2,6.356944E-2,2.3887219E-2,4.5762E-2,-5.344039E-2,-3.1216864E-2,-8.873307E-3,1.2238776E-2],"categories":[],"categories_nodes":[],"categories_segments":[],"categories_sizes":[],"default_left":[0,0,0,0,0,0,0,0,0,0,0,0,0,0,0],"id":17,"left_children":[1,3,5,7,9,11,13,-1,-1,-1,-1,-1,-1,-1,-1],"loss_changes":[3.0401112E1,1.3739471E0,3.3008194E0,2.469883E-1,3.7104988E-1,7.533989E-1,2.5476712E-1,0E0,0E0,0E0,0E0,0E0,0E0,0E0,0E0],"parents":[2147483647,0,0,1,1,2,2,3,3,4,4,5,5,6,6],"right_children":[2,4,6,8,10,12,14,-1,-1,-1,-1,-1,-1,-1,-1],"split_conditions":[9.960318E-1,5.3728193E-2,6.3E0,6.2E0,9.3E0,5E0,7.7E0,2.859085E-2,6.356944E-2,2.3887219E-2,4.5762E-2,-5.344039E-2,-3.1216864E-2,-8.873307E-3,1.2238776E-2],"split_indices":[3,3,1,0,2,2,2,0,0,0,0,0,0,0,0],"split_type":[0,0,0,0,0,0,0,0,0,0,0,0,0,0,0],"sum_hessian":[1.25E2,5.5E1,7E1,2.4E1,3.1E1,5.3E1,1.7E1,4E0,2E1,2.2E1,9E0,2.9E1,2.4E1,1.3E1,4E0],"tree_param":{"num_deleted":"0","num_feature":"5","num_nodes":"15","size_leaf_vector":"1"}},{"base_weights":[4.132333E-3,5.131895E-1,-3.9743572E-1,5.9558177E-1,2.23471E-1,-5.0517344E-1,-2.5493845E-2,5.874454E-2,3.889423E-2,3.663063E-4,1.919653E-2,-4.8709087E-2,-2.7669685E-2,-6.3803205E-3,1.3663216E-2],"categories":[],"categories_nodes":[],"categories_segments":[],"categories_sizes":[],"default_left":[0,0,0,0,0,0,0,0,0,0,0,0,0,0,0],"id":18,"left_children":[1,3,5,7,9,11,13,-1,-1,-1,-1,-1,-1,-1,-1],"loss_changes":[2.5961018E1,1.2036572E0,2.8322458E0,2.9561043E-1,4.942131E-2,6.9790745E-1,1.9467808E-1,0E0,0E0,0E0,0E0,0E0,0E0,0E0,0E0],"parents":[2147483647,0,0,1,1,2,2,3,3,4,4,5,5,6,6],"right_children":[2,4,6,8,10,12,14,-1,-1,-1,-1,-1,-1,-1,-1],"split_conditions":[9.960318E-1,6.567744E-1,6.7E0,-2.6059052E-1,7.8E0,5E0,7.6E0,5.874454E-2,3.889423E-2,3.663063E-4,1.919653E-2,-4.8709087E-2,-2.7669685E-2,-6.3803205E-3,1.3663216E-2],"split_indices":[3,3,2,3,1,0,0,0,0,0,0,0,0,0,0],"split_type":[0,0,0,0,0,0,0,0,0,0,0,0,0,0,0],"sum_hessian":[1.25E2,5.5E1,7E1,4.2E1,1.3E1,5.4E1,1.6E1,1.6E1,2.6E1,1E0,1.2E1,3.1E1,2.3E1,1.3E1,3E0],"tree_param":{"num_deleted":"0","num_feature":"5","num_nodes":"15","size_leaf_vector":"1"}},{"base_weights":[4.1835024E-3,4.7422707E-1,-3.66614E-1,6.3348377E-1,3.3498818E-1,-5.4025674E-1,-1.6175997E-1,2.5755893E-2,5.562161E-2,2.0039242E-2,3.9666716E-2,-3.5294853E-2,-5.302026E-2,-1.9774698E-2,3.1459634E-3],"categories":[],"categories_nodes":[],"categories_segments":[],"categories_sizes":[],"default_left":[0,0,0,0,0,0,0,0,0,0,0,0,0,0,0],"id":19,"left_children":[1,3,5,7,9,11,13,-1,-1,-1,-1,-1,-1,-1,-1],"loss_changes":[2.2134521E1,1.0295753E0,2.438178E0,2.573738E-1,3.1071353E-1,1.6876507E-1,5.937517E-1,0E0,0E0,0E0,0E0,0E0,0E0,0E0,0E0],"parents":[2147483647,0,0,1,1,2,2,3,3,4,4,5,5,6,6],"right_children":[2,4,6,8,10,12,14,-1,-1,-1,-1,-1,-1,-1,-1],"split_conditions":[9.960318E-1,5.3728193E-2,5.2E0,6.6E0,9.3E0,1.3145425E0,7.2E0,2.5755893E-2,5.562161E-2,2.0039242E-2,3.9666716E-2,-3.5294853E-2,-5.302026E-2,-1.9774698E-2,3.1459634E-3],"split_indices":[3,3,2,0,2,3,0,0,0,0,0,0,0,0,0],"split_type":[0,0,0,0,0,0,0,0,0,0,0,0,0,0,0],"sum_hessian":[1.25E2,5.5E1,7E1,2.4E1,3.1E1,3.7E1,3.3E1,5E0,1.9E1,2.2E1,9E0,2.3E1,1.4E1,2.3E1,1E1],"tree_param":{"num_deleted":"0","num_feature":"5","num_nodes":"15","size_leaf_vector":"1"}},{"base_weights":[4.1357693E-3,4.3880835E-1,-3.3876285E-1,5.101374E-1,1.8838297E-1,-4.3571362E-1,-2.9090378E-2,5.069565E-2,3.3075795E-2,-4.4990538E-4,1.6299132E-2,-4.664106E-2,-2.7669517E-2,-6.8137166E-3,1.0700379E-2],"categories":[],"categories_nodes":[],"categories_segments":[],"categories_sizes":[],"default_left":[0,0,0,0,0,0,0,0,0,0,0,0,0,0,0],"id":20,"left_children":[1,3,5,7,9,11,13,-1,-1,-1,-1,-1,-1,-1,-1],"loss_changes":[1.892878E1,9.042034E-1,2.1189556E0,2.517147E-1,4.2854667E-2,5.1299477E-1,1.7577763E-1,0E0,0E0,0E0,0E0,0E0,0E0,0E0,0E0],"parents":[2147483647,0,0,1,1,2,2,3,3,4,4,5,5,6,6],"right_children":[2,4,6,8,10,12,14,-1,-1,-1,-1,-1,-1,-1,-1],"split_conditions":[9.960318E-1,6.567744E-1,6.3E0,-2.6059052E-1,7.8E0,4.6E0,7.7E0,5.069565E-2,3.3075795E-2,-4.4990538E-4,1.6299132E-2,-4.664106E-2,-2.7669517E-2,-6.8137166E-3,1.0700379E-2],"split_indices":[3,3,1,3,1,2,2,0,0,0,0,0,0,0,0],"split_type":[0,0,0,0,0,0,0,0,0,0,0,0,0,0,0],"sum_hessian":[1.25E2,5.5E1,7E1,4.2E1,1.3E1,5.3E1,1.7E1,1.6E1,2.6E1,1E0,1.2E1,1.8E1,3.5E1,1.3E1,4E0],"tree_param":{"num_deleted":"0","num_feature":"5","num_nodes":"15","size_leaf_vector":"1"}},{"base_weights":[4.0366706E-3,4.054829E-1,-3.126538E-1,5.4303133E-1,2.853518E-1,-4.6343234E-1,-1.3494095E-1,2.089407E-2,4.803491E-2,1.6791653E-2,3.442926E-2,-3.0151388E-2,-4.568006E-2,-1.7927336E-2,6.7390443E-4],"categories":[],"categories_nodes":[],"categories_segments":[],"categories_sizes":[],"default_left":[0,0,0,0,0,0,0,0,0,0,0,0,0,0,0],"id":21,"left_children":[1,3,5,7,9,11,13,-1,-1,-1,-1,-1,-1,-1,-1],"loss_changes":[1.6145685E1,7.70381E-1,1.8399296E0,2.4767828E-1,2.5981808E-1,1.3853455E-1,4.3644422E-1,0E0,0E0,0E0,0E0,0E0,0E0,0E0,0E0],"parents":[2147483647,0,0,1,1,2,2,3,3,4,4,5,5,6,6],"right_children":[2,4,6,8,10,12,14,-1,-1,-1,-1,-1,-1,-1,-1],"split_conditions":[9.960318E-1,5.3728193E-2,5.2E0,6.6E0,9.3E0,1.3145425E0,6.8E0,2.089407E-2,4.803491E-2,1.6791653E-2,3.442926E-2,-3.0151388E-2,-4.568006E-2,-1.7927336E-2,6.7390443E-4],"split_indices":[3,3,2,0,2,3,2,0,0,0,0,0,0,0,0],"split_type":[0,0,0,0,0,0,0,0,0,0,0,0,0,0,0],"sum_hessian":[1.25E2,5.5E1,7E1,2.4E1,3.1E1,3.7E1,3.3E1,5E0,1.9E1,2.2E1,9E0,2.3E1,1.4E1,2E1,1.3E1],"tree_param":{"num_deleted":"0","num_feature":"5","num_nodes":"15","size_leaf_vector":"1"}},{"base_weights":[3.9285384E-3,3.874774E-1,-2.7984637E-1,5.19084E-1,2.8799793E-1,-3.693859E-1,-5.924225E-3,2.3023942E-2,4.8626415E-2,1.6652701E-2,3.1585217E-2,-3.6444746E-2,-2.0459825E-2,-5.0626956E-3,8.115746E-3],"categories":[],"categories_nodes":[],"categories_segments":[],"categories_sizes":[],"default_left":[0,0,0,0,0,0,0,0,0,0,0,0,0,0,0],"id":22,"left_children":[1,3,5,7,9,11,13,-1,-1,-1,-1,-1,-1,-1,-1],"loss_changes":[1.3822468E1,5.5748177E-1,1.7882724E0,2.7663088E-1,1.9924664E-1,4.2208338E-1,1.2343613E-1,0E0,0E0,0E0,0E0,0E0,0E0,0E0,0E0],"parents":[2147483647,0,0,1,1,2,2,3,3,4,4,5,5,6,6],"right_children":[2,4,6,8,10,12,14,-1,-1,-1,-1,-1,-1,-1,-1],"split_conditions":[9.43017E-1,6.4687645E-3,6.7E0,7.5E0,9.3E0,5E0,7.7E0,2.3023942E-2,4.8626415E-2,1.6652701E-2,3.1585217E-2,-3.6444746E-2,-2.0459825E-2,-5.0626956E-3,8.115746E-3],"split_indices":[3,3,2,0,2,2,2,0,0,0,0,0,0,0,0],"split_type":[0,0,0,0,0,0,0,0,0,0,0,0,0,0,0],"sum_hessian":[1.25E2,5.3E1,7.2E1,2.1E1,3.2E1,5.4E1,1.8E1,7E0,1.4E1,2E1,1.2E1,2.9E1,2.5E1,1.2E1,6E0],"tree_param":{"num_deleted":"0","num_feature":"5","num_nodes":"15","size_leaf_vector":"1"}},{"base_weights":[4.1383845E-3,3.6448416E-1,-2.5400305E-1,5.1042974E-1,2.8757718E-1,-3.4086975E-1,-2.4193763E-3,2.0165917E-2,5.0274815E-2,1.6620468E-2,2.9541096E-2,-4.0016256E-2,-2.2371413E-2,-4.2593465E-3,7.965692E-3],"categories":[],"categories_nodes":[],"categories_segments":[],"categories_sizes":[],"default_left":[0,0,0,0,0,0,0,0,0,0,0,0,0,0,0],"id":23,"left_children":[1,3,5,7,9,11,13,-1,-1,-1,-1,-1,-1,-1,-1],"loss_changes":[1.1813122E1,4.4809628E-1,1.6163902E0,3.598733E-1,1.6453552E-1,3.966756E-1,1.0896954E-1,0E0,0E0,0E0,0E0,0E0,0E0,0E0,0E0],"parents":[2147483647,0,0,1,1,2,2,3,3,4,4,5,5,6,6],"right_children":[2,4,6,8,10,12,14,-1,-1,-1,-1,-1,-1,-1,-1],"split_conditions":[8.9484227E-1,-2.6059052E-1,6.7E0,7.5E0,9.3E0,4.3E0,7.6E0,2.0165917E-2,5.0274815E-2,1.6620468E-2,2.9541096E-2,-4.0016256E-2,-2.2371413E-2,-4.2593465E-3,7.965692E-3],"split_indices":[3,3,2,0,2,0,0,0,0,0,0,0,0,0,0],"split_type":[0,0,0,0,0,0,0,0,0,0,0,0,0,0,0],"sum_hessian":[1.25E2,5.2E1,7.3E1,1.6E1,3.6E1,5.4E1,1.9E1,6E0,1E1,2E1,1.6E1,1.3E1,4.1E1,1.3E1,6E0],"tree_param":{"num_deleted":"0","num_feature":"5","num_nodes":"15","size_leaf_vector":"1"}},{"base_weights":[4.2669377E-3,3.375255E-1,-2.344759E-1,4.7373903E-1,2.6581857E-1,-3.3894807E-1,-5.0737757E-2,1.8783139E-2,4.6618465E-2,1.5354135E-2,2.7316831E-2,-3.7043624E-2,-2.2230411E-2,-9.649943E-3,4.199705E-3],"categories":[],"categories_nodes":[],"categories_segments":[],"categories_sizes":[],"default_left":[0,0,0,0,0,0,0,0,0,0,0,0,0,0,0],"id":24,"left_children":[1,3,5,7,9,11,13,-1,-1,-1,-1,-1,-1,-1,-1],"loss_changes":[1.0104093E1,3.9174604E-1,1.4032712E0,3.059218E-1,1.412692E-1,2.2751236E-1,2.083431E-1,0E0,0E0,0E0,0E0,0E0,0E0,0E0,0E0],"parents":[2147483647,0,0,1,1,2,2,3,3,4,4,5,5,6,6],"right_children":[2,4,6,8,10,12,14,-1,-1,-1,-1,-1,-1,-1,-1],"split_conditions":[8.9484227E-1,-2.6059052E-1,5.7E0,7.5E0,9.3E0,4.3E0,7.3E0,1.8783139E-2,4.6618465E-2,1.5354135E-2,2.7316831E-2,-3.7043624E-2,-2.2230411E-2,-9.649943E-3,4.199705E-3],"split_indices":[3,3,0,0,2,0,1,0,0,0,0,0,0,0,0],"split_type":[0,0,0,0,0,0,0,0,0,0,0,0,0,0,0],"sum_hessian":[1.25E2,5.2E1,7.3E1,1.6E1,3.6E1,4.6E1,2.7E1,6E0,1E1,2E1,1.6E1,1.3E1,3.3E1,1.6E1,1.1E1],"tree_param":{"num_deleted":"0","num_feature":"5","num_nodes":"15","size_leaf_vector":"1"}},{"base_weights":[4.269613E-3,3.1256244E-1,-2.165924E-1,4.3968695E-1,2.4570625E-1,-3.4170082E-1,-8.224883E-2,1.9052096E-2,4.455575E-2,1.4184293E-2,2.5260018E-2,-2.1891005E-2,-3.422576E-2,-1.11599015E-2,3.8917412E-3],"categories":[],"categories_nodes":[],"categories_segments":[],"categories_sizes":[],"default_left":[0,0,0,0,0,0,0,0,0,0,0,0,0,0,0],"id":25,"left_children":[1,3,5,7,9,11,13,-1,-1,-1,-1,-1,-1,-1,-1],"loss_changes":[8.64706E0,3.424163E-1,1.2156515E0,2.6910758E-1,1.2129021E-1,1.05676174E-1,2.8405544E-1,0E0,0E0,0E0,0E0,0E0,0E0,0E0,0E0],"parents":[2147483647,0,0,1,1,2,2,3,3,4,4,5,5,6,6],"right_children":[2,4,6,8,10,12,14,-1,-1,-1,-1,-1,-1,-1,-1],"split_conditions":[8.9484227E-1,-2.6059052E-1,5.2E0,7.9E0,9.3E0,1.3145425E0,7.3E0,1.9052096E-2,4.455575E-2,1.4184293E-2,2.5260018E-2,-2.1891005E-2,-3.422576E-2,-1.11599015E-2,3.8917412E-3],"split_indices":[3,3,2,0,2,3,1,0,0,0,0,0,0,0,0],"split_type":[0,0,0,0,0,0,0,0,0,0,0,0,0,0,0],"sum_hessian":[1.25E2,5.2E1,7.3E1,1.6E1,3.6E1,3.7E1,3.6E1,7E0,9E0,2E1,1.6E1,2.3E1,1.4E1,2.5E1,1.1E1],"tree_param":{"num_deleted":"0","num_feature":"5","num_nodes":"15","size_leaf_vector":"1"}},{"base_weights":[4.242884E-3,2.8950182E-1,-2.0012152E-1,4.0825352E-1,2.2711585E-1,-2.7272797E-1,-3.8896743E-3,1.1819999E-2,3.8163446E-2,1.4968583E-2,2.7900675E-2,-3.1819806E-2,-1.7870914E-2,-2.018015E-3,1.6912822E-2],"categories":[],"categories_nodes":[],"categories_segments":[],"categories_sizes":[],"default_left":[0,0,0,0,0,0,0,0,0,0,0,0,0,0,0],"id":26,"left_children":[1,3,5,7,9,11,13,-1,-1,-1,-1,-1,-1,-1,-1],"loss_changes":[7.403329E0,2.9992676E-1,1.0532684E0,2.3415542E-1,1.1481416E-1,2.4425602E-1,1.017971E-1,0E0,0E0,0E0,0E0,0E0,0E0,0E0,0E0],"parents":[2147483647,0,0,1,1,2,2,3,3,4,4,5,5,6,6],"right_children":[2,4,6,8,10,12,14,-1,-1,-1,-1,-1,-1,-1,-1],"split_conditions":[8.9484227E-1,-2.6059052E-1,6.3E0,6.6E0,9.8E0,4.3E0,8E0,1.1819999E-2,3.8163446E-2,1.4968583E-2,2.7900675E-2,-3.1819806E-2,-1.7870914E-2,-2.018015E-3,1.6912822E-2],"split_indices":[3,3,1,0,0,0,0,0,0,0,0,0,0,0,0],"split_type":[0,0,0,0,0,0,0,0,0,0,0,0,0,0,0],"sum_hessian":[1.25E2,5.2E1,7.3E1,1.6E1,3.6E1,5.3E1,2E1,4E0,1.2E1,2.9E1,7E0,1.3E1,4E1,1.9E1,1E0],"tree_param":{"num_deleted":"0","num_feature":"5","num_nodes":"15","size_leaf_vector":"1"}},{"base_weights":[4.3642162E-3,2.769997E-1,-1.7864597E-1,3.8396284E-1,2.2176608E-1,-2.6649928E-1,-2.70734E-2,1.6100734E-2,4.0296283E-2,1.4563284E-2,2.5657153E-2,-2.9456047E-2,-1.7456356E-2,-5.902704E-3,5.5243797E-3],"categories":[],"categories_nodes":[],"categories_segments":[],"categories_sizes":[],"default_left":[0,0,0,0,0,0,0,0,0,0,0,0,0,0,0],"id":27,"left_children":[1,3,5,7,9,11,13,-1,-1,-1,-1,-1,-1,-1,-1],"loss_changes":[6.3362637E0,2.1615624E-1,1.0048125E0,2.4865794E-1,8.312285E-2,1.5541577E-1,1.3531047E-1,0E0,0E0,0E0,0E0,0E0,0E0,0E0,0E0],"parents":[2147483647,0,0,1,1,2,2,3,3,4,4,5,5,6,6],"right_children":[2,4,6,8,10,12,14,-1,-1,-1,-1,-1,-1,-1,-1],"split_conditions":[8.247165E-1,-3.8075477E-1,5.8E0,7.9E0,9.8E0,4.3E0,7.7E0,1.6100734E-2,4.0296283E-2,1.4563284E-2,2.5657153E-2,-2.9456047E-2,-1.7456356E-2,-5.902704E-3,5.5243797E-3],"split_indices":[3,3,1,0,0,0,2,0,0,0,0,0,0,0,0],"split_type":[0,0,0,0,0,0,0,0,0,0,0,0,0,0,0],"sum_hessian":[1.25E2,5E1,7.5E1,1.5E1,3.5E1,4.7E1,2.8E1,7E0,8E0,2.7E1,8E0,1.3E1,3.4E1,1.9E1,9E0],"tree_param":{"num_deleted":"0","num_feature":"5","num_nodes":"15","size_leaf_vector":"1"}},{"base_weights":[4.4066207E-3,2.5673413E-1,-1.649764E-1,3.5677043E-1,2.0514205E-1,-2.725665E-1,-5.5914868E-2,1.4973673E-2,3.7430752E-2,1.3439821E-2,2.3832675E-2,-1.7417753E-2,-2.7371734E-2,-8.556208E-3,3.4290722E-3],"categories":[],"categories_nodes":[],"categories_segments":[],"categories_sizes":[],"default_left":[0,0,0,0,0,0,0,0,0,0,0,0,0,0,0],"id":28,"left_children":[1,3,5,7,9,11,13,-1,-1,-1,-1,-1,-1,-1,-1],"loss_changes":[5.4275947E0,1.9002628E-1,8.76539E-1,2.1394348E-1,7.399869E-2,7.051873E-2,2.0119965E-1,0E0,0E0,0E0,0E0,0E0,0E0,0E0,0E0],"parents":[2147483647,0,0,1,1,2,2,3,3,4,4,5,5,6,6],"right_children":[2,4,6,8,10,12,14,-1,-1,-1,-1,-1,-1,-1,-1],"split_conditions":[8.247165E-1,-3.8075477E-1,5.2E0,7.9E0,9.8E0,1.3145425E0,7.3E0,1.4973673E-2,3.7430752E-2,1.3439821E-2,2.3832675E-2,-1.7417753E-2,-2.7371734E-2,-8.556208E-3,3.4290722E-3],"split_indices":[3,3,2,0,0,3,1,0,0,0,0,0,0,0,0],"split_type":[0,0,0,0,0,0,0,0,0,0,0,0,0,0,0],"sum_hessian":[1.25E2,5E1,7.5E1,1.5E1,3.5E1,3.7E1,3.8E1,7E0,8E0,2.7E1,8E0,2.3E1,1.4E1,2.5E1,1.3E1],"tree_param":{"num_deleted":"0","num_feature":"5","num_nodes":"15","size_leaf_vector":"1"}},{"base_weights":[4.36973E-3,2.3795375E-1,-1.5243493E-1,3.3150408E-1,1.8976599E-1,-2.1425354E-1,9.040464E-3,1.3925519E-2,3.4769006E-2,1.2403023E-2,2.2137934E-2,-2.1607826E-2,-1.1326185E-2,-2.3159734E-3,5.370538E-3],"categories":[],"categories_nodes":[],"categories_segments":[],"categories_sizes":[],"default_left":[0,0,0,0,0,0,0,0,0,0,0,0,0,0,0],"id":29,"left_children":[1,3,5,7,9,11,13,-1,-1,-1,-1,-1,-1,-1,-1],"loss_changes":[4.6512823E0,1.6699862E-1,7.6058316E-1,1.8407369E-1,6.581378E-2,1.8498039E-1,5.049513E-2,0E0,0E0,0E0,0E0,0E0,0E0,0E0,0E0],"parents":[2147483647,0,0,1,1,2,2,3,3,4,4,5,5,6,6],"right_children":[2,4,6,8,10,12,14,-1,-1,-1,-1,-1,-1,-1,-1],"split_conditions":[8.247165E-1,-3.8075477E-1,6.7E0,7.9E0,9.8E0,5E0,7.6E0,1.3925519E-2,3.4769006E-2,1.2403023E-2,2.2137934E-2,-2.1607826E-2,-1.1326185E-2,-2.3159734E-3,5.370538E-3],"split_indices":[3,3,2,0,0,2,0,0,0,0,0,0,0,0,0],"split_type":[0,0,0,0,0,0,0,0,0,0,0,0,0,0,0],"sum_hessian":[1.25E2,5E1,7.5E1,1.5E1,3.5E1,5.4E1,2.1E1,7E0,8E0,2.7E1,8E0,2.9E1,2.5E1,1.3E1,8E0],"tree_param":{"num_deleted":"0","num_feature":"5","num_nodes":"15","size_leaf_vector":"1"}},{"base_weights":[4.4435905E-3,2.2054937E-1,-1.4063324E-1,3.0802712E-1,1.7554401E-1,-1.9771199E-1,8.456057E-3,5.448103E-3,2.8652484E-2,9.8148445E-3,1.7726928E-2,-2.164259E-2,-1.1869666E-2,-7.288627E-4,9.819971E-3],"categories":[],"categories_nodes":[],"categories_segments":[],"categories_sizes":[],"default_left":[0,0,0,0,0,0,0,0,0,0,0,0,0,0,0],"id":30,"left_children":[1,3,5,7,9,11,13,-1,-1,-1,-1,-1,-1,-1,-1],"loss_changes":[3.9813612E0,1.4671302E-1,6.4841914E-1,1.6804469E-1,6.0429215E-2,1.574781E-1,4.528945E-2,0E0,0E0,0E0,0E0,0E0,0E0,0E0,0E0],"parents":[2147483647,0,0,1,1,2,2,3,3,4,4,5,5,6,6],"right_children":[2,4,6,8,10,12,14,-1,-1,-1,-1,-1,-1,-1,-1],"split_conditions":[8.247165E-1,-3.8075477E-1,6.7E0,6.2E0,9.3E0,4.6E0,8E0,5.448103E-3,2.8652484E-2,9.8148445E-3,1.7726928E-2,-2.164259E-2,-1.1869666E-2,-7.288627E-4,9.819971E-3],"split_indices":[3,3,2,0,2,0,0,0,0,0,0,0,0,0,0],"split_type":[0,0,0,0,0,0,0,0,0,0,0,0,0,0,0],"sum_hessian":[1.25E2,5E1,7.5E1,1.5E1,3.5E1,5.4E1,2.1E1,3E0,1.2E1,1.8E1,1.7E1,2E1,3.4E1,1.9E1,2E0],"tree_param":{"num_deleted":"0","num_feature":"5","num_nodes":"15","size_leaf_vector":"1"}},{"base_weights":[4.3835016E-3,2.0411412E-1,-1.2970394E-1,2.8551644E-1,1.6226548E-1,-2.1636409E-1,-4.194009E-2,1.1641197E-2,3.025905E-2,1.0485588E-2,1.9303123E-2,-1.3527647E-2,-2.2205552E-2,-6.6097537E-3,2.9286083E-3],"categories":[],"categories_nodes":[],"categories_segments":[],"categories_sizes":[],"default_left":[0,0,0,0,0,0,0,0,0,0,0,0,0,0,0],"id":31,"left_children":[1,3,5,7,9,11,13,-1,-1,-1,-1,-1,-1,-1,-1],"loss_changes":[3.4009266E0,1.2740588E-1,5.689535E-1,1.5265954E-1,5.7121217E-2,6.3001275E-2,1.276477E-1,0E0,0E0,0E0,0E0,0E0,0E0,0E0,0E0],"parents":[2147483647,0,0,1,1,2,2,3,3,4,4,5,5,6,6],"right_children":[2,4,6,8,10,12,14,-1,-1,-1,-1,-1,-1,-1,-1],"split_conditions":[8.247165E-1,-3.8075477E-1,5.2E0,7.9E0,9.8E0,1.3145425E0,7.3E0,1.1641197E-2,3.025905E-2,1.0485588E-2,1.9303123E-2,-1.3527647E-2,-2.2205552E-2,-6.6097537E-3,2.9286083E-3],"split_indices":[3,3,2,0,0,3,1,0,0,0,0,0,0,0,0],"split_type":[0,0,0,0,0,0,0,0,0,0,0,0,0,0,0],"sum_hessian":[1.25E2,5E1,7.5E1,1.5E1,3.5E1,3.7E1,3.8E1,7E0,8E0,2.7E1,8E0,2.3E1,1.4E1,2.5E1,1.3E1],"tree_param":{"num_deleted":"0","num_feature":"5","num_nodes":"15","size_leaf_vector":"1"}},{"base_weights":[4.288963E-3,1.8919055E-1,-1.19846165E-1,2.6529375E-1,1.5011162E-1,-1.7102961E-1,5.534359E-3,1.0417303E-3,2.40322E-2,9.676695E-3,1.7930442E-2,-2.0478563E-2,-1.1028E-2,-8.2080474E-4,9.14004E-3],"categories":[],"categories_nodes":[],"categories_segments":[],"categories_sizes":[],"default_left":[0,0,0,0,0,0,0,0,0,0,0,0,0,0,0],"id":32,"left_children":[1,3,5,7,9,11,13,-1,-1,-1,-1,-1,-1,-1,-1],"loss_changes":[2.914724E0,1.1185193E-1,4.886695E-1,1.3779962E-1,5.0572753E-2,1.1692202E-1,4.066571E-2,0E0,0E0,0E0,0E0,0E0,0E0,0E0,0E0],"parents":[2147483647,0,0,1,1,2,2,3,3,4,4,5,5,6,6],"right_children":[2,4,6,8,10,12,14,-1,-1,-1,-1,-1,-1,-1,-1],"split_conditions":[8.247165E-1,-3.8075477E-1,6.3E0,5.9E0,9.8E0,4.3E0,8E0,1.0417303E-3,2.40322E-2,9.676695E-3,1.7930442E-2,-2.0478563E-2,-1.1028E-2,-8.2080474E-4,9.14004E-3],"split_indices":[3,3,1,0,0,0,0,0,0,0,0,0,0,0,0],"split_type":[0,0,0,0,0,0,0,0,0,0,0,0,0,0,0],"sum_hessian":[1.25E2,5E1,7.5E1,1.5E1,3.5E1,5.3E1,2.2E1,2E0,1.3E1,2.7E1,8E0,1.3E1,4E1,2E1,2E0],"tree_param":{"num_deleted":"0","num_feature":"5","num_nodes":"15","size_leaf_vector":"1"}},{"base_weights":[4.1797897E-3,1.7508811E-1,-1.1056368E-1,2.4563706E-1,1.3886946E-1,-1.8602443E-1,-3.4202855E-2,9.603834E-3,2.6398305E-2,7.5428593E-3,1.4257207E-2,-1.1613541E-2,-1.9119283E-2,-4.932804E-3,4.127121E-3],"categories":[],"categories_nodes":[],"categories_segments":[],"categories_sizes":[],"default_left":[0,0,0,0,0,0,0,0,0,0,0,0,0,0,0],"id":33,"left_children":[1,3,5,7,9,11,13,-1,-1,-1,-1,-1,-1,-1,-1],"loss_changes":[2.490296E0,9.620309E-2,4.3156797E-1,1.2986529E-1,4.634714E-2,4.7536373E-2,9.504953E-2,0E0,0E0,0E0,0E0,0E0,0E0,0E0,0E0],"parents":[2147483647,0,0,1,1,2,2,3,3,4,4,5,5,6,6],"right_children":[2,4,6,8,10,12,14,-1,-1,-1,-1,-1,-1,-1,-1],"split_conditions":[8.247165E-1,-3.8075477E-1,5.2E0,7.9E0,9.3E0,1.3145425E0,7.7E0,9.603834E-3,2.6398305E-2,7.5428593E-3,1.4257207E-2,-1.1613541E-2,-1.9119283E-2,-4.932804E-3,4.127121E-3],"split_indices":[3,3,2,0,2,3,2,0,0,0,0,0,0,0,0],"split_type":[0,0,0,0,0,0,0,0,0,0,0,0,0,0,0],"sum_hessian":[1.25E2,5E1,7.5E1,1.5E1,3.5E1,3.7E1,3.8E1,7E0,8E0,1.8E1,1.7E1,2.3E1,1.4E1,2.9E1,9E0],"tree_param":{"num_deleted":"0","num_feature":"5","num_nodes":"15","size_leaf_vector":"1"}},{"base_weights":[4.053814E-3,1.676276E-1,-9.875605E-2,2.2823617E-1,1.341757E-1,-1.4521408E-1,1.1825104E-2,8.931584E-3,2.452107E-2,8.622458E-3,1.5641555E-2,-1.4811946E-2,-7.483984E-3,-1.0804773E-3,4.443537E-3],"categories":[],"categories_nodes":[],"categories_segments":[],"categories_sizes":[],"default_left":[0,0,0,0,0,0,0,0,0,0,0,0,0,0,0],"id":34,"left_children":[1,3,5,7,9,11,13,-1,-1,-1,-1,-1,-1,-1,-1],"loss_changes":[2.1354964E0,6.872225E-2,4.0243304E-1,1.1180252E-1,3.3978462E-2,9.615672E-2,2.7329024E-2,0E0,0E0,0E0,0E0,0E0,0E0,0E0,0E0],"parents":[2147483647,0,0,1,1,2,2,3,3,4,4,5,5,6,6],"right_children":[2,4,6,8,10,12,14,-1,-1,-1,-1,-1,-1,-1,-1],"split_conditions":[7.7485853E-1,-3.8075477E-1,6.7E0,7.9E0,9.8E0,5E0,7.8E0,8.931584E-3,2.452107E-2,8.622458E-3,1.5641555E-2,-1.4811946E-2,-7.483984E-3,-1.0804773E-3,4.443537E-3],"split_indices":[3,3,2,0,0,2,1,0,0,0,0,0,0,0,0],"split_type":[0,0,0,0,0,0,0,0,0,0,0,0,0,0,0],"sum_hessian":[1.25E2,4.8E1,7.7E1,1.5E1,3.3E1,5.4E1,2.3E1,7E0,8E0,2.5E1,8E0,2.9E1,2.5E1,1.5E1,8E0],"tree_param":{"num_deleted":"0","num_feature":"5","num_nodes":"15","size_leaf_vector":"1"}},{"base_weights":[4.037416E-3,1.5539554E-1,-9.109829E-2,2.1206832E-1,1.2415554E-1,-1.5277462E-1,-1.8625207E-2,-2.3651123E-6,1.938961E-2,6.7593E-3,1.2707979E-2,-9.056081E-3,-1.6800534E-2,-4.56324E-3,2.0074546E-3],"categories":[],"categories_nodes":[],"categories_segments":[],"categories_sizes":[],"default_left":[0,0,0,0,0,0,0,0,0,0,0,0,0,0,0],"id":35,"left_children":[1,3,5,7,9,11,13,-1,-1,-1,-1,-1,-1,-1,-1],"loss_changes":[1.8285011E0,6.0422897E-2,3.458047E-1,1.0283834E-1,3.336668E-2,7.1351945E-2,6.3571155E-2,0E0,0E0,0E0,0E0,0E0,0E0,0E0,0E0],"parents":[2147483647,0,0,1,1,2,2,3,3,4,4,5,5,6,6],"right_children":[2,4,6,8,10,12,14,-1,-1,-1,-1,-1,-1,-1,-1],"split_conditions":[7.7485853E-1,-3.8075477E-1,5.4E0,5.9E0,3.8565233E-1,1.3145425E0,7.2E0,-2.3651123E-6,1.938961E-2,6.7593E-3,1.2707979E-2,-9.056081E-3,-1.6800534E-2,-4.56324E-3,2.0074546E-3],"split_indices":[3,3,0,0,3,3,0,0,0,0,0,0,0,0,0],"split_type":[0,0,0,0,0,0,0,0,0,0,0,0,0,0,0],"sum_hessian":[1.25E2,4.8E1,7.7E1,1.5E1,3.3E1,4.1E1,3.6E1,2E0,1.3E1,1.7E1,1.6E1,2.6E1,1.5E1,1.9E1,1.7E1],"tree_param":{"num_deleted":"0","num_feature":"5","num_nodes":"15","size_leaf_vector":"1"}},{"base_weights":[3.7973097E-3,1.4626613E-1,-8.281409E-2,-3.7417412E-3,1.5136847E-1,-1.2536252E-1,8.740866E-3,1.7251104E-2,9.40542E-3,-1.4818128E-2,-7.807077E-3,-1.4822438E-3,3.367888E-3],"categories":[],"categories_nodes":[],"categories_segments":[],"categories_sizes":[],"default_left":[0,0,0,0,0,0,0,0,0,0,0,0,0],"id":36,"left_children":[1,3,5,-1,7,9,11,-1,-1,-1,-1,-1,-1],"loss_changes":[1.5668803E0,5.435705E-2,3.0884176E-1,0E0,7.674992E-2,7.170808E-2,2.4430364E-2,0E0,0E0,0E0,0E0,0E0,0E0],"parents":[2147483647,0,0,1,1,2,2,4,4,5,5,6,6],"right_children":[2,4,6,-1,8,10,12,-1,-1,-1,-1,-1,-1],"split_conditions":[7.7381706E-1,5.7E0,6.3E0,-3.7417412E-3,-3.8075477E-1,4.4E0,7.6E0,1.7251104E-2,9.40542E-3,-1.4818128E-2,-7.807077E-3,-1.4822438E-3,3.367888E-3],"split_indices":[3,0,1,0,3,1,0,0,0,0,0,0,0],"split_type":[0,0,0,0,0,0,0,0,0,0,0,0,0],"sum_hessian":[1.25E2,4.7E1,7.8E1,1E0,4.6E1,5.3E1,2.5E1,1.4E1,3.2E1,1.5E1,3.8E1,1.4E1,1.1E1],"tree_param":{"num_deleted":"0","num_feature":"5","num_nodes":"13","size_leaf_vector":"1"}},{"base_weights":[3.5108933E-3,1.3504241E-1,-7.6451436E-2,-3.5920714E-3,1.3982634E-1,-1.3703167E-1,-1.9820474E-2,1.5963027E-2,8.675806E-3,-8.395619E-3,-1.4338762E-2,1.7475738E-3,-4.4151423E-3],"categories":[],"categories_nodes":[],"categories_segments":[],"categories_sizes":[],"default_left":[0,0,0,0,0,0,0,0,0,0,0,0,0],"id":37,"left_children":[1,3,5,-1,7,9,11,-1,-1,-1,-1,-1,-1],"loss_changes":[1.3355376E0,4.7598362E-2,2.6831064E-1,0E0,6.642324E-2,3.264749E-2,6.3098736E-2,0E0,0E0,0E0,0E0,0E0,0E0],"parents":[2147483647,0,0,1,1,2,2,4,4,5,5,6,6],"right_children":[2,4,6,-1,8,10,12,-1,-1,-1,-1,-1,-1],"split_conditions":[7.7381706E-1,5.7E0,5.2E0,-3.5920714E-3,-3.8075477E-1,1.3145425E0,1.2095093E0,1.5963027E-2,8.675806E-3,-8.395619E-3,-1.4338762E-2,1.7475738E-3,-4.4151423E-3],"split_indices":[3,0,2,0,3,3,3,0,0,0,0,0,0],"split_type":[0,0,0,0,0,0,0,0,0,0,0,0,0],"sum_hessian":[1.25E2,4.7E1,7.8E1,1E0,4.6E1,3.7E1,4.1E1,1.4E1,3.2E1,2.3E1,1.4E1,1.9E1,2.2E1],"tree_param":{"num_deleted":"0","num_feature":"5","num_nodes":"13","size_leaf_vector":"1"}},{"base_weights":[3.195549E-3,1.2467778E-1,-7.065689E-2,1.3525145E-1,2.81202E-2,-1.2153882E-1,-1.2559577E-2,5.4935645E-3,1.2479443E-2,-7.0034405E-3,5.5009155E-3,-7.1197846E-3,-1.3508514E-2,-2.854086E-3,2.7711631E-3],"categories":[],"categories_nodes":[],"categories_segments":[],"categories_sizes":[],"default_left":[0,0,0,0,0,0,0,0,0,0,0,0,0,0,0],"id":38,"left_children":[1,3,5,7,9,11,13,-1,-1,-1,-1,-1,-1,-1,-1],"loss_changes":[1.139251E0,4.520309E-2,2.3200566E-1,4.8671663E-2,3.4223765E-2,4.9643278E-2,4.2696778E-2,0E0,0E0,0E0,0E0,0E0,0E0,0E0,0E0],"parents":[2147483647,0,0,1,1,2,2,3,3,4,4,5,5,6,6],"right_children":[2,4,6,8,10,12,14,-1,-1,-1,-1,-1,-1,-1,-1],"split_conditions":[7.7381706E-1,9.9E0,5.4E0,8.3E0,9.5E0,1.3145425E0,7.7E0,5.4935645E-3,1.2479443E-2,-7.0034405E-3,5.5009155E-3,-7.1197846E-3,-1.3508514E-2,-2.854086E-3,2.7711631E-3],"split_indices":[3,2,0,0,0,3,2,0,0,0,0,0,0,0,0],"split_type":[0,0,0,0,0,0,0,0,0,0,0,0,0,0,0],"sum_hessian":[1.25E2,4.7E1,7.8E1,4.2E1,5E0,4.1E1,3.7E1,1.1E1,3.1E1,1E0,4E0,2.6E1,1.5E1,2.5E1,1.2E1],"tree_param":{"num_deleted":"0","num_feature":"5","num_nodes":"15","size_leaf_vector":"1"}},{"base_weights":[2.906101E-3,1.1504654E-1,-6.526665E-2,-3.6681364E-3,1.1944547E-1,-9.868768E-2,1.0870285E-2,1.4062901E-2,7.217317E-3,-1.018612E-2,-4.947777E-3,-2.468586E-4,4.4462904E-3],"categories":[],"categories_nodes":[],"categories_segments":[],"categories_sizes":[],"default_left":[0,0,0,0,0,0,0,0,0,0,0,0,0],"id":39,"left_children":[1,3,5,-1,7,9,11,-1,-1,-1,-1,-1,-1],"loss_changes":[9.7076887E-1,3.945023E-2,2.0209417E-1,0E0,6.1540127E-2,5.015391E-2,1.5770262E-2,0E0,0E0,0E0,0E0,0E0,0E0],"parents":[2147483647,0,0,1,1,2,2,4,4,5,5,6,6],"right_children":[2,4,6,-1,8,10,12,-1,-1,-1,-1,-1,-1],"split_conditions":[7.7381706E-1,5.7E0,6.7E0,-3.6681364E-3,-3.8075477E-1,5E0,8E0,1.4062901E-2,7.217317E-3,-1.018612E-2,-4.947777E-3,-2.468586E-4,4.4462904E-3],"split_indices":[3,0,2,0,3,2,0,0,0,0,0,0,0],"split_type":[0,0,0,0,0,0,0,0,0,0,0,0,0],"sum_hessian":[1.25E2,4.7E1,7.8E1,1E0,4.6E1,5.4E1,2.4E1,1.4E1,3.2E1,2.9E1,2.5E1,1.9E1,5E0],"tree_param":{"num_deleted":"0","num_feature":"5","num_nodes":"13","size_leaf_vector":"1"}},{"base_weights":[2.7265984E-3,1.0620969E-1,-6.0183715E-2,1.15823954E-1,1.9605795E-2,-9.1067836E-2,1.0168705E-2,1.2363656E-2,6.2983865E-3,-7.0119854E-3,4.6869507E-3,-1.1420136E-2,-5.7337275E-3,-2.2808646E-4,4.1498565E-3],"categories":[],"categories_nodes":[],"categories_segments":[],"categories_sizes":[],"default_left":[0,0,0,0,0,0,0,0,0,0,0,0,0,0,0],"id":40,"left_children":[1,3,5,7,9,11,13,-1,-1,-1,-1,-1,-1,-1,-1],"loss_changes":[8.2667136E-1,3.7695587E-2,1.7257509E-1,4.9595714E-2,3.0220773E-2,4.490477E-2,1.3722487E-2,0E0,0E0,0E0,0E0,0E0,0E0,0E0,0E0],"parents":[2147483647,0,0,1,1,2,2,3,3,4,4,5,5,6,6],"right_children":[2,4,6,8,10,12,14,-1,-1,-1,-1,-1,-1,-1,-1],"split_conditions":[7.7381706E-1,9.9E0,6.7E0,5.3728193E-2,9.5E0,4.3E0,8E0,1.2363656E-2,6.2983865E-3,-7.0119854E-3,4.6869507E-3,-1.1420136E-2,-5.7337275E-3,-2.2808646E-4,4.1498565E-3],"split_indices":[3,2,2,3,0,0,0,0,0,0,0,0,0,0,0],"split_type":[0,0,0,0,0,0,0,0,0,0,0,0,0,0,0],"sum_hessian":[1.25E2,4.7E1,7.8E1,4.2E1,5E0,5.4E1,2.4E1,1.9E1,2.3E1,1E0,4E0,1.3E1,4.1E1,1.9E1,5E0],"tree_param":{"num_deleted":"0","num_feature":"5","num_nodes":"15","size_leaf_vector":"1"}},{"base_weights":[2.5330933E-3,9.8053455E-2,-5.553666E-2,-2.4024168E-2,1.03883445E-1,-1.0103792E-1,-1.3046549E-2,-4.0159416E-3,1.1330413E-3,1.2791426E-2,6.157912E-3,-1.1724757E-3,-8.641868E-3,1.625388E-4,-6.1906576E-3],"categories":[],"categories_nodes":[],"categories_segments":[],"categories_sizes":[],"default_left":[0,0,0,0,0,0,0,0,0,0,0,0,0,0,0],"id":41,"left_children":[1,3,5,7,9,11,13,-1,-1,-1,-1,-1,-1,-1,-1],"loss_changes":[7.043479E-1,3.665784E-2,1.5141673E-1,3.7096338E-3,5.702299E-2,2.1346629E-2,4.090086E-2,0E0,0E0,0E0,0E0,0E0,0E0,0E0,0E0],"parents":[2147483647,0,0,1,1,2,2,3,3,4,4,5,5,6,6],"right_children":[2,4,6,8,10,12,14,-1,-1,-1,-1,-1,-1,-1,-1],"split_conditions":[7.7381706E-1,5.9E0,5.2E0,5.7E0,-3.8075477E-1,1.064944E0,1.35906E0,-4.0159416E-3,1.1330413E-3,1.2791426E-2,6.157912E-3,-1.1724757E-3,-8.641868E-3,1.625388E-4,-6.1906576E-3],"split_indices":[3,0,2,0,3,3,3,0,0,0,0,0,0,0,0],"split_type":[0,0,0,0,0,0,0,0,0,0,0,0,0,0,0],"sum_hessian":[1.25E2,4.7E1,7.8E1,2E0,4.5E1,3.7E1,4.1E1,1E0,1E0,1.3E1,3.2E1,3E0,3.4E1,3.4E1,7E0],"tree_param":{"num_deleted":"0","num_feature":"5","num_nodes":"15","size_leaf_vector":"1"}},{"base_weights":[2.3321859E-3,9.0543866E-2,-5.1294304E-2,3.7543297E-2,1.0528611E-1,-8.4867865E-2,-1.923041E-3,-3.8553046E-3,3.97747E-3,1.5360437E-2,5.9794113E-3,-4.8020077E-3,-9.465524E-3,-1.5998788E-3,2.5100422E-3],"categories":[],"categories_nodes":[],"categories_segments":[],"categories_sizes":[],"default_left":[0,0,0,0,0,0,0,0,0,0,0,0,0,0,0],"id":42,"left_children":[1,3,5,7,9,11,13,-1,-1,-1,-1,-1,-1,-1,-1],"loss_changes":[6.0068524E-1,3.355187E-2,1.3078476E-1,1.49219055E-2,8.3651274E-2,3.195584E-2,2.0489715E-2,0E0,0E0,0E0,0E0,0E0,0E0,0E0,0E0],"parents":[2147483647,0,0,1,1,2,2,3,3,4,4,5,5,6,6],"right_children":[2,4,6,8,10,12,14,-1,-1,-1,-1,-1,-1,-1,-1],"split_conditions":[7.7381706E-1,8.3E0,5.7E0,5.7E0,-3.8075477E-1,1.3145425E0,7.6E0,-3.8553046E-3,3.97747E-3,1.5360437E-2,5.9794113E-3,-4.8020077E-3,-9.465524E-3,-1.5998788E-3,2.5100422E-3],"split_indices":[3,0,0,0,3,3,0,0,0,0,0,0,0,0,0],"split_type":[0,0,0,0,0,0,0,0,0,0,0,0,0,0,0],"sum_hessian":[1.25E2,4.7E1,7.8E1,1.1E1,3.6E1,4.6E1,3.2E1,1E0,1E1,8E0,2.8E1,2.8E1,1.8E1,2.1E1,1.1E1],"tree_param":{"num_deleted":"0","num_feature":"5","num_nodes":"15","size_leaf_vector":"1"}},{"base_weights":[2.2099E-3,8.521127E-2,-4.6581026E-2,9.427901E-2,7.5351396E-3,-9.3641736E-2,-1.489687E-2,5.068458E-3,1.124557E-2,-7.2169877E-3,3.6101684E-3,-8.139896E-4,-8.15403E-3,-3.183909E-3,1.0160796E-3],"categories":[],"categories_nodes":[],"categories_segments":[],"categories_sizes":[],"default_left":[0,0,0,0,0,0,0,0,0,0,0,0,0,0,0],"id":43,"left_children":[1,3,5,7,9,11,13,-1,-1,-1,-1,-1,-1,-1,-1],"loss_changes":[5.142331E-1,3.2393903E-2,1.1789134E-1,5.121535E-2,2.6118143E-2,2.1088034E-2,3.418034E-2,0E0,0E0,0E0,0E0,0E0,0E0,0E0,0E0],"parents":[2147483647,0,0,1,1,2,2,3,3,4,4,5,5,6,6],"right_children":[2,4,6,8,10,12,14,-1,-1,-1,-1,-1,-1,-1,-1],"split_conditions":[7.6343304E-1,9.9E0,5E0,9.3E0,9.5E0,1.064944E0,6.7E0,5.068458E-3,1.124557E-2,-7.2169877E-3,3.6101684E-3,-8.139896E-4,-8.15403E-3,-3.183909E-3,1.0160796E-3],"split_indices":[3,2,0,2,0,3,0,0,0,0,0,0,0,0,0],"split_type":[0,0,0,0,0,0,0,0,0,0,0,0,0,0,0],"sum_hessian":[1.25E2,4.6E1,7.9E1,4.1E1,5E0,3.1E1,4.8E1,2.6E1,1.5E1,1E0,4E0,3E0,2.8E1,2.5E1,2.3E1],"tree_param":{"num_deleted":"0","num_feature":"5","num_nodes":"15","size_leaf_vector":"1"}},{"base_weights":[2.0454517E-3,7.866452E-2,-4.2993817E-2,2.990365E-2,9.273301E-2,-7.424463E-2,-2.7360255E-3,-3.9038276E-3,3.3195599E-3,1.3742947E-2,5.1208767E-3,-4.012818E-3,-8.876996E-3,6.856486E-4,-4.064173E-3],"categories":[],"categories_nodes":[],"categories_segments":[],"categories_sizes":[],"default_left":[0,0,0,0,0,0,0,0,0,0,0,0,0,0,0],"id":44,"left_children":[1,3,5,7,9,11,13,-1,-1,-1,-1,-1,-1,-1,-1],"loss_changes":[4.3819126E-1,2.9468566E-2,1.0044396E-1,1.2971448E-2,7.074496E-2,3.42288E-2,2.000019E-2,0E0,0E0,0E0,0E0,0E0,0E0,0E0,0E0],"parents":[2147483647,0,0,1,1,2,2,3,3,4,4,5,5,6,6],"right_children":[2,4,6,8,10,12,14,-1,-1,-1,-1,-1,-1,-1,-1],"split_conditions":[7.6343304E-1,8.3E0,5.6E0,5.7E0,-3.8075477E-1,1.3145425E0,1.35906E0,-3.9038276E-3,3.3195599E-3,1.3742947E-2,5.1208767E-3,-4.012818E-3,-8.876996E-3,6.856486E-4,-4.064173E-3],"split_indices":[3,0,0,0,3,3,3,0,0,0,0,0,0,0,0],"split_type":[0,0,0,0,0,0,0,0,0,0,0,0,0,0,0],"sum_hessian":[1.25E2,4.6E1,7.9E1,1.1E1,3.5E1,4.4E1,3.5E1,1E0,1E1,8E0,2.7E1,2.8E1,1.6E1,2.9E1,6E0],"tree_param":{"num_deleted":"0","num_feature":"5","num_nodes":"15","size_leaf_vector":"1"}},{"base_weights":[1.8975905E-3,7.789476E-2,-3.7028316E-2,5.8759168E-2,1.2822022E-1,-6.188734E-2,9.780836E-3,7.1600676E-3,-2.653054E-3,9.8732E-4,1.7818311E-2,-1.2371297E-2,-4.2849826E-3,-7.12677E-3,1.3009498E-3],"categories":[],"categories_nodes":[],"categories_segments":[],"categories_sizes":[],"default_left":[0,0,0,0,0,0,0,0,0,0,0,0,0,0,0],"id":45,"left_children":[1,3,5,7,9,11,13,-1,-1,-1,-1,-1,-1,-1,-1],"loss_changes":[3.7562492E-1,3.3875227E-2,9.835022E-2,9.62211E-2,1.17718175E-1,3.418702E-2,2.0671206E-2,0E0,0E0,0E0,0E0,0E0,0E0,0E0,0E0],"parents":[2147483647,0,0,1,1,2,2,3,3,4,4,5,5,6,6],"right_children":[2,4,6,8,10,12,14,-1,-1,-1,-1,-1,-1,-1,-1],"split_conditions":[6.567744E-1,3.8565233E-1,6.7E0,5.3728193E-2,9.1E0,4E0,6.955258E-1,7.1600676E-3,-2.653054E-3,9.8732E-4,1.7818311E-2,-1.2371297E-2,-4.2849826E-3,-7.12677E-3,1.3009498E-3],"split_indices":[3,3,2,3,1,2,3,0,0,0,0,0,0,0,0],"split_type":[0,0,0,0,0,0,0,0,0,0,0,0,0,0,0],"sum_hessian":[1.25E2,4.2E1,8.3E1,3.2E1,1E1,5.4E1,2.9E1,2.4E1,8E0,5E0,5E0,3E0,5.1E1,1E0,2.8E1],"tree_param":{"num_deleted":"0","num_feature":"5","num_nodes":"15","size_leaf_vector":"1"}},{"base_weights":[1.7523596E-3,-4.0679954E-2,6.291911E-2,-7.0532374E-2,-8.114428E-3,1.4513215E-1,4.2336565E-2,-1.1629019E-2,-4.820693E-3,3.830392E-3,-1.6397242E-3,4.590454E-3,1.2791796E-2,1.952555E-3,8.588706E-3],"categories":[],"categories_nodes":[],"categories_segments":[],"categories_sizes":[],"default_left":[0,0,0,0,0,0,0,0,0,0,0,0,0,0,0],"id":46,"left_children":[1,3,5,7,9,11,13,-1,-1,-1,-1,-1,-1,-1,-1],"loss_changes":[3.2958582E-1,7.2339654E-2,8.184762E-2,2.1223307E-2,2.6634537E-2,3.781721E-3,4.7510177E-2,0E0,0E0,0E0,0E0,0E0,0E0,0E0,0E0],"parents":[2147483647,0,0,1,1,2,2,3,3,4,4,5,5,6,6],"right_children":[2,4,6,8,10,12,14,-1,-1,-1,-1,-1,-1,-1,-1],"split_conditions":[7.6E0,5.2E0,-3.8075477E-1,4E0,-1.8561448E-1,8.5E0,9.8E0,-1.1629019E-2,-4.820693E-3,3.830392E-3,-1.6397242E-3,4.590454E-3,1.2791796E-2,1.952555E-3,8.588706E-3],"split_indices":[0,2,3,2,3,0,0,0,0,0,0,0,0,0,0],"split_type":[0,0,0,0,0,0,0,0,0,0,0,0,0,0,0],"sum_hessian":[1.25E2,7.4E1,5.1E1,3.8E1,3.6E1,9E0,4.2E1,3E0,3.5E1,6E0,3E1,2E0,7E0,3.4E1,8E0],"tree_param":{"num_deleted":"0","num_feature":"5","num_nodes":"15","size_leaf_vector":"1"}},{"base_weights":[1.7207483E-3,-3.7615564E-2,5.8422722E-2,-6.5311514E-2,-7.4058995E-3,1.3526002E-1,3.9194915E-2,-1.0931272E-2,-4.445745E-3,4.8892334E-4,-4.5736455E-3,4.345652E-3,1.1896381E-2,1.800828E-3,7.977948E-3],"categories":[],"categories_nodes":[],"categories_segments":[],"categories_sizes":[],"default_left":[0,0,0,0,0,0,0,0,0,0,0,0,0,0,0],"id":47,"left_children":[1,3,5,7,9,11,13,-1,-1,-1,-1,-1,-1,-1,-1],"loss_changes":[2.8323385E-1,6.2267713E-2,7.152395E-2,1.9500956E-2,2.5238968E-2,2.8043538E-3,4.1181177E-2,0E0,0E0,0E0,0E0,0E0,0E0,0E0,0E0],"parents":[2147483647,0,0,1,1,2,2,3,3,4,4,5,5,6,6],"right_children":[2,4,6,8,10,12,14,-1,-1,-1,-1,-1,-1,-1,-1],"split_conditions":[7.6E0,5.2E0,-3.8075477E-1,4E0,1.35906E0,8.5E0,9.8E0,-1.0931272E-2,-4.445745E-3,4.8892334E-4,-4.5736455E-3,4.345652E-3,1.1896381E-2,1.800828E-3,7.977948E-3],"split_indices":[0,2,3,2,3,0,0,0,0,0,0,0,0,0,0],"split_type":[0,0,0,0,0,0,0,0,0,0,0,0,0,0,0],"sum_hessian":[1.25E2,7.4E1,5.1E1,3.8E1,3.6E1,9E0,4.2E1,3E0,3.5E1,2.9E1,7E0,2E0,7E0,3.4E1,8E0],"tree_param":{"num_deleted":"0","num_feature":"5","num_nodes":"15","size_leaf_vector":"1"}},{"base_weights":[1.6351995E-3,-3.4865823E-2,5.424946E-2,-6.0480986E-2,-6.92374E-3,1.2606354E-1,3.6286898E-2,-1.0275397E-2,-4.0999744E-3,3.534219E-3,-1.4591549E-3,2.5413132E-3,1.0640912E-2,-2.2086648E-4,4.7622835E-3],"categories":[],"categories_nodes":[],"categories_segments":[],"categories_sizes":[],"default_left":[0,0,0,0,0,0,0,0,0,0,0,0,0,0,0],"id":48,"left_children":[1,3,5,7,9,11,13,-1,-1,-1,-1,-1,-1,-1,-1],"loss_changes":[2.4387121E-1,5.3261824E-2,6.2503725E-2,1.788491E-2,2.2200981E-2,2.3263395E-3,3.9188296E-2,0E0,0E0,0E0,0E0,0E0,0E0,0E0,0E0],"parents":[2147483647,0,0,1,1,2,2,3,3,4,4,5,5,6,6],"right_children":[2,4,6,8,10,12,14,-1,-1,-1,-1,-1,-1,-1,-1],"split_conditions":[7.6E0,5.2E0,-3.8075477E-1,4E0,-1.8561448E-1,7.9E0,3.8565233E-1,-1.0275397E-2,-4.0999744E-3,3.534219E-3,-1.4591549E-3,2.5413132E-3,1.0640912E-2,-2.2086648E-4,4.7622835E-3],"split_indices":[0,2,3,2,3,0,3,0,0,0,0,0,0,0,0],"split_type":[0,0,0,0,0,0,0,0,0,0,0,0,0,0,0],"sum_hessian":[1.25E2,7.4E1,5.1E1,3.8E1,3.6E1,9E0,4.2E1,3E0,3.5E1,6E0,3E1,1E0,8E0,1.6E1,2.6E1],"tree_param":{"num_deleted":"0","num_feature":"5","num_nodes":"15","size_leaf_vector":"1"}},{"base_weights":[1.5474085E-3,5.926863E-2,-2.8018782E-2,4.030677E-2,1.1076615E-1,-6.073238E-2,-7.738518E-3,4.067272E-3,-1.1871414E-2,3.5382586E-4,1.5891876E-2,5.34668E-4,-5.4349503E-3,8.682582E-6,-4.1513396E-3],"categories":[],"categories_nodes":[],"categories_segments":[],"categories_sizes":[],"default_left":[0,0,0,0,0,0,0,0,0,0,0,0,0,0,0],"id":49,"left_children":[1,3,5,7,9,11,13,-1,-1,-1,-1,-1,-1,-1,-1],"loss_changes":[2.1669179E-1,3.7524402E-2,5.525902E-2,7.314131E-2,1.0192406E-1,1.5996337E-2,1.836868E-2,0E0,0E0,0E0,0E0,0E0,0E0,0E0,0E0],"parents":[2147483647,0,0,1,1,2,2,3,3,4,4,5,5,6,6],"right_children":[2,4,6,8,10,12,14,-1,-1,-1,-1,-1,-1,-1,-1],"split_conditions":[6.567744E-1,3.8565233E-1,5E0,3.5021392E-1,9.1E0,1.064944E0,1.35906E0,4.067272E-3,-1.1871414E-2,3.5382586E-4,1.5891876E-2,5.34668E-4,-5.4349503E-3,8.682582E-6,-4.1513396E-3],"split_indices":[3,3,0,3,1,3,3,0,0,0,0,0,0,0,0],"split_type":[0,0,0,0,0,0,0,0,0,0,0,0,0,0,0],"sum_hessian":[1.25E2,4.2E1,8.3E1,3.2E1,1E1,3.1E1,5.2E1,3.1E1,1E0,5E0,5E0,3E0,2.8E1,4.5E1,7E0],"tree_param":{"num_deleted":"0","num_feature":"5","num_nodes":"15","size_leaf_vector":"1"}},{"base_weights":[1.4188479E-3,-2.6921958E-2,5.3030565E-2,-4.734415E-2,1.8548148E-3,1.661849E-1,4.099133E-2,-9.332776E-3,-3.210454E-3,3.232477E-3,-8.851412E-4,3.0411528E-3,1.5698953E-2,-2.365194E-3,4.285756E-3],"categories":[],"categories_nodes":[],"categories_segments":[],"categories_sizes":[],"default_left":[0,0,0,0,0,0,0,0,0,0,0,0,0,0,0],"id":50,"left_children":[1,3,5,7,9,11,13,-1,-1,-1,-1,-1,-1,-1,-1],"loss_changes":[1.8573013E-1,4.827795E-2,5.4490983E-2,1.9318663E-2,1.787865E-2,7.947303E-3,3.8864806E-2,0E0,0E0,0E0,0E0,0E0,0E0,0E0,0E0],"parents":[2147483647,0,0,1,1,2,2,3,3,4,4,5,5,6,6],"right_children":[2,4,6,8,10,12,14,-1,-1,-1,-1,-1,-1,-1,-1],"split_conditions":[8E0,5.7E0,7.9E0,4E0,8.9484227E-1,7.9E0,8.3E0,-9.332776E-3,-3.210454E-3,3.232477E-3,-8.851412E-4,3.0411528E-3,1.5698953E-2,-2.365194E-3,4.285756E-3],"split_indices":[0,0,2,2,3,1,0,0,0,0,0,0,0,0,0],"split_type":[0,0,0,0,0,0,0,0,0,0,0,0,0,0,0],"sum_hessian":[1.25E2,8.1E1,4.4E1,4.7E1,3.4E1,3E0,4.1E1,3E0,4.4E1,8E0,2.6E1,1E0,2E0,6E0,3.5E1],"tree_param":{"num_deleted":"0","num_feature":"5","num_nodes":"15","size_leaf_vector":"1"}},{"base_weights":[1.388404E-3,-2.489249E-2,4.924718E-2,-4.8656676E-2,-3.26304E-3,1.5757501E-1,3.775769E-2,-8.772803E-3,-3.2421562E-3,3.0026415E-3,-1.0697132E-3,2.919502E-3,1.4861666E-2,1.4626237E-3,6.7937085E-3],"categories":[],"categories_nodes":[],"categories_segments":[],"categories_sizes":[],"default_left":[0,0,0,0,0,0,0,0,0,0,0,0,0,0,0],"id":51,"left_children":[1,3,5,7,9,11,13,-1,-1,-1,-1,-1,-1,-1,-1],"loss_changes":[1.5970507E-1,4.198975E-2,5.0058745E-2,1.4897481E-2,1.864667E-2,6.8764538E-3,3.702471E-2,0E0,0E0,0E0,0E0,0E0,0E0,0E0,0E0],"parents":[2147483647,0,0,1,1,2,2,3,3,4,4,5,5,6,6],"right_children":[2,4,6,8,10,12,14,-1,-1,-1,-1,-1,-1,-1,-1],"split_conditions":[8E0,5.2E0,7.9E0,4E0,8.9484227E-1,7.9E0,9.6E0,-8.772803E-3,-3.2421562E-3,3.0026415E-3,-1.0697132E-3,2.919502E-3,1.4861666E-2,1.4626237E-3,6.7937085E-3],"split_indices":[0,2,2,2,3,1,0,0,0,0,0,0,0,0,0],"split_type":[0,0,0,0,0,0,0,0,0,0,0,0,0,0,0],"sum_hessian":[1.25E2,8.1E1,4.4E1,3.8E1,4.3E1,3E0,4.1E1,3E0,3.5E1,8E0,3.5E1,1E0,2E0,3E1,1.1E1],"tree_param":{"num_deleted":"0","num_feature":"5","num_nodes":"15","size_leaf_vector":"1"}},{"base_weights":[1.403854E-3,-3.966714E-2,2.8055098E-2,-2.39769E-2,-6.400506E-2,5.2009325E-2,7.5297744E-4,-5.0628185E-3,-8.3513255E-4,-6.1264485E-3,-1.0781937E-3,5.0717923E-3,-1.9989903E-3,-7.146568E-3,4.5894305E-4],"categories":[],"categories_nodes":[],"categories_segments":[],"categories_sizes":[],"default_left":[0,0,0,0,0,0,0,0,0,0,0,0,0,0,0],"id":52,"left_children":[1,3,5,7,9,11,13,-1,-1,-1,-1,-1,-1,-1,-1],"loss_changes":[1.3903159E-1,1.7558739E-2,5.031894E-2,1.636803E-2,1.1040732E-2,3.7534766E-2,1.7124256E-2,0E0,0E0,0E0,0E0,0E0,0E0,0E0,0E0],"parents":[2147483647,0,0,1,1,2,2,3,3,4,4,5,5,6,6],"right_children":[2,4,6,8,10,12,14,-1,-1,-1,-1,-1,-1,-1,-1],"split_conditions":[5.8E0,1.3145425E0,6.567744E-1,1.0819007E0,2.5E-1,9.9E0,6.955258E-1,-5.0628185E-3,-8.3513255E-4,-6.1264485E-3,-1.0781937E-3,5.0717923E-3,-1.9989903E-3,-7.146568E-3,4.5894305E-4],"split_indices":[1,3,3,3,4,2,3,0,0,0,0,0,0,0,0],"split_type":[0,0,0,0,0,0,0,0,0,0,0,0,0,0,0],"sum_hessian":[1.25E2,4.9E1,7.6E1,3.1E1,1.8E1,4E1,3.6E1,7E0,2.4E1,1.4E1,4E0,3.5E1,5E0,1E0,3.5E1],"tree_param":{"num_deleted":"0","num_feature":"5","num_nodes":"15","size_leaf_vector":"1"}},{"base_weights":[1.1589357E-3,-2.1765497E-2,4.290659E-2,-4.222654E-2,-3.134901E-3,1.467638E-1,3.1993844E-2,-7.979812E-3,-2.7729878E-3,4.611062E-4,-3.5119723E-3,2.5998687E-3,1.392156E-2,7.6290783E-3,1.50266E-3],"categories":[],"categories_nodes":[],"categories_segments":[],"categories_sizes":[],"default_left":[0,0,0,0,0,0,0,0,0,0,0,0,0,0,0],"id":53,"left_children":[1,3,5,7,9,11,13,-1,-1,-1,-1,-1,-1,-1,-1],"loss_changes":[1.21521086E-1,3.1126142E-2,4.6306014E-2,1.3511457E-2,1.6214225E-2,6.8021864E-3,3.3369087E-2,0E0,0E0,0E0,0E0,0E0,0E0,0E0,0E0],"parents":[2147483647,0,0,1,1,2,2,3,3,4,4,5,5,6,6],"right_children":[2,4,6,8,10,12,14,-1,-1,-1,-1,-1,-1,-1,-1],"split_conditions":[8E0,5.2E0,7.9E0,4E0,1.35906E0,7.9E0,-3.8075477E-1,-7.979812E-3,-2.7729878E-3,4.611062E-4,-3.5119723E-3,2.5998687E-3,1.392156E-2,7.6290783E-3,1.50266E-3],"split_indices":[0,2,2,2,3,1,3,0,0,0,0,0,0,0,0],"split_type":[0,0,0,0,0,0,0,0,0,0,0,0,0,0,0],"sum_hessian":[1.25E2,8.1E1,4.4E1,3.8E1,4.3E1,3E0,4.1E1,3E0,3.5E1,3.6E1,7E0,1E0,2E0,6E0,3.5E1],"tree_param":{"num_deleted":"0","num_feature":"5","num_nodes":"15","size_leaf_vector":"1"}},{"base_weights":[1.1601258E-3,-1.7730424E-2,4.537325E-2,-3.533278E-2,2.808707E-3,7.954551E-3,2.764322E-2,-7.50102E-3,-2.3483064E-3,1.0809873E-3,-1.7686433E-3,-1.3976647E-3,6.4360015E-3],"categories":[],"categories_nodes":[],"categories_segments":[],"categories_sizes":[],"default_left":[0,0,0,0,0,0,0,0,0,0,0,0,0],"id":54,"left_children":[1,3,5,7,9,-1,11,-1,-1,-1,-1,-1,-1],"loss_changes":[1.0604098E-1,3.227604E-2,3.3672914E-2,1.4016494E-2,1.1500122E-2,0E0,7.287535E-2,0E0,0E0,0E0,0E0,0E0,0E0],"parents":[2147483647,0,0,1,1,2,2,3,3,4,4,6,6],"right_children":[2,4,6,8,10,-1,12,-1,-1,-1,-1,-1,-1],"split_conditions":[8.3E0,5.7E0,-3.8075477E-1,4E0,7.8E0,7.954551E-3,3.8565233E-1,-7.50102E-3,-2.3483064E-3,1.0809873E-3,-1.7686433E-3,-1.3976647E-3,6.4360015E-3],"split_indices":[0,0,3,2,2,0,3,0,0,0,0,0,0],"split_type":[0,0,0,0,0,0,0,0,0,0,0,0,0],"sum_hessian":[1.25E2,8.8E1,3.7E1,4.7E1,4.1E1,8E0,2.9E1,3E0,4.4E1,2.9E1,1.2E1,1.6E1,1.3E1],"tree_param":{"num_deleted":"0","num_feature":"5","num_nodes":"13","size_leaf_vector":"1"}},{"base_weights":[1.0868898E-3,-1.8897789E-2,3.7479263E-2,-4.1010126E-2,-6.0248105E-3,1.3490546E-1,2.7308214E-2,-8.729067E-3,-2.3521492E-3,7.9798466E-4,-1.9474701E-3,2.1776962E-3,1.2938118E-2,8.6092856E-4,6.3344953E-3],"categories":[],"categories_nodes":[],"categories_segments":[],"categories_sizes":[],"default_left":[0,0,0,0,0,0,0,0,0,0,0,0,0,0,0],"id":55,"left_children":[1,3,5,7,9,11,13,-1,-1,-1,-1,-1,-1,-1,-1],"loss_changes":[9.23468E-2,2.3094354E-2,4.0907666E-2,2.0508658E-2,1.5776593E-2,7.1504116E-3,3.5197407E-2,0E0,0E0,0E0,0E0,0E0,0E0,0E0,0E0],"parents":[2147483647,0,0,1,1,2,2,3,3,4,4,5,5,6,6],"right_children":[2,4,6,8,10,12,14,-1,-1,-1,-1,-1,-1,-1,-1],"split_conditions":[8E0,5E0,7.9E0,1.0819007E0,1.2095093E0,7.9E0,9.8E0,-8.729067E-3,-2.3521492E-3,7.9798466E-4,-1.9474701E-3,2.1776962E-3,1.2938118E-2,8.6092856E-4,6.3344953E-3],"split_indices":[0,2,2,3,3,1,0,0,0,0,0,0,0,0,0],"split_type":[0,0,0,0,0,0,0,0,0,0,0,0,0,0,0],"sum_hessian":[1.25E2,8.1E1,4.4E1,2.9E1,5.2E1,3E0,4.1E1,3E0,2.6E1,2.8E1,2.4E1,1E0,2E0,3.2E1,9E0],"tree_param":{"num_deleted":"0","num_feature":"5","num_nodes":"15","size_leaf_vector":"1"}},{"base_weights":[1.0799529E-3,3.6474638E-2,-1.7051611E-2,2.757825E-2,1.4590041E-1,-3.745866E-2,-4.4086473E-3,8.3351764E-4,5.4542604E-3,1.5519332E-3,1.5956115E-2,1.6434764E-3,-3.5333817E-3,-2.2488572E-3,6.051879E-4],"categories":[],"categories_nodes":[],"categories_segments":[],"categories_sizes":[],"default_left":[0,0,0,0,0,0,0,0,0,0,0,0,0,0,0],"id":56,"left_children":[1,3,5,7,9,11,13,-1,-1,-1,-1,-1,-1,-1,-1],"loss_changes":[8.148384E-2,3.7836574E-2,2.1507325E-2,2.7852993E-2,1.6453631E-2,1.3358988E-2,1.5253875E-2,0E0,0E0,0E0,0E0,0E0,0E0,0E0,0E0],"parents":[2147483647,0,0,1,1,2,2,3,3,4,4,5,5,6,6],"right_children":[2,4,6,8,10,12,14,-1,-1,-1,-1,-1,-1,-1,-1],"split_conditions":[6.567744E-1,4.8853374E-1,5E0,9.6E0,8.7E0,1.064944E0,1.0941571E0,8.3351764E-4,5.4542604E-3,1.5519332E-3,1.5956115E-2,1.6434764E-3,-3.5333817E-3,-2.2488572E-3,6.051879E-4],"split_indices":[3,3,0,0,0,3,3,0,0,0,0,0,0,0,0],"split_type":[0,0,0,0,0,0,0,0,0,0,0,0,0,0,0],"sum_hessian":[1.25E2,4.2E1,8.3E1,4E1,2E0,3.1E1,5.2E1,2.9E1,1.1E1,1E0,1E0,3E0,2.8E1,1.7E1,3.5E1],"tree_param":{"num_deleted":"0","num_feature":"5","num_nodes":"15","size_leaf_vector":"1"}},{"base_weights":[1.1543925E-3,-1.8797448E-2,2.9908886E-2,-8.372271E-2,-1.4929414E-2,8.3202936E-2,1.6819365E-2,-8.665155E-3,-3.9790152E-4,1.2798721E-3,-1.6615064E-3,2.503357E-3,7.381534E-3,-1.7742382E-3,3.2600248E-3],"categories":[],"categories_nodes":[],"categories_segments":[],"categories_sizes":[],"default_left":[0,0,0,0,0,0,0,0,0,0,0,0,0,0,0],"id":57,"left_children":[1,3,5,7,9,11,13,-1,-1,-1,-1,-1,-1,-1,-1],"loss_changes":[7.284905E-2,1.7585056E-2,3.4875445E-2,7.2075576E-3,1.3335494E-2,1.8190965E-3,4.1033216E-2,0E0,0E0,0E0,0E0,0E0,0E0,0E0,0E0],"parents":[2147483647,0,0,1,1,2,2,3,3,4,4,5,5,6,6],"right_children":[2,4,6,8,10,12,14,-1,-1,-1,-1,-1,-1,-1,-1],"split_conditions":[7.6E0,4E0,-3.8075477E-1,4E0,1.064944E0,8.5E0,3.8565233E-1,-8.665155E-3,-3.9790152E-4,1.2798721E-3,-1.6615064E-3,2.503357E-3,7.381534E-3,-1.7742382E-3,3.2600248E-3],"split_indices":[0,2,3,1,3,0,3,0,0,0,0,0,0,0,0],"split_type":[0,0,0,0,0,0,0,0,0,0,0,0,0,0,0],"sum_hessian":[1.25E2,7.4E1,5.1E1,3E0,7.1E1,9E0,4.2E1,2E0,1E0,1.1E1,6E1,2E0,7E0,1.6E1,2.6E1],"tree_param":{"num_deleted":"0","num_feature":"5","num_nodes":"15","size_leaf_vector":"1"}},{"base_weights":[1.0772281E-3,-1.3624395E-2,3.5481628E-2,-2.7217438E-2,2.2349018E-3,4.6159454E-2,-2.9160023E-2,-6.343255E-3,-1.7587098E-3,1.0137443E-3,-1.761774E-3,6.6588717E-3,1.9070226E-3,-6.3656108E-3,1.2750053E-3],"categories":[],"categories_nodes":[],"categories_segments":[],"categories_sizes":[],"default_left":[0,0,0,0,0,0,0,0,0,0,0,0,0,0,0],"id":58,"left_children":[1,3,5,7,9,11,13,-1,-1,-1,-1,-1,-1,-1,-1],"loss_changes":[6.421429E-2,1.9247103E-2,2.7574845E-2,1.133826E-2,1.0912147E-2,2.5326908E-2,1.4908401E-2,0E0,0E0,0E0,0E0,0E0,0E0,0E0,0E0],"parents":[2147483647,0,0,1,1,2,2,3,3,4,4,5,5,6,6],"right_children":[2,4,6,8,10,12,14,-1,-1,-1,-1,-1,-1,-1,-1],"split_conditions":[8.3E0,5.7E0,9.9E0,4E0,7.8E0,5.3728193E-2,9.8E0,-6.343255E-3,-1.7587098E-3,1.0137443E-3,-1.761774E-3,6.6588717E-3,1.9070226E-3,-6.3656108E-3,1.2750053E-3],"split_indices":[0,0,2,2,2,3,0,0,0,0,0,0,0,0,0],"split_type":[0,0,0,0,0,0,0,0,0,0,0,0,0,0,0],"sum_hessian":[1.25E2,8.8E1,3.7E1,4.7E1,4.1E1,3.2E1,5E0,3E0,4.4E1,2.9E1,1.2E1,1.1E1,2.1E1,2E0,3E0],"tree_param":{"num_deleted":"0","num_feature":"5","num_nodes":"15","size_leaf_vector":"1"}},{"base_weights":[9.483591E-4,-1.4551974E-2,2.9172335E-2,-7.4533165E-2,-1.133075E-2,1.2045503E-1,1.9784167E-2,-7.864704E-3,-1.2825012E-4,-5.742164E-4,-4.2417906E-3,1.6907882E-3,1.1721344E-2,4.3082843E-4,5.225746E-3],"categories":[],"categories_nodes":[],"categories_segments":[],"categories_sizes":[],"default_left":[0,0,0,0,0,0,0,0,0,0,0,0,0,0,0],"id":59,"left_children":[1,3,5,7,9,11,13,-1,-1,-1,-1,-1,-1,-1,-1],"loss_changes":[5.5547126E-2,1.4998939E-2,3.6180876E-2,6.7782328E-3,1.3298048E-2,7.257223E-3,2.7187118E-2,0E0,0E0,0E0,0E0,0E0,0E0,0E0,0E0],"parents":[2147483647,0,0,1,1,2,2,3,3,4,4,5,5,6,6],"right_children":[2,4,6,8,10,12,14,-1,-1,-1,-1,-1,-1,-1,-1],"split_conditions":[8E0,4E0,7.9E0,4E0,1.4587022E0,7.9E0,9.8E0,-7.864704E-3,-1.2825012E-4,-5.742164E-4,-4.2417906E-3,1.6907882E-3,1.1721344E-2,4.3082843E-4,5.225746E-3],"split_indices":[0,2,2,1,3,1,0,0,0,0,0,0,0,0,0],"split_type":[0,0,0,0,0,0,0,0,0,0,0,0,0,0,0],"sum_hessian":[1.25E2,8.1E1,4.4E1,3E0,7.8E1,3E0,4.1E1,2E0,1E0,7.2E1,6E0,1E0,2E0,3.2E1,9E0],"tree_param":{"num_deleted":"0","num_feature":"5","num_nodes":"15","size_leaf_vector":"1"}},{"base_weights":[9.220214E-4,2.6728345E-2,-1.425072E-2,1.1711944E-2,5.798254E-2,-7.056874E-2,-1.1140034E-2,1.7114817E-3,-1.1923943E-2,-6.16703E-4,1.2624346E-2,-7.4452525E-3,-1.2311935E-4,-2.5945092E-3,-2.884901E-4],"categories":[],"categories_nodes":[],"categories_segments":[],"categories_sizes":[],"default_left":[0,0,0,0,0,0,0,0,0,0,0,0,0,0,0],"id":60,"left_children":[1,3,5,7,9,11,13,-1,-1,-1,-1,-1,-1,-1,-1],"loss_changes":[4.9716532E-2,2.1379214E-2,1.3228875E-2,5.455063E-2,9.9577874E-2,6.0686003E-3,1.2234382E-2,0E0,0E0,0E0,0E0,0E0,0E0,0E0,0E0],"parents":[2147483647,0,0,1,1,2,2,3,3,4,4,5,5,6,6],"right_children":[2,4,6,8,10,12,14,-1,-1,-1,-1,-1,-1,-1,-1],"split_conditions":[7.6343304E-1,3.8565233E-1,4E0,3.5021392E-1,9.1E0,4E0,1.0965233E0,1.7114817E-3,-1.1923943E-2,-6.16703E-4,1.2624346E-2,-7.4452525E-3,-1.2311935E-4,-2.5945092E-3,-2.884901E-4],"split_indices":[3,3,2,3,1,1,3,0,0,0,0,0,0,0,0],"split_type":[0,0,0,0,0,0,0,0,0,0,0,0,0,0,0],"sum_hessian":[1.25E2,4.6E1,7.9E1,3.2E1,1.4E1,3E0,7.6E1,3.1E1,1E0,9E0,5E0,2E0,1E0,1.9E1,5.7E1],"tree_param":{"num_deleted":"0","num_feature":"5","num_nodes":"15","size_leaf_vector":"1"}},{"base_weights":[7.79466E-4,-2.2665596E-2,1.5993409E-2,-1.1277609E-2,-4.065244E-2,5.286959E-2,7.6768473E-3,-3.9944695E-3,1.2340317E-4,-4.322904E-3,6.103706E-4,1.5015629E-3,6.0878755E-3,1.5033994E-6,4.3579186E-3],"categories":[],"categories_nodes":[],"categories_segments":[],"categories_sizes":[],"default_left":[0,0,0,0,0,0,0,0,0,0,0,0,0,0,0],"id":61,"left_children":[1,3,5,7,9,11,13,-1,-1,-1,-1,-1,-1,-1,-1],"loss_changes":[4.530567E-2,9.783234E-3,2.3208726E-2,1.5934318E-2,1.2690086E-2,9.661138E-3,2.2934979E-2,0E0,0E0,0E0,0E0,0E0,0E0,0E0,0E0],"parents":[2147483647,0,0,1,1,2,2,3,3,4,4,5,5,6,6],"right_children":[2,4,6,8,10,12,14,-1,-1,-1,-1,-1,-1,-1,-1],"split_conditions":[5.8E0,1.3145425E0,-3.8075477E-1,1.0819007E0,2.5E-1,8.5E0,9.8E0,-3.9944695E-3,1.2340317E-4,-4.322904E-3,6.103706E-4,1.5015629E-3,6.0878755E-3,1.5033994E-6,4.3579186E-3],"split_indices":[1,3,3,3,4,0,0,0,0,0,0,0,0,0,0],"split_type":[0,0,0,0,0,0,0,0,0,0,0,0,0,0,0],"sum_hessian":[1.25E2,4.9E1,7.6E1,3.1E1,1.8E1,1.3E1,6.3E1,7E0,2.4E1,1.4E1,4E0,6E0,7E0,5.5E1,8E0],"tree_param":{"num_deleted":"0","num_feature":"5","num_nodes":"15","size_leaf_vector":"1"}},{"base_weights":[7.516354E-4,-2.1010885E-2,1.4873381E-2,-3.951788E-5,-2.9997485E-2,5.3631857E-2,6.8928646E-3,-3.0256584E-3,5.5386093E-3,-6.365242E-3,-1.8291246E-3,1.7472585E-3,5.661697E-3,-1.0334484E-5,4.047996E-3],"categories":[],"categories_nodes":[],"categories_segments":[],"categories_sizes":[],"default_left":[0,0,0,0,0,0,0,0,0,0,0,0,0,0,0],"id":62,"left_children":[1,3,5,7,9,11,13,-1,-1,-1,-1,-1,-1,-1,-1],"loss_changes":[3.903543E-2,9.421878E-3,2.3447398E-2,4.4493392E-2,1.0556456E-2,5.537737E-3,1.995589E-2,0E0,0E0,0E0,0E0,0E0,0E0,0E0,0E0],"parents":[2147483647,0,0,1,1,2,2,3,3,4,4,5,5,6,6],"right_children":[2,4,6,8,10,12,14,-1,-1,-1,-1,-1,-1,-1,-1],"split_conditions":[5.8E0,1.1581007E0,-3.8075477E-1,1.0965233E0,1.1771725E0,8.5E0,9.8E0,-3.0256584E-3,5.5386093E-3,-6.365242E-3,-1.8291246E-3,1.7472585E-3,5.661697E-3,-1.0334484E-5,4.047996E-3],"split_indices":[2,3,3,3,3,0,0,0,0,0,0,0,0,0,0],"split_type":[0,0,0,0,0,0,0,0,0,0,0,0,0,0,0],"sum_hessian":[1.25E2,4.9E1,7.6E1,1.5E1,3.4E1,1.2E1,6.4E1,1E1,5E0,3E0,3.1E1,5E0,7E0,5.6E1,8E0],"tree_param":{"num_deleted":"0","num_feature":"5","num_nodes":"15","size_leaf_vector":"1"}},{"base_weights":[7.3730754E-4,-1.9533444E-2,1.3890558E-2,-6.9390773E-3,-1.639174E-2,4.594292E-2,6.6620633E-3,-8.475451E-4,-4.4939388E-3,1.333313E-3,5.2653598E-3,-1.8122005E-3,1.2878565E-3],"categories":[],"categories_nodes":[],"categories_segments":[],"categories_sizes":[],"default_left":[0,0,0,0,0,0,0,0,0,0,0,0,0],"id":63,"left_children":[1,3,5,-1,7,9,11,-1,-1,-1,-1,-1,-1],"loss_changes":[3.3866238E-2,9.13512E-3,1.753408E-2,0E0,1.070604E-2,7.048879E-3,1.8068122E-2,0E0,0E0,0E0,0E0,0E0,0E0],"parents":[2147483647,0,0,1,1,2,2,4,4,5,5,6,6],"right_children":[2,4,6,-1,8,10,12,-1,-1,-1,-1,-1,-1],"split_conditions":[5.8E0,3.8E0,-3.8075477E-1,-6.9390773E-3,1.4587022E0,8.5E0,3.3793753E-1,-8.475451E-4,-4.4939388E-3,1.333313E-3,5.2653598E-3,-1.8122005E-3,1.2878565E-3],"split_indices":[1,1,3,0,3,0,3,0,0,0,0,0,0],"split_type":[0,0,0,0,0,0,0,0,0,0,0,0,0],"sum_hessian":[1.25E2,4.9E1,7.6E1,1E0,4.8E1,1.3E1,6.3E1,4.3E1,5E0,6E0,7E0,1.5E1,4.8E1],"tree_param":{"num_deleted":"0","num_feature":"5","num_nodes":"13","size_leaf_vector":"1"}},{"base_weights":[6.290239E-4,-1.2357737E-2,1.9347833E-2,1.763753E-2,-1.778876E-2,1.3557453E-2,8.752391E-3,7.896576E-3,1.03534345E-4,-9.165802E-3,-8.920531E-4,4.457367E-3,2.3551568E-4],"categories":[],"categories_nodes":[],"categories_segments":[],"categories_sizes":[],"default_left":[0,0,0,0,0,0,0,0,0,0,0,0,0],"id":64,"left_children":[1,3,5,7,9,11,-1,-1,-1,-1,-1,-1,-1],"loss_changes":[3.086928E-2,1.2531624E-2,2.5632905E-2,1.5771655E-2,3.983987E-2,2.2209048E-2,0E0,0E0,0E0,0E0,0E0,0E0,0E0],"parents":[2147483647,0,0,1,1,2,2,3,3,4,4,5,5],"right_children":[2,4,6,8,10,12,-1,-1,-1,-1,-1,-1,-1],"split_conditions":[7.6E0,1.064944E0,1.0316157E0,4.9E0,1.0941571E0,-3.8075477E-1,8.752391E-3,7.896576E-3,1.03534345E-4,-9.165802E-3,-8.920531E-4,4.457367E-3,2.3551568E-4],"split_indices":[0,3,3,1,3,3,0,0,0,0,0,0,0],"split_type":[0,0,0,0,0,0,0,0,0,0,0,0,0],"sum_hessian":[1.25E2,7.4E1,5.1E1,1.1E1,6.3E1,4.9E1,2E0,1E0,1E1,3E0,6E1,9E0,4E1],"tree_param":{"num_deleted":"0","num_feature":"5","num_nodes":"13","size_leaf_vector":"1"}},{"base_weights":[6.6909334E-4,1.32754175E-2,-1.6944813E-2,5.66536E-3,6.7607455E-2,-2.2539565E-2,2.4509875E-3,1.0899008E-3,-6.095142E-3,1.1900978E-2,1.789093E-4,-5.8789537E-3,-1.4008025E-3],"categories":[],"categories_nodes":[],"categories_segments":[],"categories_sizes":[],"default_left":[0,0,0,0,0,0,0,0,0,0,0,0,0],"id":65,"left_children":[1,3,5,7,9,11,-1,-1,-1,-1,-1,-1,-1],"loss_changes":[2.8202822E-2,3.0213755E-2,1.4799702E-2,4.40325E-2,4.74139E-2,1.1012832E-2,0E0,0E0,0E0,0E0,0E0,0E0,0E0],"parents":[2147483647,0,0,1,1,2,2,3,3,4,4,5,5],"right_children":[2,4,6,8,10,12,-1,-1,-1,-1,-1,-1,-1],"split_conditions":[1.1581007E0,1.0965233E0,7.2E0,1.064944E0,1.1353295E0,1.1771725E0,2.4509875E-3,1.0899008E-3,-6.095142E-3,1.1900978E-2,1.789093E-4,-5.8789537E-3,-1.4008025E-3],"split_indices":[3,3,0,3,3,3,0,0,0,0,0,0,0],"split_type":[0,0,0,0,0,0,0,0,0,0,0,0,0],"sum_hessian":[1.25E2,7.3E1,5.2E1,6.5E1,8E0,4.7E1,5E0,6E1,5E0,3E0,5E0,3E0,4.4E1],"tree_param":{"num_deleted":"0","num_feature":"5","num_nodes":"13","size_leaf_vector":"1"}},{"base_weights":[6.333419E-4,-3.5131446E-3,4.90839E-2,3.2809198E-2,-9.176324E-3,-5.6419373E-3,1.0606651E-2,-1.6811943E-3,3.7477347E-3,-7.7322195E-3,-1.3706367E-4,2.878704E-3,-3.6685753E-3],"categories":[],"categories_nodes":[],"categories_segments":[],"categories_sizes":[],"default_left":[0,0,0,0,0,0,0,0,0,0,0,0,0],"id":66,"left_children":[1,3,5,7,9,11,-1,-1,-1,-1,-1,-1,-1],"loss_changes":[2.5485788E-2,2.4367962E-2,4.644368E-2,1.3073366E-2,6.642398E-2,1.3368043E-2,0E0,0E0,0E0,0E0,0E0,0E0,0E0],"parents":[2147483647,0,0,1,1,2,2,3,3,4,4,5,5],"right_children":[2,4,6,8,10,12,-1,-1,-1,-1,-1,-1,-1],"split_conditions":[9.8E0,-1.8561448E-1,6.4687645E-3,5.9E0,3.3793753E-1,9.9E0,1.0606651E-2,-1.6811943E-3,3.7477347E-3,-7.7322195E-3,-1.3706367E-4,2.878704E-3,-3.6685753E-3],"split_indices":[0,3,3,1,3,0,0,0,0,0,0,0,0],"split_type":[0,0,0,0,0,0,0,0,0,0,0,0,0],"sum_hessian":[1.25E2,1.16E2,9E0,1.5E1,1.01E2,6E0,3E0,3E0,1.2E1,7E0,9.4E1,3E0,3E0],"tree_param":{"num_deleted":"0","num_feature":"5","num_nodes":"13","size_leaf_vector":"1"}},{"base_weights":[6.1443495E-4,-8.381876E-3,2.1668572E-2,-6.5643117E-3,-6.612263E-3,1.0120392E-4,5.8633976E-2,9.176108E-6,-1.9644492E-3,9.705734E-4,-1.1545677E-2,-2.7850256E-4,1.1362762E-2],"categories":[],"categories_nodes":[],"categories_segments":[],"categories_sizes":[],"default_left":[0,0,0,0,0,0,0,0,0,0,0,0,0],"id":67,"left_children":[1,3,5,-1,7,9,11,-1,-1,-1,-1,-1,-1],"loss_changes":[2.4047228E-2,1.1060454E-2,3.0289432E-2,0E0,1.0624793E-2,4.5189373E-2,7.302073E-2,0E0,0E0,0E0,0E0,0E0,0E0],"parents":[2147483647,0,0,1,1,2,2,4,4,5,5,6,6],"right_children":[2,4,6,-1,8,10,12,-1,-1,-1,-1,-1,-1],"split_conditions":[8.3E0,3.8E0,3.8565233E-1,-6.5643117E-3,1.3418189E0,3.5021392E-1,9.1E0,9.176108E-6,-1.9644492E-3,9.705734E-4,-1.1545677E-2,-2.7850256E-4,1.1362762E-2],"split_indices":[0,1,3,0,3,3,1,0,0,0,0,0,0],"split_type":[0,0,0,0,0,0,0,0,0,0,0,0,0],"sum_hessian":[1.25E2,8.8E1,3.7E1,1E0,8.7E1,2.4E1,1.3E1,6.4E1,2.3E1,2.3E1,1E0,8E0,5E0],"tree_param":{"num_deleted":"0","num_feature":"5","num_nodes":"13","size_leaf_vector":"1"}},{"base_weights":[5.016838E-4,-3.663148E-3,4.037285E-2,5.426808E-5,-4.7452077E-2,-8.148617E-5,9.704151E-3,-4.628183E-4,1.214941E-2,-4.3310982E-4,-1.0377909E-2,2.3280208E-3,-3.5066986E-3],"categories":[],"categories_nodes":[],"categories_segments":[],"categories_sizes":[],"default_left":[0,0,0,0,0,0,0,0,0,0,0,0,0],"id":68,"left_children":[1,3,5,7,9,11,-1,-1,-1,-1,-1,-1,-1],"loss_changes":[2.1071035E-2,1.8722467E-2,3.929705E-2,9.573556E-2,3.042472E-2,1.2766475E-2,0E0,0E0,0E0,0E0,0E0,0E0,0E0],"parents":[2147483647,0,0,1,1,2,2,3,3,4,4,5,5],"right_children":[2,4,6,8,10,12,-1,-1,-1,-1,-1,-1,-1],"split_conditions":[9.6E0,9.4E0,3.679392E-2,9.3E0,9.6E0,9.9E0,9.704151E-3,-4.628183E-4,1.214941E-2,-4.3310982E-4,-1.0377909E-2,2.3280208E-3,-3.5066986E-3],"split_indices":[0,0,3,2,2,0,0,0,0,0,0,0,0],"split_type":[0,0,0,0,0,0,0,0,0,0,0,0,0],"sum_hessian":[1.25E2,1.14E2,1.1E1,1.06E2,8E0,8E0,3E0,1.03E2,3E0,6E0,2E0,5E0,3E0],"tree_param":{"num_deleted":"0","num_feature":"5","num_nodes":"13","size_leaf_vector":"1"}},{"base_weights":[5.3618633E-4,1.1026054E-2,-1.4120161E-2,3.626231E-3,6.4066306E-2,-1.926803E-2,2.3532931E-3,8.6955837E-4,-5.6494265E-3,1.1222372E-2,2.0637512E-4,-5.49077E-3,-1.1561369E-3],"categories":[],"categories_nodes":[],"categories_segments":[],"categories_sizes":[],"default_left":[0,0,0,0,0,0,0,0,0,0,0,0,0],"id":69,"left_children":[1,3,5,7,9,11,-1,-1,-1,-1,-1,-1,-1],"loss_changes":[1.9527325E-2,2.8811825E-2,1.2445118E-2,3.626028E-2,4.1813027E-2,1.042085E-2,0E0,0E0,0E0,0E0,0E0,0E0,0E0],"parents":[2147483647,0,0,1,1,2,2,3,3,4,4,5,5],"right_children":[2,4,6,8,10,12,-1,-1,-1,-1,-1,-1,-1],"split_conditions":[1.1581007E0,1.0965233E0,7.2E0,1.064944E0,1.1353295E0,1.1771725E0,2.3532931E-3,8.6955837E-4,-5.6494265E-3,1.1222372E-2,2.0637512E-4,-5.49077E-3,-1.1561369E-3],"split_indices":[3,3,0,3,3,3,0,0,0,0,0,0,0],"split_type":[0,0,0,0,0,0,0,0,0,0,0,0,0],"sum_hessian":[1.25E2,7.3E1,5.2E1,6.5E1,8E0,4.7E1,5E0,6E1,5E0,3E0,5E0,3E0,4.4E1],"tree_param":{"num_deleted":"0","num_feature":"5","num_nodes":"13","size_leaf_vector":"1"}},{"base_weights":[5.119396E-4,-3.3058187E-3,3.705613E-2,2.85084E-4,-4.563035E-2,-9.789997E-4,1.13371134E-1,-4.1377524E-4,1.13682365E-2,-4.6306066E-4,-9.870809E-3,2.1148426E-3,-3.348484E-3,4.130376E-3,1.1943817E-2],"categories":[],"categories_nodes":[],"categories_segments":[],"categories_sizes":[],"default_left":[0,0,0,0,0,0,0,0,0,0,0,0,0,0,0],"id":70,"left_children":[1,3,5,7,9,11,13,-1,-1,-1,-1,-1,-1,-1,-1],"loss_changes":[1.7701626E-2,1.7491085E-2,3.4942806E-2,8.354647E-2,2.7167028E-2,1.1192115E-2,1.1644363E-3,0E0,0E0,0E0,0E0,0E0,0E0,0E0,0E0],"parents":[2147483647,0,0,1,1,2,2,3,3,4,4,5,5,6,6],"right_children":[2,4,6,8,10,12,14,-1,-1,-1,-1,-1,-1,-1,-1],"split_conditions":[9.6E0,9.4E0,3.679392E-2,9.3E0,9.6E0,9.9E0,9.9E0,-4.1377524E-4,1.13682365E-2,-4.6306066E-4,-9.870809E-3,2.1148426E-3,-3.348484E-3,4.130376E-3,1.1943817E-2],"split_indices":[0,0,3,2,2,0,1,0,0,0,0,0,0,0,0],"split_type":[0,0,0,0,0,0,0,0,0,0,0,0,0,0,0],"sum_hessian":[1.25E2,1.14E2,1.1E1,1.06E2,8E0,8E0,3E0,1.03E2,3E0,6E0,2E0,5E0,3E0,2E0,1E0],"tree_param":{"num_deleted":"0","num_feature":"5","num_nodes":"15","size_leaf_vector":"1"}},{"base_weights":[5.937701E-4,-1.4036521E-2,9.475545E-3,-6.220436E-3,-1.1026428E-2,3.7646294E-2,3.8681529E-3,-4.4914382E-4,-3.765888E-3,1.0833358E-3,4.081516E-3,-1.6527795E-3,9.072648E-4],"categories":[],"categories_nodes":[],"categories_segments":[],"categories_sizes":[],"default_left":[0,0,0,0,0,0,0,0,0,0,0,0,0],"id":71,"left_children":[1,3,5,-1,7,9,11,-1,-1,-1,-1,-1,-1],"loss_changes":[1.6505817E-2,8.349031E-3,1.2333568E-2,0E0,8.90504E-3,3.4995712E-3,1.2514634E-2,0E0,0E0,0E0,0E0,0E0,0E0],"parents":[2147483647,0,0,1,1,2,2,4,4,5,5,6,6],"right_children":[2,4,6,-1,8,10,12,-1,-1,-1,-1,-1,-1],"split_conditions":[5.7E0,3.8E0,-3.8075477E-1,-6.220436E-3,1.4587022E0,8.5E0,3.3793753E-1,-4.4914382E-4,-3.765888E-3,1.0833358E-3,4.081516E-3,-1.6527795E-3,9.072648E-4],"split_indices":[2,1,3,0,3,0,3,0,0,0,0,0,0],"split_type":[0,0,0,0,0,0,0,0,0,0,0,0,0],"sum_hessian":[1.25E2,4.7E1,7.8E1,1E0,4.6E1,1.2E1,6.6E1,4.1E1,5E0,5E0,7E0,1.5E1,5.1E1],"tree_param":{"num_deleted":"0","num_feature":"5","num_nodes":"13","size_leaf_vector":"1"}},{"base_weights":[4.984992E-4,-2.872793E-3,3.989277E-2,2.7879894E-2,-7.6685795E-3,-5.2501136E-3,1.0891962E-1,-1.5535164E-3,3.2231023E-3,-6.807909E-3,-8.5393E-5,2.313404E-3,-3.04842E-3,3.9299773E-3,1.1532173E-2],"categories":[],"categories_nodes":[],"categories_segments":[],"categories_sizes":[],"default_left":[0,0,0,0,0,0,0,0,0,0,0,0,0,0,0],"id":72,"left_children":[1,3,5,7,9,11,13,-1,-1,-1,-1,-1,-1,-1,-1],"loss_changes":[1.6848613E-2,1.7469347E-2,3.173255E-2,1.0173181E-2,5.2044444E-2,8.959994E-3,1.3454705E-3,0E0,0E0,0E0,0E0,0E0,0E0,0E0,0E0],"parents":[2147483647,0,0,1,1,2,2,3,3,4,4,5,5,6,6],"right_children":[2,4,6,8,10,12,14,-1,-1,-1,-1,-1,-1,-1,-1],"split_conditions":[9.8E0,-1.8561448E-1,6.4687645E-3,5.9E0,3.3793753E-1,9.9E0,9.9E0,-1.5535164E-3,3.2231023E-3,-6.807909E-3,-8.5393E-5,2.313404E-3,-3.04842E-3,3.9299773E-3,1.1532173E-2],"split_indices":[0,3,3,1,3,0,1,0,0,0,0,0,0,0,0],"split_type":[0,0,0,0,0,0,0,0,0,0,0,0,0,0,0],"sum_hessian":[1.25E2,1.16E2,9E0,1.5E1,1.01E2,6E0,3E0,3E0,1.2E1,7E0,9.4E1,3E0,3E0,2E0,1E0],"tree_param":{"num_deleted":"0","num_feature":"5","num_nodes":"15","size_leaf_vector":"1"}},{"base_weights":[5.3404627E-4,-2.687605E-3,3.8173962E-2,2.5753617E-2,-7.122624E-3,-4.9352646E-3,1.0407162E-1,-1.4603043E-3,2.985065E-3,-6.3313292E-3,-7.863135E-5,2.1745872E-3,-2.8655243E-3,3.7203724E-3,1.10709E-2],"categories":[],"categories_nodes":[],"categories_segments":[],"categories_sizes":[],"default_left":[0,0,0,0,0,0,0,0,0,0,0,0,0,0,0],"id":73,"left_children":[1,3,5,7,9,11,13,-1,-1,-1,-1,-1,-1,-1,-1],"loss_changes":[1.5381694E-2,1.4941505E-2,2.8921593E-2,8.820508E-3,4.5024298E-2,7.917039E-3,1.4659539E-3,0E0,0E0,0E0,0E0,0E0,0E0,0E0,0E0],"parents":[2147483647,0,0,1,1,2,2,3,3,4,4,5,5,6,6],"right_children":[2,4,6,8,10,12,14,-1,-1,-1,-1,-1,-1,-1,-1],"split_conditions":[9.8E0,-1.8561448E-1,6.4687645E-3,5.9E0,3.3793753E-1,9.9E0,9.9E0,-1.4603043E-3,2.985065E-3,-6.3313292E-3,-7.863135E-5,2.1745872E-3,-2.8655243E-3,3.7203724E-3,1.10709E-2],"split_indices":[0,3,3,1,3,0,1,0,0,0,0,0,0,0,0],"split_type":[0,0,0,0,0,0,0,0,0,0,0,0,0,0,0],"sum_hessian":[1.25E2,1.16E2,9E0,1.5E1,1.01E2,6E0,3E0,3E0,1.2E1,7E0,9.4E1,3E0,3E0,2E0,1E0],"tree_param":{"num_deleted":"0","num_feature":"5","num_nodes":"15","size_leaf_vector":"1"}},{"base_weights":[5.644617E-4,-4.343339E-3,2.531029E-2,2.7359247E-2,-9.869691E-3,-5.0092023E-3,9.86676E-3,3.7313788E-3,-5.739822E-3,-1.1113281E-2,-5.513865E-4,-6.7910003E-3,1.4536775E-3],"categories":[],"categories_nodes":[],"categories_segments":[],"categories_sizes":[],"default_left":[0,0,0,0,0,0,0,0,0,0,0,0,0],"id":74,"left_children":[1,3,5,7,9,11,-1,-1,-1,-1,-1,-1,-1],"loss_changes":[1.5412326E-2,1.884119E-2,6.303074E-2,3.392375E-2,3.400632E-2,3.301957E-2,0E0,0E0,0E0,0E0,0E0,0E0,0E0],"parents":[2147483647,0,0,1,1,2,2,3,3,4,4,5,5],"right_children":[2,4,6,8,10,12,-1,-1,-1,-1,-1,-1,-1],"split_conditions":[9.3E0,3.5021392E-1,3.31356E-1,9.1E0,3.8565233E-1,9.5E0,9.86676E-3,3.7313788E-3,-5.739822E-3,-1.1113281E-2,-5.513865E-4,-6.7910003E-3,1.4536775E-3],"split_indices":[2,3,3,1,3,0,0,0,0,0,0,0,0],"split_type":[0,0,0,0,0,0,0,0,0,0,0,0,0],"sum_hessian":[1.25E2,1.05E2,2E1,1.5E1,9E1,1.6E1,4E0,1.3E1,2E0,1E0,8.9E1,3E0,1.3E1],"tree_param":{"num_deleted":"0","num_feature":"5","num_nodes":"13","size_leaf_vector":"1"}},{"base_weights":[4.4665262E-4,-6.461267E-3,1.6613973E-2,-5.9430026E-3,-4.8463373E-3,6.094846E-3,7.170018E-2,-1.5155552E-3,1.0970608E-4,4.5222626E-3,-2.248593E-4,1.828865E-3,1.2635879E-2],"categories":[],"categories_nodes":[],"categories_segments":[],"categories_sizes":[],"default_left":[0,0,0,0,0,0,0,0,0,0,0,0,0],"id":75,"left_children":[1,3,5,-1,7,9,11,-1,-1,-1,-1,-1,-1],"loss_changes":[1.4179348E-2,9.38856E-3,2.1582432E-2,0E0,7.739817E-3,1.4980485E-2,2.1663046E-2,0E0,0E0,0E0,0E0,0E0,0E0],"parents":[2147483647,0,0,1,1,2,2,4,4,5,5,6,6],"right_children":[2,4,6,-1,8,10,12,-1,-1,-1,-1,-1,-1],"split_conditions":[8.3E0,3.8E0,4.8853374E-1,-5.9430026E-3,1.0941571E0,8.8E0,8.7E0,-1.5155552E-3,1.0970608E-4,4.5222626E-3,-2.248593E-4,1.828865E-3,1.2635879E-2],"split_indices":[0,1,3,0,3,2,0,0,0,0,0,0,0],"split_type":[0,0,0,0,0,0,0,0,0,0,0,0,0],"sum_hessian":[1.25E2,8.8E1,3.7E1,1E0,8.7E1,3.2E1,5E0,2.6E1,6.1E1,4E0,2.8E1,4E0,1E0],"tree_param":{"num_deleted":"0","num_feature":"5","num_nodes":"13","size_leaf_vector":"1"}},{"base_weights":[5.0152105E-4,9.166666E-3,-1.1606446E-2,1.9508564E-3,6.1064083E-2,-1.625902E-2,2.203884E-3,6.7325094E-4,-5.127964E-3,1.0610018E-2,2.5434492E-4,-5.0732037E-3,-9.3648484E-4],"categories":[],"categories_nodes":[],"categories_segments":[],"categories_sizes":[],"default_left":[0,0,0,0,0,0,0,0,0,0,0,0,0],"id":76,"left_children":[1,3,5,7,9,11,-1,-1,-1,-1,-1,-1,-1],"loss_changes":[1.3325971E-2,2.759253E-2,1.0103002E-2,2.8721526E-2,3.6859047E-2,9.563235E-3,0E0,0E0,0E0,0E0,0E0,0E0,0E0],"parents":[2147483647,0,0,1,1,2,2,3,3,4,4,5,5],"right_children":[2,4,6,8,10,12,-1,-1,-1,-1,-1,-1,-1],"split_conditions":[1.1581007E0,1.0965233E0,7.2E0,1.064944E0,1.1353295E0,1.1771725E0,2.203884E-3,6.7325094E-4,-5.127964E-3,1.0610018E-2,2.5434492E-4,-5.0732037E-3,-9.3648484E-4],"split_indices":[3,3,0,3,3,3,0,0,0,0,0,0,0],"split_type":[0,0,0,0,0,0,0,0,0,0,0,0,0],"sum_hessian":[1.25E2,7.3E1,5.2E1,6.5E1,8E0,4.7E1,5E0,6E1,5E0,3E0,5E0,3E0,4.4E1],"tree_param":{"num_deleted":"0","num_feature":"5","num_nodes":"13","size_leaf_vector":"1"}},{"base_weights":[4.820502E-4,-2.7071766E-3,3.1005302E-2,2.2472622E-4,-3.7263446E-2,-1.2880961E-3,9.5914125E-2,-3.5709838E-4,9.765472E-3,-3.111703E-4,-8.217162E-3,1.7172114E-3,-2.8076742E-3,3.1961822E-3,1.0551986E-2],"categories":[],"categories_nodes":[],"categories_segments":[],"categories_sizes":[],"default_left":[0,0,0,0,0,0,0,0,0,0,0,0,0,0,0],"id":77,"left_children":[1,3,5,7,9,11,13,-1,-1,-1,-1,-1,-1,-1,-1],"loss_changes":[1.234948E-2,1.1659671E-2,2.5277063E-2,6.1669566E-2,1.9259658E-2,7.6764785E-3,2.7856082E-3,0E0,0E0,0E0,0E0,0E0,0E0,0E0,0E0],"parents":[2147483647,0,0,1,1,2,2,3,3,4,4,5,5,6,6],"right_children":[2,4,6,8,10,12,14,-1,-1,-1,-1,-1,-1,-1,-1],"split_conditions":[9.6E0,9.4E0,3.679392E-2,9.3E0,9.6E0,9.9E0,9.9E0,-3.5709838E-4,9.765472E-3,-3.111703E-4,-8.217162E-3,1.7172114E-3,-2.8076742E-3,3.1961822E-3,1.0551986E-2],"split_indices":[0,0,3,2,2,0,1,0,0,0,0,0,0,0,0],"split_type":[0,0,0,0,0,0,0,0,0,0,0,0,0,0,0],"sum_hessian":[1.25E2,1.14E2,1.1E1,1.06E2,8E0,8E0,3E0,1.03E2,3E0,6E0,2E0,5E0,3E0,2E0,1E0],"tree_param":{"num_deleted":"0","num_feature":"5","num_nodes":"15","size_leaf_vector":"1"}},{"base_weights":[5.5085856E-4,-2.4830133E-3,2.957956E-2,2.9462966E-4,-3.5230212E-2,-1.3064279E-3,9.167814E-2,-3.2880876E-4,9.179534E-3,-2.898516E-4,-7.7789305E-3,1.6027068E-3,-2.6392173E-3,3.0257415E-3,1.012989E-2],"categories":[],"categories_nodes":[],"categories_segments":[],"categories_sizes":[],"default_left":[0,0,0,0,0,0,0,0,0,0,0,0,0,0,0],"id":78,"left_children":[1,3,5,7,9,11,13,-1,-1,-1,-1,-1,-1,-1,-1],"loss_changes":[1.1170185E-2,1.0470782E-2,2.3135483E-2,5.44125E-2,1.7286269E-2,6.7461845E-3,2.7390197E-3,0E0,0E0,0E0,0E0,0E0,0E0,0E0,0E0],"parents":[2147483647,0,0,1,1,2,2,3,3,4,4,5,5,6,6],"right_children":[2,4,6,8,10,12,14,-1,-1,-1,-1,-1,-1,-1,-1],"split_conditions":[9.6E0,9.4E0,3.679392E-2,9.3E0,9.6E0,9.9E0,9.9E0,-3.2880876E-4,9.179534E-3,-2.898516E-4,-7.7789305E-3,1.6027068E-3,-2.6392173E-3,3.0257415E-3,1.012989E-2],"split_indices":[0,0,3,2,2,0,1,0,0,0,0,0,0,0,0],"split_type":[0,0,0,0,0,0,0,0,0,0,0,0,0,0,0],"sum_hessian":[1.25E2,1.14E2,1.1E1,1.06E2,8E0,8E0,3E0,1.03E2,3E0,6E0,2E0,5E0,3E0,2E0,1E0],"tree_param":{"num_deleted":"0","num_feature":"5","num_nodes":"15","size_leaf_vector":"1"}},{"base_weights":[6.0930895E-4,-5.0341785E-2,2.2613013E-3,-5.720431E-3,5.2596093E-4,6.443421E-3,-1.7231314E-2,2.96089E-4,2.504204E-3,-2.2837438E-3,3.2660055E-3],"categories":[],"categories_nodes":[],"categories_segments":[],"categories_sizes":[],"default_left":[0,0,0,0,0,0,0,0,0,0,0],"id":79,"left_children":[1,3,5,-1,-1,7,9,-1,-1,-1,-1],"loss_changes":[1.0719361E-2,5.288329E-3,1.0138043E-2,0E0,0E0,6.837628E-3,1.5618019E-2,0E0,0E0,0E0,0E0],"parents":[2147483647,0,0,1,1,2,2,5,5,6,6],"right_children":[2,4,6,-1,-1,8,10,-1,-1,-1,-1],"split_conditions":[4E0,4E0,1.3418189E0,-5.720431E-3,5.2596093E-4,9.8E0,2.5E-1,2.96089E-4,2.504204E-3,-2.2837438E-3,3.2660055E-3],"split_indices":[2,1,3,0,0,0,4,0,0,0,0],"split_type":[0,0,0,0,0,0,0,0,0,0,0],"sum_hessian":[1.25E2,3E0,1.22E2,2E0,1E0,1.01E2,2.1E1,9.2E1,9E0,1.8E1,3E0],"tree_param":{"num_deleted":"0","num_feature":"5","num_nodes":"11","size_leaf_vector":"1"}},{"base_weights":[5.494394E-4,-1.2513363E-2,6.332392E-3,-7.790082E-3,-4.1515636E-3,9.1201775E-3,-3.3287365E-2,5.5801515E-3,-1.152232E-3,9.42933E-4,-2.1651331E-3,-4.8622894E-3,-3.4776688E-4],"categories":[],"categories_nodes":[],"categories_segments":[],"categories_sizes":[],"default_left":[0,0,0,0,0,0,0,0,0,0,0,0,0],"id":80,"left_children":[1,3,5,7,-1,9,11,-1,-1,-1,-1,-1,-1],"loss_changes":[9.5974775E-3,6.850063E-3,1.0023307E-2,1.9464388E-2,0E0,8.327253E-3,4.5094173E-3,0E0,0E0,0E0,0E0,0E0,0E0],"parents":[2147483647,0,0,1,1,2,2,3,3,5,5,6,6],"right_children":[2,4,6,8,-1,10,12,-1,-1,-1,-1,-1,-1],"split_conditions":[5.2E0,5.1E0,1.3723973E0,1.064944E0,-4.1515636E-3,9.9E0,1.3991725E0,5.5801515E-3,-1.152232E-3,9.42933E-4,-2.1651331E-3,-4.8622894E-3,-3.4776688E-4],"split_indices":[2,1,3,3,0,2,3,0,0,0,0,0,0],"split_type":[0,0,0,0,0,0,0,0,0,0,0,0,0],"sum_hessian":[1.25E2,3.8E1,8.7E1,3.5E1,3E0,8.2E1,5E0,2E0,3.3E1,7.7E1,5E0,2E0,3E0],"tree_param":{"num_deleted":"0","num_feature":"5","num_nodes":"13","size_leaf_vector":"1"}},{"base_weights":[4.5658104E-4,-5.3654765E-3,1.533329E-3,5.664388E-3,-1.6087562E-2,2.4640505E-4,2.330574E-3,-1.9057054E-3,1.4451981E-3],"categories":[],"categories_nodes":[],"categories_segments":[],"categories_sizes":[],"default_left":[0,0,0,0,0,0,0,0,0],"id":81,"left_children":[1,-1,3,5,7,-1,-1,-1,-1],"loss_changes":[9.2639765E-3,0E0,9.190245E-3,6.096407E-3,6.769389E-3,0E0,0E0,0E0,0E0],"parents":[2147483647,0,0,2,2,3,3,4,4],"right_children":[2,-1,4,6,8,-1,-1,-1,-1],"split_conditions":[3.8E0,-5.3654765E-3,1.3418189E0,9.8E0,2.5E-1,2.4640505E-4,2.330574E-3,-1.9057054E-3,1.4451981E-3],"split_indices":[1,0,3,0,4,0,0,0,0],"split_type":[0,0,0,0,0,0,0,0,0],"sum_hessian":[1.25E2,1E0,1.24E2,1.01E2,2.3E1,9.2E1,9E0,1.9E1,4E0],"tree_param":{"num_deleted":"0","num_feature":"5","num_nodes":"9","size_leaf_vector":"1"}},{"base_weights":[3.9431785E-4,-4.5292437E-2,1.8768602E-3,-5.249354E-3,6.272411E-4,3.7231853E-3,-2.9251268E-2,5.190976E-3,1.6761813E-4,-3.1288431E-3,1.1961746E-3],"categories":[],"categories_nodes":[],"categories_segments":[],"categories_sizes":[],"default_left":[0,0,0,0,0,0,0,0,0,0,0],"id":82,"left_children":[1,3,5,-1,-1,7,9,-1,-1,-1,-1],"loss_changes":[8.6193085E-3,4.834071E-3,7.178044E-3,0E0,0E0,1.15140285E-2,3.6354847E-3,0E0,0E0,0E0,0E0],"parents":[2147483647,0,0,1,1,2,2,5,5,6,6],"right_children":[2,4,6,-1,-1,8,10,-1,-1,-1,-1],"split_conditions":[4E0,4E0,1.4587022E0,-5.249354E-3,6.272411E-4,4.1E0,4.2E0,5.190976E-3,1.6761813E-4,-3.1288431E-3,1.1961746E-3],"split_indices":[2,1,3,0,0,0,0,0,0,0,0],"split_type":[0,0,0,0,0,0,0,0,0,0,0],"sum_hessian":[1.25E2,3E0,1.22E2,2E0,1E0,1.16E2,6E0,2E0,1.14E2,5E0,1E0],"tree_param":{"num_deleted":"0","num_feature":"5","num_nodes":"11","size_leaf_vector":"1"}},{"base_weights":[3.5307143E-4,-4.940891E-3,1.3440743E-3,5.0703473E-3,-1.45485895E-2,5.583999E-4,-2.1317927E-3,8.864675E-4,-1.896587E-3],"categories":[],"categories_nodes":[],"categories_segments":[],"categories_sizes":[],"default_left":[0,0,0,0,0,0,0,0,0],"id":83,"left_children":[1,-1,3,5,7,-1,-1,-1,-1],"loss_changes":[7.838988E-3,0E0,7.4763177E-3,6.364125E-3,5.8963015E-3,0E0,0E0,0E0,0E0],"parents":[2147483647,0,0,2,2,3,3,4,4],"right_children":[2,-1,4,6,8,-1,-1,-1,-1],"split_conditions":[3.8E0,-4.940891E-3,1.3418189E0,9.9E0,4.1E0,5.583999E-4,-2.1317927E-3,8.864675E-4,-1.896587E-3],"split_indices":[1,0,3,2,2,0,0,0,0],"split_type":[0,0,0,0,0,0,0,0,0],"sum_hessian":[1.25E2,1E0,1.24E2,1.01E2,2.3E1,9.6E1,5E0,6E0,1.7E1],"tree_param":{"num_deleted":"0","num_feature":"5","num_nodes":"9","size_leaf_vector":"1"}},{"base_weights":[2.6495117E-4,-2.3088248E-3,2.4908224E-2,4.3134156E-4,-3.462982E-2,-3.5685434E-3,8.27539E-2,-2.9127012E-4,8.496094E-3,-4.2162213E-4,-7.327372E-3,1.4085897E-3,-2.7552221E-3,2.5174203E-3,9.464493E-3],"categories":[],"categories_nodes":[],"categories_segments":[],"categories_sizes":[],"default_left":[0,0,0,0,0,0,0,0,0,0,0,0,0,0,0],"id":84,"left_children":[1,3,5,7,9,11,13,-1,-1,-1,-1,-1,-1,-1,-1],"loss_changes":[8.049219E-3,1.0199902E-2,2.0062404E-2,4.647347E-2,1.4568778E-2,6.490038E-3,3.570525E-3,0E0,0E0,0E0,0E0,0E0,0E0,0E0,0E0],"parents":[2147483647,0,0,1,1,2,2,3,3,4,4,5,5,6,6],"right_children":[2,4,6,8,10,12,14,-1,-1,-1,-1,-1,-1,-1,-1],"split_conditions":[9.6E0,9.4E0,3.679392E-2,9.3E0,9.6E0,9.9E0,9.9E0,-2.9127012E-4,8.496094E-3,-4.2162213E-4,-7.327372E-3,1.4085897E-3,-2.7552221E-3,2.5174203E-3,9.464493E-3],"split_indices":[0,0,3,2,2,0,1,0,0,0,0,0,0,0,0],"split_type":[0,0,0,0,0,0,0,0,0,0,0,0,0,0,0],"sum_hessian":[1.25E2,1.14E2,1.1E1,1.06E2,8E0,8E0,3E0,1.03E2,3E0,6E0,2E0,5E0,3E0,2E0,1E0],"tree_param":{"num_deleted":"0","num_feature":"5","num_nodes":"15","size_leaf_vector":"1"}},{"base_weights":[3.317462E-4,-4.181409E-2,1.6996453E-3,-4.8457338E-3,5.7834625E-4,-4.592904E-4,2.6141549E-2,1.2254923E-4,-3.5338288E-3,-6.2971935E-4,6.3303183E-3],"categories":[],"categories_nodes":[],"categories_segments":[],"categories_sizes":[],"default_left":[0,0,0,0,0,0,0,0,0,0,0],"id":85,"left_children":[1,3,5,-1,-1,7,9,-1,-1,-1,-1],"loss_changes":[7.335127E-3,4.117635E-3,6.5025315E-3,0E0,0E0,9.990287E-3,1.86455E-2,0E0,0E0,0E0,0E0],"parents":[2147483647,0,0,1,1,2,2,5,5,6,6],"right_children":[2,4,6,-1,-1,8,10,-1,-1,-1,-1],"split_conditions":[4E0,4E0,9.8E0,-4.8457338E-3,5.7834625E-4,9.6E0,6.4687645E-3,1.2254923E-4,-3.5338288E-3,-6.2971935E-4,6.3303183E-3],"split_indices":[2,1,0,0,0,2,3,0,0,0,0],"split_type":[0,0,0,0,0,0,0,0,0,0,0],"sum_hessian":[1.25E2,3E0,1.22E2,2E0,1E0,1.13E2,9E0,1.09E2,4E0,6E0,3E0],"tree_param":{"num_deleted":"0","num_feature":"5","num_nodes":"11","size_leaf_vector":"1"}},{"base_weights":[2.8936067E-4,-1.2582466E-2,4.622088E-3,2.4646878E-2,-1.728367E-2,6.778526E-3,-2.8494835E-2,-2.2930144E-3,7.383022E-3,-5.180564E-4,-6.6571617E-3,-7.956822E-5,1.7283704E-3,-4.400126E-3,-1.1928558E-4],"categories":[],"categories_nodes":[],"categories_segments":[],"categories_sizes":[],"default_left":[0,0,0,0,0,0,0,0,0,0,0,0,0,0,0],"id":86,"left_children":[1,3,5,7,9,11,13,-1,-1,-1,-1,-1,-1,-1,-1],"loss_changes":[7.0851916E-3,6.0267155E-3,6.9775404E-3,1.7068842E-2,2.01259E-2,1.0393558E-2,4.21268E-3,0E0,0E0,0E0,0E0,0E0,0E0,0E0,0E0],"parents":[2147483647,0,0,1,1,2,2,3,3,4,4,5,5,6,6],"right_children":[2,4,6,8,10,12,14,-1,-1,-1,-1,-1,-1,-1,-1],"split_conditions":[5E0,1.064944E0,1.3723973E0,4.9E0,4.9E0,1.0941571E0,1.3991725E0,-2.2930144E-3,7.383022E-3,-5.180564E-4,-6.6571617E-3,-7.956822E-5,1.7283704E-3,-4.400126E-3,-1.1928558E-4],"split_indices":[0,3,3,0,0,3,3,0,0,0,0,0,0,0,0],"split_type":[0,0,0,0,0,0,0,0,0,0,0,0,0,0,0],"sum_hessian":[1.25E2,3.1E1,9.4E1,3E0,2.8E1,8.9E1,5E0,2E0,1E0,2.5E1,3E0,5.9E1,3E1,2E0,3E0],"tree_param":{"num_deleted":"0","num_feature":"5","num_nodes":"15","size_leaf_vector":"1"}},{"base_weights":[2.2669444E-4,-2.140211E-3,2.2890648E-2,4.349646E-4,-3.2518387E-2,-2.5637944E-3,7.444048E-2,-2.2335452E-4,9.058507E-3,-4.956347E-3,1.5812111E-3,1.3906097E-3,-2.5473975E-3,2.0497385E-3,8.835869E-3],"categories":[],"categories_nodes":[],"categories_segments":[],"categories_sizes":[],"default_left":[0,0,0,0,0,0,0,0,0,0,0,0,0,0,0],"id":87,"left_children":[1,3,5,7,9,11,13,-1,-1,-1,-1,-1,-1,-1,-1],"loss_changes":[6.808064E-3,9.010496E-3,1.5936917E-2,3.9262228E-2,1.5075673E-2,5.8095474E-3,4.2015593E-3,0E0,0E0,0E0,0E0,0E0,0E0,0E0,0E0],"parents":[2147483647,0,0,1,1,2,2,3,3,4,4,5,5,6,6],"right_children":[2,4,6,8,10,12,14,-1,-1,-1,-1,-1,-1,-1,-1],"split_conditions":[9.6E0,9.4E0,3.679392E-2,9.3E0,1.2018392E-1,9.9E0,9.9E0,-2.2335452E-4,9.058507E-3,-4.956347E-3,1.5812111E-3,1.3906097E-3,-2.5473975E-3,2.0497385E-3,8.835869E-3],"split_indices":[0,1,3,2,3,0,1,0,0,0,0,0,0,0,0],"split_type":[0,0,0,0,0,0,0,0,0,0,0,0,0,0,0],"sum_hessian":[1.25E2,1.14E2,1.1E1,1.06E2,8E0,8E0,3E0,1.04E2,2E0,5E0,3E0,5E0,3E0,2E0,1E0],"tree_param":{"num_deleted":"0","num_feature":"5","num_nodes":"15","size_leaf_vector":"1"}},{"base_weights":[3.2896845E-4,-4.508114E-3,1.233223E-3,4.510896E-3,-1.2748271E-2,1.9663015E-4,2.5617736E-3,9.396716E-4,-1.7252434E-3],"categories":[],"categories_nodes":[],"categories_segments":[],"categories_sizes":[],"default_left":[0,0,0,0,0,0,0,0,0],"id":88,"left_children":[1,-1,3,5,7,-1,-1,-1,-1],"loss_changes":[6.5274346E-3,0E0,5.7858517E-3,5.6823725E-3,5.436628E-3,0E0,0E0,0E0,0E0],"parents":[2147483647,0,0,2,2,3,3,4,4],"right_children":[2,-1,4,6,8,-1,-1,-1,-1],"split_conditions":[3.8E0,-4.508114E-3,1.3418189E0,1.3103505E0,4.1E0,1.9663015E-4,2.5617736E-3,9.396716E-4,-1.7252434E-3],"split_indices":[1,0,3,3,2,0,0,0,0],"split_type":[0,0,0,0,0,0,0,0,0],"sum_hessian":[1.25E2,1E0,1.24E2,1.01E2,2.3E1,9.5E1,6E0,6E0,1.7E1],"tree_param":{"num_deleted":"0","num_feature":"5","num_nodes":"9","size_leaf_vector":"1"}},{"base_weights":[2.8266036E-4,-8.721019E-3,5.749672E-3,-3.2782342E-2,-3.0891956E-3,2.982076E-2,2.6174262E-3,2.2750854E-4,-8.398616E-3,4.909889E-3,-9.565242E-4,2.4059296E-4,5.0068474E-3,4.4712448E-3,8.46356E-5],"categories":[],"categories_nodes":[],"categories_segments":[],"categories_sizes":[],"default_left":[0,0,0,0,0,0,0,0,0,0,0,0,0,0,0],"id":89,"left_children":[1,3,5,7,9,11,13,-1,-1,-1,-1,-1,-1,-1,-1],"loss_changes":[6.252269E-3,6.403167E-3,5.8782743E-3,2.3448572E-2,2.3598408E-2,7.718593E-3,5.8394414E-3,0E0,0E0,0E0,0E0,0E0,0E0,0E0,0E0],"parents":[2147483647,0,0,1,1,2,2,3,3,4,4,5,5,6,6],"right_children":[2,4,6,8,10,12,14,-1,-1,-1,-1,-1,-1,-1,-1],"split_conditions":[5.7E0,1.0819007E0,-6.4136976E-1,1.064944E0,1.1041316E0,8.5E0,-9.5E-1,2.2750854E-4,-8.398616E-3,4.909889E-3,-9.565242E-4,2.4059296E-4,5.0068474E-3,4.4712448E-3,8.46356E-5],"split_indices":[2,3,3,3,3,0,4,0,0,0,0,0,0,0,0],"split_type":[0,0,0,0,0,0,0,0,0,0,0,0,0,0,0],"sum_hessian":[1.25E2,4.7E1,7.8E1,8E0,3.9E1,8E0,7E1,6E0,2E0,4E0,3.5E1,5E0,3E0,1E0,6.9E1],"tree_param":{"num_deleted":"0","num_feature":"5","num_nodes":"15","size_leaf_vector":"1"}},{"base_weights":[3.0439429E-4,-1.921689E-3,2.1612326E-2,-3.1169184E-4,-4.6521187E-2,-2.7372572E-3,7.099581E-2,-2.1127971E-4,2.8004127E-3,2.2985076E-3,-6.4945985E-3,1.2791569E-3,-2.4114416E-3,1.9254303E-3,8.4711835E-3],"categories":[],"categories_nodes":[],"categories_segments":[],"categories_sizes":[],"default_left":[0,0,0,0,0,0,0,0,0,0,0,0,0,0,0],"id":90,"left_children":[1,3,5,7,9,11,13,-1,-1,-1,-1,-1,-1,-1,-1],"loss_changes":[6.018119E-3,8.243082E-3,1.4623942E-2,9.305983E-3,1.2765881E-2,5.1009515E-3,4.0014666E-3,0E0,0E0,0E0,0E0,0E0,0E0,0E0,0E0],"parents":[2147483647,0,0,1,1,2,2,3,3,4,4,5,5,6,6],"right_children":[2,4,6,8,10,12,14,-1,-1,-1,-1,-1,-1,-1,-1],"split_conditions":[9.6E0,9.6E0,3.679392E-2,9.3E0,9.3E0,9.9E0,9.9E0,-2.1127971E-4,2.8004127E-3,2.2985076E-3,-6.4945985E-3,1.2791569E-3,-2.4114416E-3,1.9254303E-3,8.4711835E-3],"split_indices":[0,2,3,2,0,0,1,0,0,0,0,0,0,0,0],"split_type":[0,0,0,0,0,0,0,0,0,0,0,0,0,0,0],"sum_hessian":[1.25E2,1.14E2,1.1E1,1.11E2,3E0,8E0,3E0,1.05E2,6E0,1E0,2E0,5E0,3E0,2E0,1E0],"tree_param":{"num_deleted":"0","num_feature":"5","num_nodes":"15","size_leaf_vector":"1"}},{"base_weights":[3.409064E-4,-3.7446737E-2,1.5670012E-3,-4.390316E-3,5.93996E-4,3.8846335E-4,3.653139E-2,2.5929185E-4,